{"learner":{"attributes":{"scikit_learn":"{\"_estimator_type\": \"classifier\"}"},"feature_names":["average followers","average follows","repost total","post total","repost percentage","average repost","average favorite","news lifetime","nb users 10 hours","average time difference","retweet percentage 1 hour"],"feature_types":["float","float","int","int","float","float","float","int","int","float","float"],"gradient_booster":{"model":{"gbtree_model_param":{"num_parallel_tree":"1","num_trees":"100"},"iteration_indptr":[0,1,2,3,4,5,6,7,8,9,10,11,12,13,14,15,16,17,18,19,20,21,22,23,24,25,26,27,28,29,30,31,32,33,34,35,36,37,38,39,40,41,42,43,44,45,46,47,48,49,50,51,52,53,54,55,56,57,58,59,60,61,62,63,64,65,66,67,68,69,70,71,72,73,74,75,76,77,78,79,80,81,82,83,84,85,86,87,88,89,90,91,92,93,94,95,96,97,98,99,100],"tree_info":[0,0,0,0,0,0,0,0,0,0,0,0,0,0,0,0,0,0,0,0,0,0,0,0,0,0,0,0,0,0,0,0,0,0,0,0,0,0,0,0,0,0,0,0,0,0,0,0,0,0,0,0,0,0,0,0,0,0,0,0,0,0,0,0,0,0,0,0,0,0,0,0,0,0,0,0,0,0,0,0,0,0,0,0,0,0,0,0,0,0,0,0,0,0,0,0,0,0,0,0],"trees":[{"base_weights":[3.2175788E-6,7.765165E-1,-5.651212E-1,-3.817458E-3,1.5936526E0,-6.2726015E-1,2.2317497E-1,5.4278845E-1,6.4044696E-1,1.13918535E-1,-3.5019222E-1,5.584695E-1,-2.685366E-1,-6.7803017E-3,3.5395992E-1,8.517337E-1,-5.320416E-2,2.6155722E-1,-6.916687E-1,3.7541595E-1,1.2545253E-1,-7.2327375E-2,1.9438186E-1,-3.3903664E-1,-6.102155E-3],"categories":[],"categories_nodes":[],"categories_segments":[],"categories_sizes":[],"default_left":[0,0,0,0,0,0,0,0,0,0,0,0,0,0,0,0,0,0,0,0,0,0,0,0,0],"id":0,"left_children":[1,3,-1,5,7,9,11,-1,13,-1,-1,15,17,-1,-1,19,-1,21,23,-1,-1,-1,-1,-1,-1],"loss_changes":[6.763357E1,2.0882948E1,0E0,2.6512306E0,2.129177E0,3.1617422E0,2.4163032E0,0E0,1.6357807E0,0E0,0E0,1.9847913E0,1.5824461E0,0E0,0E0,5.593958E-1,0E0,8.358237E-1,1.080578E0,0E0,0E0,0E0,0E0,0E0,0E0],"parents":[2147483647,0,0,1,1,3,3,4,4,5,5,6,6,8,8,11,11,12,12,15,15,17,17,18,18],"right_children":[2,4,-1,6,8,10,12,-1,14,-1,-1,16,18,-1,-1,20,-1,22,24,-1,-1,-1,-1,-1,-1],"split_conditions":[3.2E1,8E0,-5.651212E-1,4.4244446E2,1.2E1,8.45E1,2.0481E4,5.4278845E-1,6.6958E4,1.13918535E-1,-3.5019222E-1,4.487607E3,1.882421E3,-6.7803017E-3,3.5395992E-1,4.1843972E-1,-5.320416E-2,4.322E4,5.1527354E3,3.7541595E-1,1.2545253E-1,-7.2327375E-2,1.9438186E-1,-3.3903664E-1,-6.102155E-3],"split_indices":[3,3,0,0,3,0,7,0,7,0,0,0,0,0,0,10,0,7,0,0,0,0,0,0,0],"split_type":[0,0,0,0,0,0,0,0,0,0,0,0,0,0,0,0,0,0,0,0,0,0,0,0,0],"sum_hessian":[4.423729E1,3.1740881E1,1.2496409E1,1.674519E1,1.4995691E1,3.998851E0,1.2746338E1,1.1496696E1,3.4989946E0,1.4995692E0,2.499282E0,7.4978456E0,5.2484922E0,1.9994255E0,1.4995692E0,5.2484922E0,2.2493536E0,2.499282E0,2.7492101E0,1.7494973E0,3.4989946E0,1.249641E0,1.249641E0,1.249641E0,1.4995692E0],"tree_param":{"num_deleted":"0","num_feature":"11","num_nodes":"25","size_leaf_vector":"1"}},{"base_weights":[8.085131E-3,5.972461E-1,-4.387322E-1,-3.1913393E-3,1.2578666E0,-4.522279E-1,2.0735778E-1,1.3569309E0,2.0969018E-2,9.374747E-2,-7.808918E-1,2.879925E-1,-4.5940924E-2,4.226589E-1,1.2877631E-1,-3.2705292E-1,-5.5469207E-2,-2.6304176E-1,2.2509243E-1,3.648688E-2,-2.696663E-1],"categories":[],"categories_nodes":[],"categories_segments":[],"categories_sizes":[],"default_left":[0,0,0,0,0,0,0,0,0,0,0,0,0,0,0,0,0,0,0,0,0],"id":1,"left_children":[1,3,-1,5,7,9,11,13,-1,-1,15,-1,17,-1,-1,-1,-1,19,-1,-1,-1],"loss_changes":[3.8334026E1,1.2530673E1,0E0,1.7521883E0,1.6750336E0,1.7303616E0,2.4513505E0,6.1382294E-2,0E0,0E0,6.1353135E-1,0E0,1.9955233E0,0E0,0E0,0E0,0E0,2.2895575E0,0E0,0E0,0E0],"parents":[2147483647,0,0,1,1,3,3,4,4,5,5,6,6,7,7,10,10,12,12,17,17],"right_children":[2,4,-1,6,8,10,12,14,-1,-1,16,-1,18,-1,-1,-1,-1,20,-1,-1,-1],"split_conditions":[3.2E1,8E0,-4.387322E-1,5.364545E2,1.1923567E1,8.45E1,8.127895E2,8E0,2.0969018E-2,9.374747E-2,3.0244446E2,2.879925E-1,2.0283E3,4.226589E-1,1.2877631E-1,-3.2705292E-1,-5.5469207E-2,1.08275E3,2.2509243E-1,3.648688E-2,-2.696663E-1],"split_indices":[3,3,0,0,5,0,0,8,0,0,1,0,1,0,0,0,0,1,0,0,0],"split_type":[0,0,0,0,0,0,0,0,0,0,0,0,0,0,0,0,0,0,0,0,0],"sum_hessian":[4.2238243E1,3.0580235E1,1.165801E1,1.6541159E1,1.4039077E1,4.9137626E0,1.1627396E1,1.2827196E1,1.2118801E0,1.4918361E0,3.4219265E0,2.2253625E0,9.402033E0,1.1655984E1,1.1712124E0,1.7069511E0,1.7149754E0,7.9139166E0,1.4881159E0,5.434784E0,2.4791327E0],"tree_param":{"num_deleted":"0","num_feature":"11","num_nodes":"21","size_leaf_vector":"1"}},{"base_weights":[8.221338E-3,4.740398E-1,-3.7600252E-1,-3.0385626E-3,1.0502868E0,-5.3269017E-1,1.524957E-1,3.746185E-1,3.311467E-1,6.36952E-4,-3.0102196E-1,2.549098E-1,-1.3154992E-1,-6.290641E-2,2.610991E-1,-2.0151945E-2,6.9228166E-1,7.2833434E-2,-1.2268034E-1,3.1232086E-1,-5.6389794E-2],"categories":[],"categories_nodes":[],"categories_segments":[],"categories_sizes":[],"default_left":[0,0,0,0,0,0,0,0,0,0,0,0,0,0,0,0,0,0,0,0,0],"id":2,"left_children":[1,3,-1,5,7,9,11,-1,13,-1,-1,15,-1,-1,-1,17,19,-1,-1,-1,-1],"loss_changes":[2.3893787E1,8.16321E0,0E0,1.5010636E0,1.5054159E0,1.0430753E0,9.652252E-1,0E0,1.4273584E0,0E0,0E0,1.5358284E0,0E0,0E0,0E0,9.9248624E-1,1.7038851E0,0E0,0E0,0E0,0E0],"parents":[2147483647,0,0,1,1,3,3,4,4,5,5,6,6,8,8,11,11,15,15,16,16],"right_children":[2,4,-1,6,8,10,12,-1,14,-1,-1,16,-1,-1,-1,18,20,-1,-1,-1,-1],"split_conditions":[3.2E1,8E0,-3.7600252E-1,1.433E2,1.2E1,2E0,2.7861538E1,3.746185E-1,6.6958E4,6.36952E-4,-3.0102196E-1,3.0772727E3,-1.3154992E-1,-6.290641E-2,2.610991E-1,1.1666666E0,6.7714E4,7.2833434E-2,-1.2268034E-1,3.1232086E-1,-5.6389794E-2],"split_indices":[3,3,0,1,3,3,6,0,7,0,0,0,0,0,0,6,7,0,0,0,0],"split_type":[0,0,0,0,0,0,0,0,0,0,0,0,0,0,0,0,0,0,0,0,0],"sum_hessian":[3.864823E1,2.868197E1,9.966263E0,1.6235352E1,1.2446618E1,3.1349123E0,1.310044E1,9.177685E0,3.2689342E0,1.9335555E0,1.2013566E0,1.1650237E1,1.450203E0,1.9370518E0,1.3318825E0,7.7378516E0,3.9123855E0,4.840088E0,2.897764E0,2.671238E0,1.2411476E0],"tree_param":{"num_deleted":"0","num_feature":"11","num_nodes":"21","size_leaf_vector":"1"}},{"base_weights":[5.487756E-3,3.801934E-1,-3.3696312E-1,-1.4749897E-2,9.187456E-1,-2.6798832E-1,2.2984663E-1,-2.583147E-2,1.0355865E0,-2.5715044E-1,1.3237302E-2,3.134429E-1,-2.626427E-2,3.279541E-1,7.3375285E-2,2.6754487E-1,-1.7060867E-1,-2.2354218E-1,1.5802628E-1,-3.8331077E-2,2.2056459E-1,1.150409E-1,-1.5369514E-1],"categories":[],"categories_nodes":[],"categories_segments":[],"categories_sizes":[],"default_left":[0,0,0,0,0,0,0,0,0,0,0,0,0,0,0,0,0,0,0,0,0,0,0],"id":3,"left_children":[1,3,-1,5,7,9,11,-1,13,-1,15,-1,17,-1,-1,19,-1,21,-1,-1,-1,-1,-1],"loss_changes":[1.5598817E1,5.9008574E0,0E0,1.1116802E0,1.46593E0,1.4679494E0,1.9397217E0,0E0,2.1469116E-1,0E0,1.1785277E0,0E0,9.847153E-1,0E0,0E0,1.1119429E0,0E0,1.3462285E0,0E0,0E0,0E0,0E0,0E0],"parents":[2147483647,0,0,1,1,3,3,4,4,5,5,6,6,8,8,10,10,12,12,15,15,17,17],"right_children":[2,4,-1,6,8,10,12,-1,14,-1,16,-1,18,-1,-1,20,-1,22,-1,-1,-1,-1,-1],"split_conditions":[3.2E1,8E0,-3.3696312E-1,6.454E2,1.5140045E-3,2.2222222E-1,8.186667E2,-2.583147E-2,8E0,-2.5715044E-1,4.38E2,3.134429E-1,2.0283E3,3.279541E-1,7.3375285E-2,4.4244446E2,-1.7060867E-1,7.982E2,1.5802628E-1,-3.8331077E-2,2.2056459E-1,1.150409E-1,-1.5369514E-1],"split_indices":[3,3,0,1,10,10,1,0,8,0,1,0,1,0,0,0,0,0,0,0,0,0,0],"split_type":[0,0,0,0,0,0,0,0,0,0,0,0,0,0,0,0,0,0,0,0,0,0,0],"sum_hessian":[3.487307E1,2.6679241E1,8.193829E0,1.5952906E1,1.0726336E1,7.7910028E0,8.161903E0,1.1447091E0,9.581626E0,1.8555572E0,5.9354453E0,1.2152791E0,6.946624E0,8.575233E0,1.0063927E0,4.506382E0,1.4290636E0,5.5592537E0,1.3873703E0,2.8359706E0,1.6704113E0,1.6864263E0,3.8728273E0],"tree_param":{"num_deleted":"0","num_feature":"11","num_nodes":"23","size_leaf_vector":"1"}},{"base_weights":[1.05039375E-2,3.1610322E-1,-3.089866E-1,1.2402313E-3,7.9509556E-1,-3.4705395E-1,1.6522068E-1,3.1325334E-1,1.1644284E-1,8.1871614E-2,-6.3380474E-1,2.2772147E-1,-3.685189E-2,-9.2439495E-2,1.9673331E-1,-2.4288622E-1,-4.148652E-2,2.1501496E-1,-3.8332152E-1,1.7445374E-1,-7.0941076E-2,-2.765572E-1,4.445535E-2],"categories":[],"categories_nodes":[],"categories_segments":[],"categories_sizes":[],"default_left":[0,0,0,0,0,0,0,0,0,0,0,0,0,0,0,0,0,0,0,0,0,0,0],"id":4,"left_children":[1,3,-1,5,7,9,11,-1,13,-1,15,-1,17,-1,-1,-1,-1,19,21,-1,-1,-1,-1],"loss_changes":[1.0651223E1,3.9001596E0,0E0,1.0059325E0,1.612401E0,1.1754494E0,1.4643645E0,0E0,1.0904427E0,0E0,2.5016737E-1,0E0,9.449896E-1,0E0,0E0,0E0,0E0,1.1906092E0,1.4304501E0,0E0,0E0,0E0,0E0],"parents":[2147483647,0,0,1,1,3,3,4,4,5,5,6,6,8,8,10,10,12,12,17,17,18,18],"right_children":[2,4,-1,6,8,10,12,-1,14,-1,16,-1,18,-1,-1,-1,-1,20,22,-1,-1,-1,-1],"split_conditions":[3.2E1,8E0,-3.089866E-1,5.364545E2,1.2E1,8.45E1,8.127895E2,3.1325334E-1,6.6958E4,8.1871614E-2,2E0,2.2772147E-1,2.1331E4,-9.2439495E-2,1.9673331E-1,-2.4288622E-1,-4.148652E-2,1.3007097E3,6.1206E4,1.7445374E-1,-7.0941076E-2,-2.765572E-1,4.445535E-2],"split_indices":[3,3,0,0,3,0,0,0,7,0,3,0,7,0,0,0,0,1,7,0,0,0,0],"split_type":[0,0,0,0,0,0,0,0,0,0,0,0,0,0,0,0,0,0,0,0,0,0,0],"sum_hessian":[3.147432E1,2.486675E1,6.6075683E0,1.5608909E1,9.257841E0,4.6390786E0,1.09698305E1,6.37826E0,2.8795812E0,1.4823976E0,3.1566813E0,2.0852544E0,8.884576E0,1.8510681E0,1.0285132E0,1.8620925E0,1.2945887E0,5.364357E0,3.5202188E0,2.8018935E0,2.5624633E0,1.383746E0,2.136473E0],"tree_param":{"num_deleted":"0","num_feature":"11","num_nodes":"23","size_leaf_vector":"1"}},{"base_weights":[8.279325E-3,2.593371E-1,-2.8666034E-1,-5.7697208E-3,7.1024334E-1,-2.7622798E-1,2.2672245E-1,2.8931406E-1,1.1392524E-1,1.2374022E-2,-2.3649383E-1,3.978363E-1,-1.524222E-1,-7.330317E-2,1.2801734E-1,-4.156502E-1,5.3694093E-1,4.409678E-2,2.753072E-1,4.930446E-2,-2.360515E-1,2.0888243E-2,2.2551349E-1,-5.9596296E-2,8.764085E-2],"categories":[],"categories_nodes":[],"categories_segments":[],"categories_sizes":[],"default_left":[0,0,0,0,0,0,0,0,0,0,0,0,0,0,0,0,0,0,0,0,0,0,0,0,0],"id":5,"left_children":[1,3,-1,5,7,9,11,-1,13,15,-1,17,-1,-1,-1,19,21,23,-1,-1,-1,-1,-1,-1,-1],"loss_changes":[7.353624E0,2.8830671E0,0E0,1.0786823E0,1.2427273E0,1.1802835E0,1.3637216E0,0E0,5.3023744E-1,1.5815748E0,0E0,1.4406651E0,0E0,0E0,0E0,9.6791846E-1,2.642895E-1,4.0987614E-1,0E0,0E0,0E0,0E0,0E0,0E0,0E0],"parents":[2147483647,0,0,1,1,3,3,4,4,5,5,6,6,8,8,9,9,11,11,15,15,16,16,17,17],"right_children":[2,4,-1,6,8,10,12,-1,14,16,-1,18,-1,-1,-1,20,22,24,-1,-1,-1,-1,-1,-1,-1],"split_conditions":[3.2E1,8E0,-2.8666034E-1,5.5495264E2,1.2E1,3.538E2,2.7861538E1,2.8931406E-1,3.989E4,1.433E2,-2.3649383E-1,2.9078013E-1,-1.524222E-1,-7.330317E-2,1.2801734E-1,3.95E1,4.4244446E2,1.2108182E3,2.753072E-1,4.930446E-2,-2.360515E-1,2.0888243E-2,2.2551349E-1,-5.9596296E-2,8.764085E-2],"split_indices":[3,3,0,1,3,1,6,0,7,1,0,4,0,0,0,1,0,0,0,0,0,0,0,0,0],"split_type":[0,0,0,0,0,0,0,0,0,0,0,0,0,0,0,0,0,0,0,0,0,0,0,0,0],"sum_hessian":[2.8366169E1,2.308407E1,5.2820983E0,1.5158785E1,7.9252853E0,6.92029E0,8.238495E0,5.124233E0,2.8010528E0,5.0500216E0,1.8702682E0,7.054315E0,1.1841794E0,1.4076397E0,1.3934132E0,2.8952515E0,2.1547701E0,4.843404E0,2.2109115E0,1.3472888E0,1.5479628E0,1.0954362E0,1.059334E0,2.5484192E0,2.2949843E0],"tree_param":{"num_deleted":"0","num_feature":"11","num_nodes":"25","size_leaf_vector":"1"}},{"base_weights":[8.352556E-3,2.146901E-1,-2.6729864E-1,-4.287505E-3,6.2958163E-1,-2.185722E-1,1.8050824E-1,-5.3376626E-2,7.7577275E-1,4.3985285E-3,-2.1592702E-1,1.8159606E-1,-8.958275E-2,8.595129E-1,6.222808E-2,2.8206906E-1,-1.5332407E-1,-4.331309E-1,2.813533E-1,2.9012343E-1,5.699106E-2,-1.3501574E-2,2.2351353E-1,8.201724E-3,-1.9183795E-1,1.8305142E-1,-5.1041167E-2],"categories":[],"categories_nodes":[],"categories_segments":[],"categories_sizes":[],"default_left":[0,0,0,0,0,0,0,0,0,0,0,0,0,0,0,0,0,0,0,0,0,0,0,0,0,0,0],"id":6,"left_children":[1,3,-1,5,7,9,11,-1,13,15,-1,-1,17,19,-1,21,-1,23,25,-1,-1,-1,-1,-1,-1,-1,-1],"loss_changes":[5.18302E0,2.063724E0,0E0,6.6677123E-1,1.0639808E0,8.7346077E-1,1.0930485E0,0E0,1.4667845E-1,1.0579087E0,0E0,0E0,9.382011E-1,2.2197104E-1,0E0,7.593771E-1,0E0,3.708691E-1,6.5109116E-1,0E0,0E0,0E0,0E0,0E0,0E0,0E0,0E0],"parents":[2147483647,0,0,1,1,3,3,4,4,5,5,6,6,8,8,9,9,12,12,13,13,15,15,17,17,18,18],"right_children":[2,4,-1,6,8,10,12,-1,14,16,-1,-1,18,20,-1,22,-1,24,26,-1,-1,-1,-1,-1,-1,-1,-1],"split_conditions":[3.2E1,8E0,-2.6729864E-1,5.5495264E2,1.7699115E-3,4.38E2,9.61485E2,-5.3376626E-2,2.254E3,3E0,-2.1592702E-1,1.8159606E-1,1.5390385E3,4.1343345E3,6.222808E-2,4.4244446E2,-1.5332407E-1,1.1461E3,3.3368E3,2.9012343E-1,5.699106E-2,-1.3501574E-2,2.2351353E-1,8.201724E-3,-1.9183795E-1,1.8305142E-1,-5.1041167E-2],"split_indices":[3,3,0,1,10,1,1,0,1,3,0,0,1,0,0,0,0,1,0,0,0,0,0,0,0,0,0],"split_type":[0,0,0,0,0,0,0,0,0,0,0,0,0,0,0,0,0,0,0,0,0,0,0,0,0,0,0],"sum_hessian":[2.5899565E1,2.1685534E1,4.214032E0,1.4841784E1,6.84375E0,6.7879095E0,8.053873E0,1.015801E0,5.827949E0,5.3839025E0,1.404007E0,2.647923E0,5.4059505E0,4.6330137E0,1.1949352E0,3.7933555E0,1.5905472E0,2.7195382E0,2.6864123E0,3.6088495E0,1.0241641E0,2.7519808E0,1.0413744E0,1.1099437E0,1.6095945E0,1.3510152E0,1.3353971E0],"tree_param":{"num_deleted":"0","num_feature":"11","num_nodes":"27","size_leaf_vector":"1"}},{"base_weights":[8.256268E-3,1.9182284E-1,-2.3595417E-1,-4.539768E-3,6.217537E-1,-2.5447217E-1,1.2910181E-1,-4.4793535E-2,7.9143226E-1,-5.4966325E-1,1.1495306E-1,5.559141E-1,-1.6542803E-1,2.7493054E-1,3.544621E-2,-2.3415233E-1,-5.7989076E-2,2.6108667E-1,-2.1395672E-2,-3.5662422E-1,8.9617275E-2,-1.8719804E-1,5.725785E-2,1.1789084E-1,-1.0087974E-1],"categories":[],"categories_nodes":[],"categories_segments":[],"categories_sizes":[],"default_left":[0,0,0,0,0,0,0,0,0,0,0,0,0,0,0,0,0,0,0,0,0,0,0,0,0],"id":7,"left_children":[1,3,-1,5,7,9,11,-1,13,15,-1,17,19,-1,-1,-1,-1,-1,-1,21,23,-1,-1,-1,-1],"loss_changes":[3.7945964E0,1.7835487E0,0E0,5.496548E-1,9.843633E-1,1.2886708E0,1.4427212E0,0E0,3.6177683E-1,2.0498836E-1,0E0,9.7240794E-1,3.795699E-1,0E0,0E0,0E0,0E0,0E0,0E0,7.448762E-1,6.299764E-1,0E0,0E0,0E0,0E0],"parents":[2147483647,0,0,1,1,3,3,4,4,5,5,6,6,8,8,9,9,11,11,12,12,19,19,20,20],"right_children":[2,4,-1,6,8,10,12,-1,14,16,-1,18,20,-1,-1,-1,-1,-1,-1,22,24,-1,-1,-1,-1],"split_conditions":[2.5E1,8E0,-2.3595417E-1,2.2222222E-1,1.7699115E-3,9.4609463E-1,8.333333E-1,-4.4793535E-2,2.254E3,5.545E2,1.1495306E-1,1.1666666E0,6.279537E2,2.7493054E-1,3.544621E-2,-2.3415233E-1,-5.7989076E-2,2.6108667E-1,-2.1395672E-2,1.6666667E-1,1.3007097E3,-1.8719804E-1,5.725785E-2,1.1789084E-1,-1.0087974E-1],"split_indices":[3,3,0,10,10,4,10,0,1,1,0,6,0,0,0,0,0,0,0,6,1,0,0,0,0],"split_type":[0,0,0,0,0,0,0,0,0,0,0,0,0,0,0,0,0,0,0,0,0,0,0,0,0],"sum_hessian":[2.3975283E1,2.009307E1,3.8822148E0,1.4472483E1,5.6205864E0,4.727367E0,9.745115E0,1.0354146E0,4.5851717E0,3.3257432E0,1.4016236E0,3.6166513E0,6.128464E0,3.5625792E0,1.0225927E0,1.2960275E0,2.0297155E0,2.1510308E0,1.4656205E0,3.2750363E0,2.853428E0,2.1065388E0,1.1684978E0,1.7115742E0,1.1418537E0],"tree_param":{"num_deleted":"0","num_feature":"11","num_nodes":"25","size_leaf_vector":"1"}},{"base_weights":[6.3223056E-3,1.4897646E-1,-2.3352602E-1,5.0550655E-2,2.4160396E-1,2.0062453E-1,-4.535621E-1,1.9836647E-2,2.5745666E-1,-6.248731E-1,8.585324E-3,2.3761354E-1,-3.5841984E-1,-4.8615385E-2,-2.3813522E-1,2.2338931E-1,-3.438611E-2,3.130212E-2,-1.6886687E-1],"categories":[],"categories_nodes":[],"categories_segments":[],"categories_sizes":[],"default_left":[0,0,0,0,0,0,0,0,0,0,0,0,0,0,0,0,0,0,0],"id":8,"left_children":[1,3,-1,5,-1,7,9,11,-1,13,-1,15,17,-1,-1,-1,-1,-1,-1],"loss_changes":[2.7250528E0,1.2875941E0,0E0,1.5243871E0,0E0,1.8010623E0,4.0224403E-1,1.157626E0,0E0,1.4319241E-1,0E0,1.6682899E0,5.4655397E-1,0E0,0E0,0E0,0E0,0E0,0E0],"parents":[2147483647,0,0,1,1,3,3,5,5,6,6,7,7,9,9,11,11,12,12],"right_children":[2,4,-1,6,-1,8,10,12,-1,14,-1,16,18,-1,-1,-1,-1,-1,-1],"split_conditions":[3.2E1,2.827761E3,-2.3352602E-1,5.4786235E3,2.4160396E-1,2E0,5.0914E4,2.1331E4,2.5745666E-1,9.61485E2,8.585324E-3,8.333333E-1,7.669E2,-4.8615385E-2,-2.3813522E-1,2.2338931E-1,-3.438611E-2,3.130212E-2,-1.6886687E-1],"split_indices":[3,1,0,0,0,8,7,7,0,1,0,10,0,0,0,0,0,0,0],"split_type":[0,0,0,0,0,0,0,0,0,0,0,0,0,0,0,0,0,0,0],"sum_hessian":[2.2306496E1,1.95608E1,2.7456954E0,1.7946632E1,1.6141675E0,1.4293497E1,3.6531358E0,1.2019166E1,2.2743306E0,2.4771197E0,1.176016E0,7.863604E0,4.1555624E0,1.186221E0,1.2908988E0,2.7668629E0,5.096741E0,1.4235215E0,2.7320406E0],"tree_param":{"num_deleted":"0","num_feature":"11","num_nodes":"19","size_leaf_vector":"1"}},{"base_weights":[7.88228E-3,1.2726332E-1,-2.1720465E-1,4.0511137E-1,-4.8737787E-2,6.212247E-1,-1.2649935E-1,-4.9703532E-1,1.0444852E-1,2.3319782E-1,2.0211322E-2,-2.102545E-1,-6.124094E-4,3.9814594E-1,-9.419324E-2,2.0253013E-1,-3.161145E-2,-3.056982E-1,6.753606E-2,5.4448277E-2,-2.0931073E-1,-8.208855E-2,8.179888E-2],"categories":[],"categories_nodes":[],"categories_segments":[],"categories_sizes":[],"default_left":[0,0,0,0,0,0,0,0,0,0,0,0,0,0,0,0,0,0,0,0,0,0,0],"id":9,"left_children":[1,3,-1,5,7,9,-1,11,13,-1,-1,-1,-1,15,17,-1,-1,19,21,-1,-1,-1,-1],"loss_changes":[2.0099804E0,9.841783E-1,0E0,1.6476785E0,9.4236076E-1,5.1415706E-1,0E0,3.492455E-1,6.4952457E-1,0E0,0E0,0E0,0E0,6.880511E-1,2.6237068E-1,0E0,0E0,7.4599147E-1,4.1217223E-1,0E0,0E0,0E0,0E0],"parents":[2147483647,0,0,1,1,3,3,4,4,5,5,7,7,8,8,13,13,14,14,17,17,18,18],"right_children":[2,4,-1,6,8,10,-1,12,14,-1,-1,-1,-1,16,18,-1,-1,20,22,-1,-1,-1,-1],"split_conditions":[3.2E1,1.1111111E-1,-2.1720465E-1,1.1923567E1,2.2222222E-1,2.254E3,-1.2649935E-1,6.1206E4,8.77193E-1,2.3319782E-1,2.0211322E-2,-2.102545E-1,-6.124094E-4,1.4E0,4.4244446E2,2.0253013E-1,-3.161145E-2,7.45E1,5.51E2,5.4448277E-2,-2.0931073E-1,-8.208855E-2,8.179888E-2],"split_indices":[3,10,0,5,10,1,0,7,10,0,0,0,0,6,0,0,0,0,1,0,0,0,0],"split_type":[0,0,0,0,0,0,0,0,0,0,0,0,0,0,0,0,0,0,0,0,0,0,0],"sum_hessian":[2.0949598E1,1.8721949E1,2.2276487E0,6.75549E0,1.1966459E1,5.552677E0,1.2028128E0,2.4759576E0,9.490501E0,4.0170126E0,1.5356643E0,1.4592439E0,1.0167139E0,3.4238706E0,6.0666304E0,1.9890474E0,1.4348232E0,2.24305E0,3.8235805E0,1.2395351E0,1.003515E0,1.3103216E0,2.513259E0],"tree_param":{"num_deleted":"0","num_feature":"11","num_nodes":"23","size_leaf_vector":"1"}},{"base_weights":[-7.3941406E-3,9.2550814E-2,-2.0148756E-1,1.666588E-3,2.1612702E-1,1.3907753E-1,-3.7451714E-1,8.0448E-3,2.1060841E-1,2.6216773E-2,-1.7818943E-1,3.9023042E-1,-1.6394806E-1,2.1235448E-1,-9.265923E-3,-2.1372929E-1,8.647422E-3],"categories":[],"categories_nodes":[],"categories_segments":[],"categories_sizes":[],"default_left":[0,0,0,0,0,0,0,0,0,0,0,0,0,0,0,0,0],"id":10,"left_children":[1,3,-1,5,-1,7,9,11,-1,-1,-1,13,15,-1,-1,-1,-1],"loss_changes":[1.4350833E0,1.0747272E0,0E0,9.552993E-1,0E0,9.9219877E-1,5.532193E-1,8.5177904E-1,0E0,0E0,0E0,5.589411E-1,9.6889615E-1,0E0,0E0,0E0,0E0],"parents":[2147483647,0,0,1,1,3,3,5,5,6,6,7,7,11,11,12,12],"right_children":[2,4,-1,6,-1,8,10,12,-1,-1,-1,14,16,-1,-1,-1,-1],"split_conditions":[3.2E1,2.827761E3,-2.0148756E-1,4.6175835E3,2.1612702E-1,2E0,8.1863635E2,1.1111111E-1,2.1060841E-1,2.6216773E-2,-1.7818943E-1,2.3902E4,2.2222222E-1,2.1235448E-1,-9.265923E-3,-2.1372929E-1,8.647422E-3],"split_indices":[3,1,0,0,0,8,1,10,0,0,0,7,10,0,0,0,0],"split_type":[0,0,0,0,0,0,0,0,0,0,0,0,0,0,0,0,0],"sum_hessian":[1.9680758E1,1.7854853E1,1.8259043E0,1.6473043E1,1.38181E0,1.2527383E1,3.94566E0,1.0984836E1,1.5425475E0,1.4646192E0,2.481041E0,3.0154107E0,7.9694247E0,1.3308009E0,1.6846099E0,1.3714973E0,6.5979276E0],"tree_param":{"num_deleted":"0","num_feature":"11","num_nodes":"17","size_leaf_vector":"1"}},{"base_weights":[-1.0230924E-3,1.23642676E-1,-4.4942614E-1,-4.0713433E-2,2.2616856E-1,-6.460166E-1,3.4156896E-2,-2.0303221E-1,1.04596965E-1,-5.29198E-2,-2.3084934E-1,8.827715E-2,-3.5822082E-1,1.4002894E-1,-1.20810054E-1,-5.3329058E-2,-1.9208382E-1,-1.17295355E-1,1.9063371E-1,-1.0229283E-1,8.4900536E-2,1.2858179E-1,-4.1643515E-2],"categories":[],"categories_nodes":[],"categories_segments":[],"categories_sizes":[],"default_left":[0,0,0,0,0,0,0,0,0,0,0,0,0,0,0,0,0,0,0,0,0,0,0],"id":11,"left_children":[1,3,5,7,-1,9,-1,11,13,-1,-1,-1,15,-1,17,19,-1,-1,21,-1,-1,-1,-1],"loss_changes":[1.1532583E0,1.7035017E0,5.704797E-1,3.4572977E-1,0E0,6.585038E-2,0E0,6.331575E-1,7.028611E-1,0E0,0E0,0E0,4.5285267E-1,0E0,5.5209637E-1,4.653048E-1,0E0,0E0,3.1888902E-1,0E0,0E0,0E0,0E0],"parents":[2147483647,0,0,1,1,2,2,3,3,5,5,7,7,8,8,12,12,14,14,15,15,18,18],"right_children":[2,4,6,8,-1,10,-1,12,14,-1,-1,-1,16,-1,18,20,-1,-1,22,-1,-1,-1,-1],"split_conditions":[1.2E1,8E0,6.7975E4,5.5495264E2,2.2616856E-1,1.4942E4,3.4156896E-2,3.95E1,9.61485E2,-5.29198E-2,-2.3084934E-1,8.827715E-2,1.1666666E0,1.4002894E-1,1.5390385E3,2E0,-1.9208382E-1,-1.17295355E-1,3.3368E3,-1.0229283E-1,8.4900536E-2,1.2858179E-1,-4.1643515E-2],"split_indices":[3,3,7,1,0,7,0,1,1,0,0,0,6,0,1,3,0,0,0,0,0,0,0],"split_type":[0,0,0,0,0,0,0,0,0,0,0,0,0,0,0,0,0,0,0,0,0,0,0],"sum_hessian":[1.8636492E1,1.5149002E1,3.487491E0,1.275752E1,2.3914816E0,2.476346E0,1.0111448E0,5.8384533E0,6.919067E0,1.021184E0,1.4551622E0,1.1755078E0,4.6629453E0,2.2435505E0,4.675516E0,2.8121822E0,1.8507632E0,2.3668783E0,2.3086379E0,1.508352E0,1.30383E0,1.1656486E0,1.1429892E0],"tree_param":{"num_deleted":"0","num_feature":"11","num_nodes":"23","size_leaf_vector":"1"}},{"base_weights":[-8.9420856E-4,-7.7917695E-2,1.9166921E-1,1.4301644E-2,-1.769632E-1,-9.9621095E-2,3.6646023E-1,3.287316E-2,-4.4802022E-1,1.9882184E-1,-3.3333912E-2,-7.4201755E-2,1.4901502E-1,-1.1444916E-2,-2.2624213E-1,-5.8309067E-2,1.303865E-1],"categories":[],"categories_nodes":[],"categories_segments":[],"categories_sizes":[],"default_left":[0,0,0,0,0,0,0,0,0,0,0,0,0,0,0,0,0],"id":12,"left_children":[1,3,-1,5,-1,7,9,11,13,-1,-1,15,-1,-1,-1,-1,-1],"loss_changes":[9.7819155E-1,8.4441954E-1,0E0,6.77624E-1,0E0,6.083865E-1,6.5656817E-1,5.458822E-1,4.2438626E-1,0E0,0E0,6.4677817E-1,0E0,0E0,0E0,0E0,0E0],"parents":[2147483647,0,0,1,1,3,3,5,5,6,6,7,7,8,8,11,11],"right_children":[2,4,-1,6,-1,8,10,12,14,-1,-1,16,-1,-1,-1,-1,-1],"split_conditions":[2.827761E3,2.5E1,1.9166921E-1,8E0,-1.769632E-1,4.487607E3,1.2E1,3.0772727E3,9.61485E2,1.9882184E-1,-3.3333912E-2,8E0,1.4901502E-1,-1.1444916E-2,-2.2624213E-1,-5.8309067E-2,1.303865E-1],"split_indices":[1,3,0,3,0,0,3,0,1,0,0,2,0,0,0,0,0],"split_type":[0,0,0,0,0,0,0,0,0,0,0,0,0,0,0,0,0],"sum_hessian":[1.7839882E1,1.670679E1,1.13309E0,1.498043E1,1.7263616E0,1.1860643E1,3.119786E0,9.2489605E0,2.6116831E0,1.6860582E0,1.4337277E0,8.196814E0,1.0521466E0,1.5974493E0,1.014234E0,7.1308365E0,1.0659775E0],"tree_param":{"num_deleted":"0","num_feature":"11","num_nodes":"17","size_leaf_vector":"1"}},{"base_weights":[9.51919E-3,8.103314E-2,-1.6536063E-1,-1.648968E-2,3.6996993E-1,8.034089E-2,-1.1696393E-1,1.9027776E-1,-6.440717E-2,-1.7055807E-1,2.6067445E-1,8.503244E-2,-4.0086198E-1,4.194093E-1,-3.729799E-2,-1.9039233E-1,2.3350023E-2,1.659518E-1,-2.2598332E-2],"categories":[],"categories_nodes":[],"categories_segments":[],"categories_sizes":[],"default_left":[0,0,0,0,0,0,0,0,0,0,0,0,0,0,0,0,0,0,0],"id":13,"left_children":[1,3,-1,5,7,9,-1,-1,-1,11,13,-1,15,17,-1,-1,-1,-1,-1],"loss_changes":[7.663772E-1,4.8045033E-1,0E0,5.2099085E-1,7.9917204E-1,5.685643E-1,0E0,0E0,0E0,6.833067E-1,4.881882E-1,0E0,5.00279E-1,3.9113623E-1,0E0,0E0,0E0,0E0,0E0],"parents":[2147483647,0,0,1,1,3,3,4,4,5,5,9,9,10,10,12,12,13,13],"right_children":[2,4,-1,6,8,10,-1,-1,-1,12,14,-1,16,18,-1,-1,-1,-1,-1],"split_conditions":[3.2E1,4.075949E0,-1.6536063E-1,4.4210525E0,1.1471698E1,6.279537E2,-1.1696393E-1,1.9027776E-1,-6.440717E-2,8.45E1,6.1955E3,8.503244E-2,2E0,1.3007097E3,-3.729799E-2,-1.9039233E-1,2.3350023E-2,1.659518E-1,-2.2598332E-2],"split_indices":[3,5,0,6,5,0,0,0,0,0,0,0,3,1,0,0,0,0,0],"split_type":[0,0,0,0,0,0,0,0,0,0,0,0,0,0,0,0,0,0,0],"sum_hessian":[1.6998068E1,1.58340845E1,1.1639827E0,1.2543346E1,3.290738E0,1.0583564E1,1.9597824E0,2.2078643E0,1.0828737E0,4.4485216E0,6.135042E0,1.4195083E0,3.0290134E0,4.2807355E0,1.8543068E0,1.8162463E0,1.2127672E0,3.2766929E0,1.0040425E0],"tree_param":{"num_deleted":"0","num_feature":"11","num_nodes":"19","size_leaf_vector":"1"}},{"base_weights":[-1.2711776E-4,6.450414E-2,-1.2616736E-1,-2.6858395E-2,3.4831512E-1,1.08837605E-1,-2.7382708E-1,1.8796226E-1,-2.4528993E-2,-4.7770858E-2,1.7683846E-1,-4.26134E-1,3.0638233E-2,6.951803E-2,-1.1739981E-1,-1.82494E-1,-2.5085542E-2,-8.385742E-2,9.159502E-2],"categories":[],"categories_nodes":[],"categories_segments":[],"categories_sizes":[],"default_left":[0,0,0,0,0,0,0,0,0,0,0,0,0,0,0,0,0,0,0],"id":14,"left_children":[1,3,-1,5,7,9,11,-1,-1,13,-1,15,-1,17,-1,-1,-1,-1,-1],"loss_changes":[4.9750724E-1,4.208871E-1,0E0,4.6327376E-1,5.2226806E-1,7.103615E-1,3.2244232E-1,0E0,0E0,3.3994198E-1,0E0,1.7751604E-1,0E0,6.3142467E-1,0E0,0E0,0E0,0E0,0E0],"parents":[2147483647,0,0,1,1,3,3,4,4,5,5,6,6,9,9,11,11,13,13],"right_children":[2,4,-1,6,8,10,12,-1,-1,14,-1,16,-1,18,-1,-1,-1,-1,-1],"split_conditions":[2.5E1,8E0,-1.2616736E-1,2.1331E4,1.2E1,2.316E3,4E-1,1.8796226E-1,-2.4528993E-2,1.788E3,1.7683846E-1,6.2975E4,3.0638233E-2,4.4244446E2,-1.1739981E-1,-1.82494E-1,-2.5085542E-2,-8.385742E-2,9.159502E-2],"split_indices":[3,3,0,7,3,7,10,0,0,1,0,7,0,0,0,0,0,0,0],"split_type":[0,0,0,0,0,0,0,0,0,0,0,0,0,0,0,0,0,0,0],"sum_hessian":[1.6310568E1,1.487107E1,1.4394983E0,1.19345455E1,2.936524E0,8.063431E0,3.871115E0,1.5056711E0,1.4308528E0,6.761004E0,1.3024266E0,2.6600158E0,1.2110991E0,5.634941E0,1.1260628E0,1.2298555E0,1.4301603E0,2.1971526E0,3.4377887E0],"tree_param":{"num_deleted":"0","num_feature":"11","num_nodes":"19","size_leaf_vector":"1"}},{"base_weights":[-3.4297232E-3,-6.999906E-2,1.2900676E-1,8.935672E-2,-2.419535E-1,-6.557425E-2,1.5550658E-1,-5.3471977E-1,1.2296547E-2,4.9991775E-2,-1.6684003E-1,-2.0147401E-1,-3.380342E-2,2.3451333E-1,-7.1152635E-2,-1.43751E-1,5.4343298E-2,1.4152108E-1,-3.0706111E-2,1.255014E-1,-1.4105098E-1],"categories":[],"categories_nodes":[],"categories_segments":[],"categories_sizes":[],"default_left":[0,0,0,0,0,0,0,0,0,0,0,0,0,0,0,0,0,0,0,0,0],"id":15,"left_children":[1,3,-1,5,7,9,-1,11,13,-1,15,-1,-1,17,-1,-1,19,-1,-1,-1,-1],"loss_changes":[5.1180184E-1,4.4173384E-1,0E0,6.1141104E-1,5.7556045E-1,1.987638E-1,0E0,1.3084257E-1,3.36609E-1,0E0,4.1029033E-1,0E0,0E0,3.0269188E-1,0E0,0E0,9.898452E-1,0E0,0E0,0E0,0E0],"parents":[2147483647,0,0,1,1,3,3,4,4,5,5,7,7,8,8,10,10,13,13,16,16],"right_children":[2,4,-1,6,8,10,-1,12,14,-1,16,-1,-1,18,-1,-1,20,-1,-1,-1,-1],"split_conditions":[2.2972307E3,1.3836E4,1.2900676E-1,2.316E3,5.0914E4,8.4E1,1.5550658E-1,6.086956E-1,2.9436E3,4.9991775E-2,5.2E2,-2.0147401E-1,-3.380342E-2,7E0,-7.1152635E-2,-1.43751E-1,1.3007097E3,1.4152108E-1,-3.0706111E-2,1.255014E-1,-1.4105098E-1],"split_indices":[1,7,0,7,7,1,0,4,0,0,0,0,0,3,0,0,1,0,0,0,0],"split_type":[0,0,0,0,0,0,0,0,0,0,0,0,0,0,0,0,0,0,0,0,0],"sum_hessian":[1.5694053E1,1.43315325E1,1.3625201E0,7.6875634E0,6.6439686E0,6.2702394E0,1.4173242E0,2.575352E0,4.068617E0,1.7080138E0,4.5622253E0,1.4982374E0,1.0771147E0,2.1835682E0,1.8850486E0,1.4078404E0,3.154385E0,1.0463543E0,1.1372138E0,1.981628E0,1.1727571E0],"tree_param":{"num_deleted":"0","num_feature":"11","num_nodes":"21","size_leaf_vector":"1"}},{"base_weights":[-3.5342295E-3,-6.041441E-2,1.1160616E-1,2.5585163E-2,-3.5660303E-1,-6.883121E-2,1.6077304E-1,-1.3353927E-1,-2.239318E-2,7.331126E-2,-2.9097894E-1,-5.370824E-2,1.3234062E-1,3.803034E-2,-1.4923787E-1,-6.31197E-2,8.407174E-2],"categories":[],"categories_nodes":[],"categories_segments":[],"categories_sizes":[],"default_left":[0,0,0,0,0,0,0,0,0,0,0,0,0,0,0,0,0],"id":16,"left_children":[1,3,-1,5,7,9,-1,-1,-1,11,13,15,-1,-1,-1,-1,-1],"loss_changes":[3.6907768E-1,3.8997102E-1,0E0,6.4014953E-1,5.2423775E-2,3.8293684E-1,0E0,0E0,0E0,3.872784E-1,4.6584296E-1,4.082935E-1,0E0,0E0,0E0,0E0,0E0],"parents":[2147483647,0,0,1,1,3,3,4,4,5,5,9,9,10,10,11,11],"right_children":[2,4,-1,6,8,10,-1,-1,-1,12,14,16,-1,-1,-1,-1,-1],"split_conditions":[2.2972307E3,1.2E1,1.1160616E-1,8E0,5.294E4,1.882421E3,1.6077304E-1,-1.3353927E-1,-2.239318E-2,4.0707965E0,2E0,1.0345938E3,1.3234062E-1,3.803034E-2,-1.4923787E-1,-6.31197E-2,8.407174E-2],"split_indices":[1,3,0,3,7,0,0,0,0,6,3,1,0,0,0,0,0],"split_type":[0,0,0,0,0,0,0,0,0,0,0,0,0,0,0,0,0],"sum_hessian":[1.5225466E1,1.3951547E1,1.2739186E0,1.1520223E1,2.431325E0,1.045166E1,1.0685625E0,1.4099348E0,1.0213902E0,6.78209E0,3.6695695E0,5.6759996E0,1.1060903E0,1.3415107E0,2.328059E0,4.1151175E0,1.560882E0],"tree_param":{"num_deleted":"0","num_feature":"11","num_nodes":"17","size_leaf_vector":"1"}},{"base_weights":[8.178129E-3,6.0374245E-2,-1.0031106E-1,1.1887434E-1,-9.858385E-2,-1.2285808E-1,2.9035422E-1,7.589983E-2,-1.6100737E-1,-2.3092944E-4,4.4879296E-1,2.54998E-1,-8.862318E-2,1.18273325E-1,-1.6617078E-1,1.9295616E-1,1.5925205E-1,1.382984E-2,1.2375456E-1,-1.7257657E-2,1.02851145E-1],"categories":[],"categories_nodes":[],"categories_segments":[],"categories_sizes":[],"default_left":[0,0,0,0,0,0,0,0,0,0,0,0,0,0,0,0,0,0,0,0,0],"id":17,"left_children":[1,3,-1,5,-1,7,9,11,-1,13,15,17,-1,-1,-1,-1,19,-1,-1,-1,-1],"loss_changes":[3.0217707E-1,3.6977643E-1,0E0,5.8978796E-1,0E0,5.5482274E-1,3.7383085E-1,4.1437355E-1,0E0,1.062252E0,1.9327664E-1,1.1181703E-1,0E0,0E0,0E0,0E0,1.5660274E-1,0E0,0E0,0E0,0E0],"parents":[2147483647,0,0,1,1,3,3,5,5,6,6,7,7,9,9,10,10,11,11,16,16],"right_children":[2,4,-1,6,-1,8,10,12,-1,14,16,18,-1,-1,-1,-1,20,-1,-1,-1,-1],"split_conditions":[2.5E1,5.1E1,-1.0031106E-1,5.5495264E2,-9.858385E-2,4.38E2,1.2108182E3,3E0,-1.6100737E-1,8.127895E2,3.3504E4,2.2771428E2,-8.862318E-2,1.18273325E-1,-1.6617078E-1,1.9295616E-1,5.1527354E3,1.382984E-2,1.2375456E-1,-1.7257657E-2,1.02851145E-1],"split_indices":[3,6,0,1,0,1,0,3,0,0,7,0,0,0,0,0,0,0,0,0,0],"split_type":[0,0,0,0,0,0,0,0,0,0,0,0,0,0,0,0,0,0,0,0,0],"sum_hessian":[1.4771507E1,1.35331335E1,1.238374E0,1.2367565E1,1.1655684E0,5.2501106E0,7.1174545E0,4.098335E0,1.1517758E0,2.8637419E0,4.2537127E0,2.9760926E0,1.1222425E0,1.8404317E0,1.0233101E0,1.8142467E0,2.439466E0,1.8350806E0,1.1410118E0,1.4334732E0,1.0059928E0],"tree_param":{"num_deleted":"0","num_feature":"11","num_nodes":"21","size_leaf_vector":"1"}},{"base_weights":[1.6152584E-3,8.4254205E-2,-4.6123452E-2,-1.23719156E-1,3.142035E-2,3.0691236E-1,-6.446842E-2,-9.402422E-3,1.4322479E-1,-1.4197703E-1,4.839595E-2,1.4554653E-1,-8.259292E-2,-3.0756839E-2,1.0953236E-1],"categories":[],"categories_nodes":[],"categories_segments":[],"categories_sizes":[],"default_left":[0,0,0,0,0,0,0,0,0,0,0,0,0,0,0],"id":18,"left_children":[1,-1,3,-1,5,7,9,-1,-1,-1,11,13,-1,-1,-1],"loss_changes":[2.1746828E-1,0E0,4.094859E-1,0E0,3.4870082E-1,2.1038353E-1,4.8717138E-1,0E0,0E0,0E0,3.165862E-1,4.4141966E-1,0E0,0E0,0E0],"parents":[2147483647,0,0,2,2,4,4,5,5,6,6,10,10,11,11],"right_children":[2,-1,4,-1,6,8,10,-1,-1,-1,12,14,-1,-1,-1],"split_conditions":[8.45E1,8.4254205E-2,4.4244446E2,-1.23719156E-1,8.127895E2,6.355224E2,1.2108182E3,-9.402422E-3,1.4322479E-1,-1.4197703E-1,5.1E1,9.2305554E2,-8.259292E-2,-3.0756839E-2,1.0953236E-1],"split_indices":[0,0,0,0,0,1,0,0,0,0,6,1,0,0,0],"split_type":[0,0,0,0,0,0,0,0,0,0,0,0,0,0,0],"sum_hessian":[1.4342227E1,1.3810738E0,1.2961153E1,1.5100886E0,1.1451065E1,2.3883975E0,9.062667E0,1.0739747E0,1.3144227E0,1.2699251E0,7.7927423E0,6.4171886E0,1.3755536E0,3.26327E0,3.1539187E0],"tree_param":{"num_deleted":"0","num_feature":"11","num_nodes":"15","size_leaf_vector":"1"}},{"base_weights":[-2.0634222E-3,9.246517E-2,-4.6729535E-2,-1.3253821E-1,2.4903534E-2,1.1642189E-1,-6.8708226E-2,-1.1638397E-1,3.0467762E-2,1.3573341E-1,-1.1958312E-1,-1.6097205E-2,8.776295E-2],"categories":[],"categories_nodes":[],"categories_segments":[],"categories_sizes":[],"default_left":[0,0,0,0,0,0,0,0,0,0,0,0,0],"id":19,"left_children":[1,-1,3,-1,5,-1,7,-1,9,11,-1,-1,-1],"loss_changes":[2.224872E-1,0E0,4.0700838E-1,0E0,4.615567E-1,0E0,3.6072528E-1,0E0,4.7575036E-1,2.6047552E-1,0E0,0E0,0E0],"parents":[2147483647,0,0,2,2,4,4,6,6,8,8,9,9],"right_children":[2,-1,4,-1,6,-1,8,-1,10,12,-1,-1,-1],"split_conditions":[3.95E1,9.246517E-2,1.56E2,-1.3253821E-1,3.538E2,1.1642189E-1,5.749091E2,-1.1638397E-1,5.1E1,1.6666667E-1,-1.1958312E-1,-1.6097205E-2,8.776295E-2],"split_indices":[1,0,1,0,1,0,1,0,6,4,0,0,0],"split_type":[0,0,0,0,0,0,0,0,0,0,0,0,0],"sum_hessian":[1.4014349E1,1.0210414E0,1.2993307E1,1.2011837E0,1.1792124E1,1.7720088E0,1.0020115E1,1.6848952E0,8.33522E0,7.242164E0,1.0930558E0,3.578257E0,3.663907E0],"tree_param":{"num_deleted":"0","num_feature":"11","num_nodes":"13","size_leaf_vector":"1"}},{"base_weights":[-7.37322E-3,3.7753407E-2,-8.787611E-2,-5.185999E-2,3.299021E-1,7.57156E-2,-1.18210465E-1,1.6539207E-1,-1.06526865E-2,-1.2402469E-1,-2.2258166E-2,1.3242236E-1,-2.554274E-1,7.811986E-2,-5.035764E-2,-1.3191538E-1,1.3706432E-2],"categories":[],"categories_nodes":[],"categories_segments":[],"categories_sizes":[],"default_left":[0,0,0,0,0,0,0,0,0,0,0,0,0,0,0,0,0],"id":20,"left_children":[1,3,-1,5,7,-1,9,-1,-1,-1,11,13,15,-1,-1,-1,-1],"loss_changes":[2.0131639E-1,3.7410015E-1,0E0,2.5792843E-1,2.895248E-1,0E0,2.7284202E-1,0E0,0E0,0E0,3.4297284E-1,2.6704767E-1,2.2873718E-1,0E0,0E0,0E0,0E0],"parents":[2147483647,0,0,1,1,3,3,4,4,6,6,10,10,11,11,12,12],"right_children":[2,4,-1,6,8,-1,10,-1,-1,-1,12,14,16,-1,-1,-1,-1],"split_conditions":[2.5E1,8E0,-8.787611E-2,8.45E1,1.2E1,7.57156E-2,4.4244446E2,1.6539207E-1,-1.06526865E-2,-1.2402469E-1,2.1331E4,4.487607E3,6.783E4,7.811986E-2,-5.035764E-2,-1.3191538E-1,1.3706432E-2],"split_indices":[3,3,0,0,3,0,0,0,0,0,7,0,7,0,0,0,0],"split_type":[0,0,0,0,0,0,0,0,0,0,0,0,0,0,0,0,0],"sum_hessian":[1.3764932E1,1.2635809E1,1.1291227E0,1.0299147E1,2.3366623E0,1.341943E0,8.957204E0,1.1382556E0,1.1984066E0,1.3856338E0,7.57157E0,4.8116674E0,2.7599027E0,3.466914E0,1.3447536E0,1.4265316E0,1.3333712E0],"tree_param":{"num_deleted":"0","num_feature":"11","num_nodes":"17","size_leaf_vector":"1"}},{"base_weights":[-9.965305E-3,-9.122203E-2,1.6436887E-1,2.9293574E-2,-1.383908E-1,-3.5630252E-2,2.748763E-1,-1.1329314E-1,1.1215214E-1,-7.679471E-3,1.3374184E-1,4.7020968E-2,-2.230523E-1,-1.3852166E-1,-3.3163443E-2,8.541012E-2,-1.1271772E-1],"categories":[],"categories_nodes":[],"categories_segments":[],"categories_sizes":[],"default_left":[0,0,0,0,0,0,0,0,0,0,0,0,0,0,0,0,0],"id":21,"left_children":[1,3,5,7,-1,-1,9,11,-1,-1,-1,-1,13,-1,15,-1,-1],"loss_changes":[2.179197E-1,4.7798002E-1,1.8630739E-1,4.744834E-1,0E0,0E0,2.0833164E-1,2.4209653E-1,0E0,0E0,0E0,0E0,2.2860855E-1,0E0,5.5064845E-1,0E0,0E0],"parents":[2147483647,0,0,1,1,2,2,3,3,6,6,7,7,12,12,14,14],"right_children":[2,4,6,8,-1,-1,10,12,-1,-1,-1,-1,14,-1,16,-1,-1],"split_conditions":[5.0914E4,2.1495E4,5.833333E-1,2.316E3,-1.383908E-1,-3.5630252E-2,1.923077E-2,8.4E1,1.1215214E-1,-7.679471E-3,1.3374184E-1,4.7020968E-2,5.2E2,-1.3852166E-1,1.3007097E3,8.541012E-2,-1.1271772E-1],"split_indices":[7,7,6,7,0,0,10,1,0,0,0,0,0,0,1,0,0],"split_type":[0,0,0,0,0,0,0,0,0,0,0,0,0,0,0,0,0],"sum_hessian":[1.3325016E1,9.413941E0,3.9110744E0,7.796033E0,1.6179088E0,1.0769705E0,2.8341038E0,5.988814E0,1.8072188E0,1.3359325E0,1.4981713E0,1.6070765E0,4.3817377E0,1.3071053E0,3.0746322E0,1.6824212E0,1.3922111E0],"tree_param":{"num_deleted":"0","num_feature":"11","num_nodes":"17","size_leaf_vector":"1"}},{"base_weights":[-1.0916205E-2,-6.519183E-2,7.018735E-2,2.8581694E-2,-1.1279037E-1,-4.986827E-2,9.200051E-2,6.912861E-2,-1.1543329E-1,-3.2086736E-1,6.581813E-2,-1.6441491E-1,4.6657197E-2,1.1792915E-1,-5.0123822E-2],"categories":[],"categories_nodes":[],"categories_segments":[],"categories_sizes":[],"default_left":[0,0,0,0,0,0,0,0,0,0,0,0,0,0,0],"id":22,"left_children":[1,3,-1,5,-1,7,-1,-1,9,11,13,-1,-1,-1,-1],"loss_changes":[2.0157163E-1,3.679579E-1,0E0,2.4098963E-1,0E0,1.906987E-1,0E0,0E0,3.153817E-1,5.0456315E-1,4.489485E-1,0E0,0E0,0E0,0E0],"parents":[2147483647,0,0,1,1,3,3,5,5,8,8,9,9,10,10],"right_children":[2,4,-1,6,-1,8,-1,-1,10,12,14,-1,-1,-1,-1],"split_conditions":[9.519231E-1,1.2E1,7.018735E-2,1.4728214E3,-1.1279037E-1,4.92E1,9.200051E-2,6.912861E-2,6.279537E2,2E0,1.7928572E3,-1.6441491E-1,4.6657197E-2,1.1792915E-1,-5.0123822E-2],"split_indices":[4,2,0,1,0,1,0,0,0,3,0,0,0,0,0],"split_type":[0,0,0,0,0,0,0,0,0,0,0,0,0,0,0],"sum_hessian":[1.3018794E1,1.1257399E1,1.7613959E0,9.345515E0,1.9118831E0,7.929288E0,1.4162273E0,1.0264796E0,6.902808E0,2.874501E0,4.0283074E0,1.8444822E0,1.0300188E0,1.3888179E0,2.6394894E0],"tree_param":{"num_deleted":"0","num_feature":"11","num_nodes":"15","size_leaf_vector":"1"}},{"base_weights":[-2.89306E-3,-5.8885626E-2,1.9562116E-1,2.959073E-2,-1.1814963E-1,1.0788905E-1,-1.7702088E-2,-4.27204E-2,1.0132795E-1,9.397496E-2,-2.4190016E-1,-1.20858595E-1,1.4200884E-1,-1.2849733E-1,2.8533947E-2,-8.775453E-2,3.6945548E-2],"categories":[],"categories_nodes":[],"categories_segments":[],"categories_sizes":[],"default_left":[0,0,0,0,0,0,0,0,0,0,0,0,0,0,0,0,0],"id":23,"left_children":[1,3,5,7,-1,-1,-1,9,-1,11,13,15,-1,-1,-1,-1,-1],"loss_changes":[1.6474956E-1,3.5308456E-1,1.5753955E-1,2.3824918E-1,0E0,0E0,0E0,2.6839575E-1,0E0,5.5201876E-1,2.8902793E-1,2.3174179E-1,0E0,0E0,0E0,0E0,0E0],"parents":[2147483647,0,0,1,1,2,2,3,3,7,7,9,9,10,10,11,11],"right_children":[2,4,6,8,-1,-1,-1,10,-1,12,14,16,-1,-1,-1,-1,-1],"split_conditions":[6.7975E4,1.2E1,7.0527826E2,6E0,-1.1814963E-1,1.0788905E-1,-1.7702088E-2,1.1666666E0,1.0132795E-1,1.6666667E-1,6.7105263E-1,6.279537E2,1.4200884E-1,-1.2849733E-1,2.8533947E-2,-8.775453E-2,3.6945548E-2],"split_indices":[7,3,1,3,0,0,0,6,0,6,4,0,0,0,0,0,0],"split_type":[0,0,0,0,0,0,0,0,0,0,0,0,0,0,0,0,0],"sum_hessian":[1.2785502E1,1.0521262E1,2.26424E0,9.043951E0,1.477311E0,1.1263627E0,1.1378773E0,8.022795E0,1.021156E0,5.0708823E0,2.9519126E0,3.6726384E0,1.3982439E0,1.7261328E0,1.22578E0,2.0392709E0,1.6333678E0],"tree_param":{"num_deleted":"0","num_feature":"11","num_nodes":"17","size_leaf_vector":"1"}},{"base_weights":[2.6548984E-3,-5.833892E-2,1.815933E-1,1.3077827E-2,-1.1294432E-1,1.2684947E-1,-6.547106E-2,-1.3839766E-1,1.632457E-1,6.587524E-2,-3.0319977E-1,-4.6911375E-3,1.2933874E-1,-1.2358914E-1,3.9615184E-3,9.0562135E-2,-7.410309E-2],"categories":[],"categories_nodes":[],"categories_segments":[],"categories_sizes":[],"default_left":[0,0,0,0,0,0,0,0,0,0,0,0,0,0,0,0,0],"id":24,"left_children":[1,3,5,7,-1,-1,-1,9,11,-1,13,15,-1,-1,-1,-1,-1],"loss_changes":[1.57763E-1,2.5060773E-1,4.46363E-1,2.454498E-1,0E0,0E0,0E0,3.8625485E-1,2.4399683E-1,0E0,1.4758402E-1,3.9365157E-1,0E0,0E0,0E0,0E0,0E0],"parents":[2147483647,0,0,1,1,2,2,3,3,7,7,8,8,10,10,11,11],"right_children":[2,4,6,8,-1,-1,-1,10,12,-1,14,16,-1,-1,-1,-1,-1],"split_conditions":[4.4333334E0,1.2E1,1.1923567E1,5.5495264E2,-1.1294432E-1,1.2684947E-1,-6.547106E-2,8.45E1,1.4414415E-1,6.587524E-2,5.0914E4,8.127895E2,1.2933874E-1,-1.2358914E-1,3.9615184E-3,9.0562135E-2,-7.410309E-2],"split_indices":[5,2,5,1,0,0,0,0,4,0,7,0,0,0,0,0,0],"split_type":[0,0,0,0,0,0,0,0,0,0,0,0,0,0,0,0,0],"sum_hessian":[1.248426E1,9.813242E0,2.6710176E0,8.79731E0,1.0159324E0,1.6300163E0,1.0410014E0,4.418607E0,4.3787026E0,1.2881303E0,3.1304767E0,3.2953358E0,1.0833669E0,2.1049027E0,1.025574E0,1.3463104E0,1.9490254E0],"tree_param":{"num_deleted":"0","num_feature":"11","num_nodes":"17","size_leaf_vector":"1"}},{"base_weights":[5.4908763E-3,-5.272646E-2,1.71435E-1,7.535692E-2,-2.7399713E-1,-1.4596949E-2,9.763651E-2,-4.29798E-2,1.0061262E-1,2.4915108E-4,-1.1907648E-1,1.4077619E-1,-2.6327473E-1,-2.1382745E-2,9.650305E-2,-1.5036775E-1,2.8108E-2],"categories":[],"categories_nodes":[],"categories_segments":[],"categories_sizes":[],"default_left":[0,0,0,0,0,0,0,0,0,0,0,0,0,0,0,0,0],"id":25,"left_children":[1,3,5,7,9,-1,-1,11,-1,-1,-1,13,15,-1,-1,-1,-1],"loss_changes":[1.3604352E-1,3.1813994E-1,1.3954708E-1,2.431165E-1,1.3762921E-1,0E0,0E0,2.797194E-1,0E0,0E0,0E0,1.7329386E-1,3.0811858E-1,0E0,0E0,0E0,0E0],"parents":[2147483647,0,0,1,1,2,2,3,3,4,4,7,7,11,11,12,12],"right_children":[2,4,6,8,10,-1,-1,12,-1,-1,-1,14,16,-1,-1,-1,-1],"split_conditions":[1.4728214E3,8.4455E2,2.316E3,3.7735852E3,1.2859E4,-1.4596949E-2,9.763651E-2,3.538E2,1.0061262E-1,2.4915108E-4,-1.1907648E-1,1.56E2,5.749091E2,-2.1382745E-2,9.650305E-2,-1.5036775E-1,2.8108E-2],"split_indices":[1,1,7,0,7,0,0,1,0,0,0,1,1,0,0,0,0],"split_type":[0,0,0,0,0,0,0,0,0,0,0,0,0,0,0,0,0],"sum_hessian":[1.2146325E1,9.496856E0,2.6494699E0,6.4326987E0,3.0641568E0,1.3724115E0,1.2770584E0,4.994405E0,1.4382937E0,1.2539313E0,1.8102256E0,2.9198322E0,2.0745728E0,1.6231582E0,1.296674E0,1.0023186E0,1.0722543E0],"tree_param":{"num_deleted":"0","num_feature":"11","num_nodes":"17","size_leaf_vector":"1"}},{"base_weights":[5.2771303E-3,6.665295E-2,-1.5523931E-1,-4.553102E-2,2.11877E-1,-8.7395534E-2,1.9363044E-2,1.10964894E-1,-1.3103916E-1,1.1145314E-1,-1.6803496E-2,-4.5945585E-2,1.070522E-1,5.7045486E-2,-6.403291E-2],"categories":[],"categories_nodes":[],"categories_segments":[],"categories_sizes":[],"default_left":[0,0,0,0,0,0,0,0,0,0,0,0,0,0,0],"id":26,"left_children":[1,3,5,7,9,-1,-1,11,-1,-1,-1,13,-1,-1,-1],"loss_changes":[1.374552E-1,1.7310074E-1,1.3451898E-1,4.4546092E-1,2.1536057E-1,0E0,0E0,2.2583118E-1,0E0,0E0,0E0,2.0666724E-1,0E0,0E0,0E0],"parents":[2147483647,0,0,1,1,2,2,3,3,4,4,7,7,11,11],"right_children":[2,4,6,8,10,-1,-1,12,-1,-1,-1,14,-1,-1,-1],"split_conditions":[4.7853E3,1.2108182E3,1.1547E4,8.127895E2,6.7E0,-8.7395534E-2,1.9363044E-2,5.364545E2,-1.3103916E-1,1.1145314E-1,-1.6803496E-2,8.45E1,1.070522E-1,5.7045486E-2,-6.403291E-2],"split_indices":[0,0,0,0,6,0,0,0,0,0,0,0,0,0,0],"split_type":[0,0,0,0,0,0,0,0,0,0,0,0,0,0,0],"sum_hessian":[1.1901972E1,9.032878E0,2.8690944E0,5.4834504E0,3.5494275E0,1.5709518E0,1.2981424E0,4.4285464E0,1.0549039E0,1.9817212E0,1.5677063E0,3.199718E0,1.2288285E0,1.271797E0,1.9279209E0],"tree_param":{"num_deleted":"0","num_feature":"11","num_nodes":"15","size_leaf_vector":"1"}},{"base_weights":[3.691603E-3,-5.556537E-2,1.7902035E-1,5.62697E-2,-2.1179514E-1,1.09238856E-1,-3.971104E-2,-1.09460294E-1,1.1748445E-1,-1.1523786E-1,-2.2322232E-2,-7.279519E-2,2.3081787E-2,5.428802E-2,-6.0123622E-2,7.549805E-2,-5.875193E-2],"categories":[],"categories_nodes":[],"categories_segments":[],"categories_sizes":[],"default_left":[0,0,0,0,0,0,0,0,0,0,0,0,0,0,0,0,0],"id":27,"left_children":[1,3,5,7,9,-1,-1,11,-1,-1,13,-1,15,-1,-1,-1,-1],"loss_changes":[1.4159606E-1,1.9072042E-1,2.4635261E-1,4.1825083E-1,1.376854E-1,0E0,0E0,9.919704E-2,0E0,0E0,1.5194292E-1,0E0,2.2795838E-1,0E0,0E0,0E0,0E0],"parents":[2147483647,0,0,1,1,2,2,3,3,4,4,7,7,10,10,12,12],"right_children":[2,4,6,8,10,-1,-1,12,-1,-1,14,-1,16,-1,-1,-1,-1],"split_conditions":[4.4333334E0,1.1666666E0,1.1471698E1,5.833333E-1,5.749091E2,1.09238856E-1,-3.971104E-2,5.024671E2,1.1748445E-1,-1.1523786E-1,2.4991E4,-7.279519E-2,1.3007097E3,5.428802E-2,-6.0123622E-2,7.549805E-2,-5.875193E-2],"split_indices":[5,6,5,6,1,0,0,1,0,0,7,0,1,0,0,0,0],"split_type":[0,0,0,0,0,0,0,0,0,0,0,0,0,0,0,0,0],"sum_hessian":[1.1671386E1,9.233694E0,2.4376915E0,5.7543464E0,3.4793477E0,1.4226292E0,1.0150622E0,4.3019037E0,1.4524429E0,1.2840899E0,2.1952577E0,1.7313458E0,2.5705578E0,1.0175964E0,1.1776614E0,1.1843843E0,1.3861735E0],"tree_param":{"num_deleted":"0","num_feature":"11","num_nodes":"17","size_leaf_vector":"1"}},{"base_weights":[3.7771366E-3,-5.627177E-2,1.728827E-1,5.9674256E-2,-2.2902189E-1,8.8643946E-2,-1.947067E-2,2.2783954E-1,-1.4435272E-1,1.725873E-2,-1.1446896E-1,2.482081E-2,9.287804E-2,2.7517514E-2,-8.6868E-2],"categories":[],"categories_nodes":[],"categories_segments":[],"categories_sizes":[],"default_left":[0,0,0,0,0,0,0,0,0,0,0,0,0,0,0],"id":28,"left_children":[1,3,5,7,9,-1,-1,11,13,-1,-1,-1,-1,-1,-1],"loss_changes":[1.3574518E-1,2.122073E-1,1.2113551E-1,2.636131E-1,2.0499822E-1,0E0,0E0,2.271597E-2,1.5169995E-1,0E0,0E0,0E0,0E0,0E0,0E0],"parents":[2147483647,0,0,1,1,2,2,3,3,4,4,7,7,8,8],"right_children":[2,4,6,8,10,-1,-1,12,14,-1,-1,-1,-1,-1,-1],"split_conditions":[1.4728214E3,8.186667E2,4.7853E3,8.77193E-1,1.2859E4,8.8643946E-2,-1.947067E-2,2.2222222E-1,7.45E1,1.725873E-2,-1.1446896E-1,2.482081E-2,9.287804E-2,2.7517514E-2,-8.6868E-2],"split_indices":[1,1,0,10,7,0,0,10,0,0,0,0,0,0,0],"split_type":[0,0,0,0,0,0,0,0,0,0,0,0,0,0,0],"sum_hessian":[1.1409815E1,8.912315E0,2.497499E0,5.7246327E0,3.1876826E0,1.4877899E0,1.009709E0,3.0741289E0,2.650504E0,1.3237889E0,1.8638937E0,1.8329225E0,1.2412064E0,1.1496772E0,1.5008268E0],"tree_param":{"num_deleted":"0","num_feature":"11","num_nodes":"15","size_leaf_vector":"1"}},{"base_weights":[5.085986E-3,-4.4668432E-2,6.668225E-2,2.9954776E-2,-8.519401E-2,-9.6040286E-2,1.5606269E-1,-1.7743695E-1,2.3180539E-2,-2.9616648E-2,8.887574E-2,1.7840138E-2,-1.0245195E-1],"categories":[],"categories_nodes":[],"categories_segments":[],"categories_sizes":[],"default_left":[0,0,0,0,0,0,0,0,0,0,0,0,0],"id":29,"left_children":[1,3,-1,5,-1,7,9,11,-1,-1,-1,-1,-1],"loss_changes":[1.4252429E-1,2.0166256E-1,0E0,1.6036706E-1,0E0,8.7007865E-2,2.0618546E-1,1.6951841E-1,0E0,0E0,0E0,0E0,0E0],"parents":[2147483647,0,0,1,1,3,3,5,5,6,6,7,7],"right_children":[2,4,-1,6,-1,8,10,12,-1,-1,-1,-1,-1],"split_conditions":[9.519231E-1,1.2E1,6.668225E-2,5.833333E-1,-8.519401E-2,1.2108182E3,3.0244446E2,5.17E2,2.3180539E-2,-2.9616648E-2,8.887574E-2,1.7840138E-2,-1.0245195E-1],"split_indices":[4,2,0,6,0,0,1,0,0,0,0,0,0],"split_type":[0,0,0,0,0,0,0,0,0,0,0,0,0],"sum_hessian":[1.1270478E1,9.816097E0,1.4543815E0,8.149662E0,1.6664348E0,4.1959224E0,3.95374E0,2.8388162E0,1.3571061E0,1.5083032E0,2.4454367E0,1.422452E0,1.4163643E0],"tree_param":{"num_deleted":"0","num_feature":"11","num_nodes":"13","size_leaf_vector":"1"}},{"base_weights":[2.0350206E-3,-4.9564995E-2,1.7560525E-1,2.1616766E-2,-9.448398E-2,8.216851E-2,-2.9754152E-3,-6.785134E-2,1.6286147E-1,3.998401E-2,-1.5525374E-1,1.03478566E-1,-1.1184537E-2,-1.0870717E-1,1.2143202E-2,9.75418E-2,-9.7697355E-2],"categories":[],"categories_nodes":[],"categories_segments":[],"categories_sizes":[],"default_left":[0,0,0,0,0,0,0,0,0,0,0,0,0,0,0,0,0],"id":30,"left_children":[1,3,5,7,-1,-1,-1,9,11,-1,13,-1,-1,-1,15,-1,-1],"loss_changes":[1.1766494E-1,1.986939E-1,5.7568848E-2,1.2409128E-1,0E0,0E0,0E0,1.2937333E-1,1.4998113E-1,0E0,1.6982059E-1,0E0,0E0,0E0,4.8717663E-1,0E0,0E0],"parents":[2147483647,0,0,1,1,2,2,3,3,7,7,8,8,10,10,14,14],"right_children":[2,4,6,8,-1,-1,-1,10,12,-1,14,-1,-1,-1,16,-1,-1],"split_conditions":[6.7975E4,1.2E1,7.18E2,2.316E3,-9.448398E-2,8.216851E-2,-2.9754152E-3,8.4E1,2.695E4,3.998401E-2,5.2E2,1.03478566E-1,-1.1184537E-2,-1.0870717E-1,1.3007097E3,9.75418E-2,-9.7697355E-2],"split_indices":[7,3,1,7,0,0,0,1,7,0,0,0,0,0,1,0,0],"split_type":[0,0,0,0,0,0,0,0,0,0,0,0,0,0,0,0,0],"sum_hessian":[1.11659565E1,9.157884E0,2.0080729E0,7.9453053E0,1.2125783E0,1.0012668E0,1.006806E0,5.1823115E0,2.7629938E0,1.4108188E0,3.771493E0,1.0680227E0,1.6949711E0,1.165222E0,2.6062708E0,1.3722597E0,1.234011E0],"tree_param":{"num_deleted":"0","num_feature":"11","num_nodes":"17","size_leaf_vector":"1"}},{"base_weights":[2.2170113E-3,-6.5861925E-2,1.9249082E-1,7.8621686E-2,-1.6314885E-1,8.414132E-2,9.6701196E-4,-3.76399E-2,9.264298E-2,-1.1701862E-1,-3.48166E-2,6.681745E-2,-1.7811744E-1,-8.414629E-3,-8.513795E-2],"categories":[],"categories_nodes":[],"categories_segments":[],"categories_sizes":[],"default_left":[0,0,0,0,0,0,0,0,0,0,0,0,0,0,0],"id":31,"left_children":[1,3,5,7,9,-1,-1,-1,-1,-1,11,-1,13,-1,-1],"loss_changes":[1.674052E-1,1.4695577E-1,5.5753633E-2,2.508319E-1,1.6194692E-1,0E0,0E0,0E0,0E0,0E0,2.2228847E-1,0E0,5.12696E-2,0E0,0E0],"parents":[2147483647,0,0,1,1,2,2,3,3,4,4,10,10,12,12],"right_children":[2,4,6,8,10,-1,-1,-1,-1,-1,12,-1,14,-1,-1],"split_conditions":[1.4728214E3,4.38E2,4.0434546E3,1.96E2,6.33E2,8.414132E-2,9.6701196E-4,-3.76399E-2,9.264298E-2,-1.1701862E-1,8.4455E2,6.681745E-2,1.9166202E3,-8.414629E-3,-8.513795E-2],"split_indices":[1,1,0,1,1,0,0,0,0,0,1,0,0,0,0],"split_type":[0,0,0,0,0,0,0,0,0,0,0,0,0,0,0],"sum_hessian":[1.0944704E1,8.542206E0,2.402498E0,3.5145314E0,5.0276747E0,1.311142E0,1.0913562E0,2.1040194E0,1.4105121E0,1.0794874E0,3.948187E0,1.2133315E0,2.7348557E0,1.6529486E0,1.081907E0],"tree_param":{"num_deleted":"0","num_feature":"11","num_nodes":"15","size_leaf_vector":"1"}},{"base_weights":[1.2740062E-3,-5.8725893E-2,1.7972547E-1,1.5752915E-2,-8.901455E-2,9.701896E-2,-2.0196151E-2,-5.1803954E-2,9.395809E-2,-6.000092E-2,2.3850039E-1,-7.055389E-2,5.5295203E-2,-8.194075E-3,1.1681666E-1],"categories":[],"categories_nodes":[],"categories_segments":[],"categories_sizes":[],"default_left":[0,0,0,0,0,0,0,0,0,0,0,0,0,0,0],"id":32,"left_children":[1,3,5,7,-1,-1,-1,-1,9,11,13,-1,-1,-1,-1],"loss_changes":[1.3682942E-1,1.7447719E-1,1.3584056E-1,1.3774057E-1,0E0,0E0,0E0,0E0,1.584029E-1,2.1173643E-1,1.5264514E-1,0E0,0E0,0E0,0E0],"parents":[2147483647,0,0,1,1,2,2,3,3,8,8,9,9,10,10],"right_children":[2,4,6,8,-1,-1,-1,-1,10,12,14,-1,-1,-1,-1],"split_conditions":[4.4333334E0,4.4210525E0,9.902727E0,1.56E2,-8.901455E-2,9.701896E-2,-2.0196151E-2,-5.1803954E-2,1.2108182E3,2E0,4E-1,-7.055389E-2,5.5295203E-2,-8.194075E-3,1.1681666E-1],"split_indices":[5,6,5,1,0,0,0,0,0,3,10,0,0,0,0],"split_type":[0,0,0,0,0,0,0,0,0,0,0,0,0,0,0],"sum_hessian":[1.07936E1,8.579776E0,2.213824E0,7.2459593E0,1.3338165E0,1.2043647E0,1.0094593E0,1.770929E0,5.4750304E0,2.9343755E0,2.5406551E0,1.7307875E0,1.2035879E0,1.2165287E0,1.3241265E0],"tree_param":{"num_deleted":"0","num_feature":"11","num_nodes":"15","size_leaf_vector":"1"}},{"base_weights":[3.8088404E-3,-5.6143228E-2,1.6864605E-1,4.980047E-2,-1.112789E-1,8.662075E-2,-2.6758101E-3,-1.16029E-1,1.0813835E-2,6.9313526E-2,-1.0166609E-1,1.244187E-1,-9.211354E-2,5.1770464E-2,5.0951056E-3],"categories":[],"categories_nodes":[],"categories_segments":[],"categories_sizes":[],"default_left":[0,0,0,0,0,0,0,0,0,0,0,0,0,0,0],"id":33,"left_children":[1,3,5,-1,7,-1,-1,-1,9,-1,11,13,-1,-1,-1],"loss_changes":[1.2404452E-1,1.3179329E-1,7.383795E-2,0E0,2.736316E-1,0E0,0E0,0E0,1.8509263E-1,0E0,2.7095622E-1,1.30933635E-2,0E0,0E0,0E0],"parents":[2147483647,0,0,1,1,2,2,4,4,8,8,10,10,11,11],"right_children":[2,4,6,-1,8,-1,-1,-1,10,-1,12,14,-1,-1,-1],"split_conditions":[1.4728214E3,8.45E1,1.887E3,4.980047E-2,5.364545E2,8.662075E-2,-2.6758101E-3,-1.16029E-1,2E0,6.9313526E-2,2.9436E3,8.27E2,-9.211354E-2,5.1770464E-2,5.0951056E-3],"split_indices":[1,0,1,0,0,0,0,0,3,0,0,1,0,0,0],"split_type":[0,0,0,0,0,0,0,0,0,0,0,0,0,0,0],"sum_hessian":[1.0594045E1,8.252114E0,2.3419306E0,1.2410537E0,7.01106E0,1.0235854E0,1.3183451E0,1.4873312E0,5.5237293E0,1.511051E0,4.012678E0,2.0976968E0,1.9149815E0,1.0298771E0,1.0678198E0],"tree_param":{"num_deleted":"0","num_feature":"11","num_nodes":"15","size_leaf_vector":"1"}},{"base_weights":[6.974526E-3,-6.282368E-2,1.3473368E-1,3.7988342E-2,-1.16178125E-1,-8.003034E-2,1.129027E-1,-6.678764E-2,8.8668495E-2,-7.747707E-2,4.309635E-2,4.546801E-2,-1.6657728E-1,-9.700618E-2,-1.7943501E-2,1.7603148E-2,-2.634333E-2],"categories":[],"categories_nodes":[],"categories_segments":[],"categories_sizes":[],"default_left":[0,0,0,0,0,0,0,0,0,0,0,0,0,0,0,0,0],"id":34,"left_children":[1,3,5,7,-1,9,-1,11,-1,-1,-1,-1,13,-1,15,-1,-1],"loss_changes":[1.1053869E-1,2.7913216E-1,2.5646758E-1,2.1077378E-1,0E0,1.6204269E-1,0E0,1.5265575E-1,0E0,0E0,0E0,0E0,9.881811E-2,0E0,2.315807E-2,0E0,0E0],"parents":[2147483647,0,0,1,1,2,2,3,3,5,5,7,7,12,12,14,14],"right_children":[2,4,6,8,-1,10,-1,12,-1,-1,-1,-1,14,-1,16,-1,-1],"split_conditions":[4.402E4,2.1331E4,9.2305554E2,2.316E3,-1.16178125E-1,1.4814815E-1,1.129027E-1,8.4E1,8.8668495E-2,-7.747707E-2,4.309635E-2,4.546801E-2,6.103602E2,-9.700618E-2,1.0704425E3,1.7603148E-2,-2.634333E-2],"split_indices":[7,7,1,7,0,10,0,1,0,0,0,0,1,0,0,0,0],"split_type":[0,0,0,0,0,0,0,0,0,0,0,0,0,0,0,0,0],"sum_hessian":[1.0446688E1,7.0845013E0,3.362186E0,6.078609E0,1.0058925E0,2.134027E0,1.2281591E0,4.8474584E0,1.2311506E0,1.1016792E0,1.0323477E0,1.3577652E0,3.4896932E0,1.1262423E0,2.3634508E0,1.2036397E0,1.1598111E0],"tree_param":{"num_deleted":"0","num_feature":"11","num_nodes":"17","size_leaf_vector":"1"}},{"base_weights":[4.3075974E-3,1.15745276E-1,-7.073674E-2,-4.5970876E-2,1.0587643E-1,7.56845E-2,-1.6939914E-1,5.368411E-2,-6.0922503E-2,-2.504345E-1,3.4548596E-2,-1.2145594E-1,-5.2691627E-2,-7.223965E-2,5.3251408E-2],"categories":[],"categories_nodes":[],"categories_segments":[],"categories_sizes":[],"default_left":[0,0,0,0,0,0,0,0,0,0,0,0,0,0,0],"id":35,"left_children":[1,3,5,7,-1,-1,9,-1,-1,11,-1,-1,13,-1,-1],"loss_changes":[1.0235813E-1,2.0458159E-1,2.7697393E-1,1.7078054E-1,0E0,0E0,1.7246535E-1,0E0,0E0,1.3631737E-1,0E0,0E0,1.905524E-1,0E0,0E0],"parents":[2147483647,0,0,1,1,2,2,3,3,6,6,9,9,12,12],"right_children":[2,4,6,8,-1,-1,10,-1,-1,12,-1,-1,14,-1,-1],"split_conditions":[8.127895E2,6.454E2,4.98E2,8.4E1,1.0587643E-1,7.56845E-2,1.9011578E3,5.368411E-2,-6.0922503E-2,1.5254237E-1,3.4548596E-2,-1.2145594E-1,9.2305554E2,-7.223965E-2,5.3251408E-2],"split_indices":[0,1,1,1,0,0,1,0,0,4,0,0,1,0,0],"split_type":[0,0,0,0,0,0,0,0,0,0,0,0,0,0,0],"sum_hessian":[1.0260709E1,3.9108713E0,6.3498373E0,2.8046935E0,1.1061777E0,1.1213953E0,5.2284417E0,1.0962353E0,1.7084582E0,4.16289E0,1.065552E0,1.7494007E0,2.413489E0,1.302819E0,1.1106701E0],"tree_param":{"num_deleted":"0","num_feature":"11","num_nodes":"15","size_leaf_vector":"1"}},{"base_weights":[9.123828E-3,-5.8961377E-2,1.353841E-1,2.7731461E-2,-9.24027E-2,-3.6282253E-2,9.6221864E-2,1.0006616E-1,-5.0309654E-2,-6.260257E-2,4.6338882E-2,-3.4311388E-2,2.2559077E-1,4.8772297E-3,1.0378034E-1],"categories":[],"categories_nodes":[],"categories_segments":[],"categories_sizes":[],"default_left":[0,0,0,0,0,0,0,0,0,0,0,0,0,0,0],"id":36,"left_children":[1,3,5,7,-1,9,-1,11,-1,-1,-1,-1,13,-1,-1],"loss_changes":[1.0333893E-1,1.7917442E-1,1.4494222E-1,1.12623E-1,0E0,1.3329603E-1,0E0,1.7585322E-1,0E0,0E0,0E0,0E0,9.14329E-2,0E0,0E0],"parents":[2147483647,0,0,1,1,2,2,3,3,5,5,7,7,12,12],"right_children":[2,4,6,8,-1,10,-1,12,-1,-1,-1,-1,14,-1,-1],"split_conditions":[4.402E4,2.0481E4,9.2305554E2,4.487607E3,-9.24027E-2,1.4814815E-1,9.6221864E-2,4.4244446E2,-5.0309654E-2,-6.260257E-2,4.6338882E-2,-3.4311388E-2,1.0535E3,4.8772297E-3,1.0378034E-1],"split_indices":[7,7,1,0,0,10,0,0,0,0,0,0,1,0,0],"split_type":[0,0,0,0,0,0,0,0,0,0,0,0,0,0,0],"sum_hessian":[1.0092535E1,6.9030943E0,3.1894412E0,5.7798076E0,1.1232865E0,2.0734127E0,1.1160285E0,4.574585E0,1.2052228E0,1.039724E0,1.0336887E0,1.7218871E0,2.8526976E0,1.4556831E0,1.3970146E0],"tree_param":{"num_deleted":"0","num_feature":"11","num_nodes":"15","size_leaf_vector":"1"}},{"base_weights":[7.7740513E-3,-1.0850044E-1,8.505089E-2,-6.629366E-2,1.1609294E-2,1.0569561E-1,-3.3588305E-2,6.493197E-2,-5.349191E-2,-1.6152616E-1,7.5674936E-2,-2.7017474E-1,2.5913404E-2,-1.0916922E-1,-2.4278883E-2],"categories":[],"categories_nodes":[],"categories_segments":[],"categories_sizes":[],"default_left":[0,0,0,0,0,0,0,0,0,0,0,0,0,0,0],"id":37,"left_children":[1,3,5,-1,7,-1,9,-1,-1,11,-1,13,-1,-1,-1],"loss_changes":[1.07497625E-1,6.749292E-2,2.3793715E-1,0E0,1.6596189E-1,0E0,2.5473055E-1,0E0,0E0,1.4863214E-1,0E0,3.2212853E-2,0E0,0E0,0E0],"parents":[2147483647,0,0,1,1,2,2,4,4,6,6,9,9,11,11],"right_children":[2,4,6,-1,8,-1,10,-1,-1,12,-1,14,-1,-1,-1],"split_conditions":[5.833333E-1,5.024671E2,1.1666666E0,-6.629366E-2,1.3007097E3,1.0569561E-1,6.783E4,6.493197E-2,-5.349191E-2,4.4333334E0,7.5674936E-2,7.1974896E2,2.5913404E-2,-1.0916922E-1,-2.4278883E-2],"split_indices":[6,1,6,0,1,0,7,0,0,5,0,1,0,0,0],"split_type":[0,0,0,0,0,0,0,0,0,0,0,0,0,0,0],"sum_hessian":[9.936673E0,3.8059728E0,6.1307006E0,1.5317432E0,2.2742295E0,1.2792251E0,4.8514757E0,1.0269575E0,1.2472721E0,3.651852E0,1.1996238E0,2.4766006E0,1.1752512E0,1.0391017E0,1.4374989E0],"tree_param":{"num_deleted":"0","num_feature":"11","num_nodes":"15","size_leaf_vector":"1"}},{"base_weights":[7.330192E-3,4.809536E-2,-4.3084837E-2,-8.583289E-2,1.5532658E-1,2.0112058E-2,-1.6408321E-1,2.4976733E-1,-1.8963922E-2,-9.037307E-2,1.6586216E-2,4.81584E-3,9.696328E-2],"categories":[],"categories_nodes":[],"categories_segments":[],"categories_sizes":[],"default_left":[0,0,0,0,0,0,0,0,0,0,0,0,0],"id":38,"left_children":[1,3,-1,5,7,-1,9,11,-1,-1,-1,-1,-1],"loss_changes":[7.316912E-2,1.4585476E-1,0E0,6.7787886E-2,1.2890232E-1,0E0,1.1986073E-1,6.396523E-2,0E0,0E0,0E0,0E0,0E0],"parents":[2147483647,0,0,1,1,3,3,4,4,6,6,7,7],"right_children":[2,4,-1,6,8,-1,10,12,-1,-1,-1,-1,-1],"split_conditions":[1.2E1,5.833333E-1,-4.3084837E-2,5.17E2,4.7853E3,2.0112058E-2,1.2108182E3,3.0244446E2,-1.8963922E-2,-9.037307E-2,1.6586216E-2,4.81584E-3,9.696328E-2],"split_indices":[3,6,0,0,0,0,0,1,0,0,0,0,0],"split_type":[0,0,0,0,0,0,0,0,0,0,0,0,0],"sum_hessian":[9.768415E0,8.227767E0,1.5406492E0,3.7471957E0,4.480571E0,1.3171728E0,2.430023E0,3.0287988E0,1.451772E0,1.265536E0,1.1644871E0,1.0155754E0,2.0132234E0],"tree_param":{"num_deleted":"0","num_feature":"11","num_nodes":"13","size_leaf_vector":"1"}},{"base_weights":[4.098368E-3,-4.7878414E-2,1.3727188E-1,-6.963551E-2,4.217804E-2,-1.6145295E-2,7.539023E-2,6.3429736E-2,-4.9115974E-2,-1.2429711E-1,1.4799857E-2,2.1459868E-2,-8.039335E-2],"categories":[],"categories_nodes":[],"categories_segments":[],"categories_sizes":[],"default_left":[0,0,0,0,0,0,0,0,0,0,0,0,0],"id":39,"left_children":[1,3,5,-1,7,-1,-1,-1,9,11,-1,-1,-1],"loss_changes":[8.049471E-2,1.4954193E-1,8.448492E-2,0E0,1.108793E-1,0E0,0E0,0E0,4.3408424E-2,1.0751245E-1,0E0,0E0,0E0],"parents":[2147483647,0,0,1,1,2,2,4,4,8,8,9,9],"right_children":[2,4,6,-1,8,-1,-1,-1,10,12,-1,-1,-1],"split_conditions":[8E0,2.2222222E-1,1.923077E-2,-6.963551E-2,8.333333E-1,-1.6145295E-2,7.539023E-2,6.3429736E-2,5.51E2,7.45E1,1.4799857E-2,2.1459868E-2,-8.039335E-2],"split_indices":[3,10,10,0,10,0,0,0,1,0,0,0,0],"split_type":[0,0,0,0,0,0,0,0,0,0,0,0,0],"sum_hessian":[9.6794405E0,7.4228354E0,2.256605E0,1.919137E0,5.5036983E0,1.0406758E0,1.2159293E0,1.4673523E0,4.0363464E0,2.1397533E0,1.896593E0,1.1180475E0,1.0217059E0],"tree_param":{"num_deleted":"0","num_feature":"11","num_nodes":"13","size_leaf_vector":"1"}},{"base_weights":[3.7945122E-3,-3.6659494E-2,5.1703833E-2,2.2278024E-2,-7.602913E-2,-8.065613E-2,1.2303781E-1,1.5278602E-2,-1.4575261E-1,8.4330074E-2,-1.690019E-2,2.3208678E-2,-8.233605E-2,-5.184584E-2,4.617883E-2],"categories":[],"categories_nodes":[],"categories_segments":[],"categories_sizes":[],"default_left":[0,0,0,0,0,0,0,0,0,0,0,0,0,0,0],"id":40,"left_children":[1,3,-1,5,-1,7,9,-1,11,-1,13,-1,-1,-1,-1],"loss_changes":[7.834524E-2,1.250162E-1,0E0,9.564785E-2,0E0,4.7617942E-2,1.0589412E-1,0E0,1.1881689E-1,0E0,1.1632942E-1,0E0,0E0,0E0,0E0],"parents":[2147483647,0,0,1,1,3,3,5,5,6,6,8,8,10,10],"right_children":[2,4,-1,6,-1,8,10,-1,12,-1,14,-1,-1,-1,-1],"split_conditions":[9.519231E-1,1.8E1,5.1703833E-2,5.833333E-1,-7.602913E-2,5.17E2,1.1666666E0,1.5278602E-2,1.0198516E3,8.4330074E-2,1.5254237E-1,2.3208678E-2,-8.233605E-2,-5.184584E-2,4.617883E-2],"split_indices":[4,2,0,6,0,0,6,0,1,0,4,0,0,0,0],"split_type":[0,0,0,0,0,0,0,0,0,0,0,0,0,0,0],"sum_hessian":[9.56335E0,8.343365E0,1.2199851E0,7.2652535E0,1.0781109E0,3.6925447E0,3.5727086E0,1.2941722E0,2.3983727E0,1.2040099E0,2.3686986E0,1.023295E0,1.3750776E0,1.2323042E0,1.1363945E0],"tree_param":{"num_deleted":"0","num_feature":"11","num_nodes":"15","size_leaf_vector":"1"}},{"base_weights":[3.7339588E-3,-4.4062205E-2,4.269423E-2,5.1159304E-2,-1.8049048E-1,-1.1772837E-1,2.0502791E-1,3.166699E-3,-8.067335E-2,4.297077E-2,-8.830243E-2,7.4414196E-3,8.9495204E-2],"categories":[],"categories_nodes":[],"categories_segments":[],"categories_sizes":[],"default_left":[0,0,0,0,0,0,0,0,0,0,0,0,0],"id":41,"left_children":[1,3,-1,5,7,9,11,-1,-1,-1,-1,-1,-1],"loss_changes":[7.55858E-2,1.2023771E-1,0E0,1.7515847E-1,6.59019E-2,1.9913162E-1,4.9860567E-2,0E0,0E0,0E0,0E0,0E0,0E0],"parents":[2147483647,0,0,1,1,3,3,4,4,5,5,6,6],"right_children":[2,4,-1,6,8,10,12,-1,-1,-1,-1,-1,-1],"split_conditions":[1.6210435E3,8.186667E2,4.269423E-2,6.49E2,1.2859E4,8.4E1,4E0,3.166699E-3,-8.067335E-2,4.297077E-2,-8.830243E-2,7.4414196E-3,8.9495204E-2],"split_indices":[1,1,0,0,7,1,3,0,0,0,0,0,0],"split_type":[0,0,0,0,0,0,0,0,0,0,0,0,0],"sum_hessian":[9.464873E0,7.544743E0,1.9201299E0,4.81151E0,2.7332332E0,2.4057798E0,2.40573E0,1.143389E0,1.5898441E0,1.0472877E0,1.3584923E0,1.2523128E0,1.1534172E0],"tree_param":{"num_deleted":"0","num_feature":"11","num_nodes":"13","size_leaf_vector":"1"}},{"base_weights":[4.2547625E-3,-4.3754384E-2,5.0673585E-2,9.027243E-2,-3.882361E-2,5.4478254E-2,-1.2268639E-1,-1.904612E-1,1.8956857E-2,-2.2392282E-3,-2.4518079E-1,-9.8419085E-2,-1.4562824E-2],"categories":[],"categories_nodes":[],"categories_segments":[],"categories_sizes":[],"default_left":[0,0,0,0,0,0,0,0,0,0,0,0,0],"id":42,"left_children":[1,-1,3,-1,5,-1,7,9,-1,-1,11,-1,-1],"loss_changes":[7.966319E-2,0E0,2.057324E-1,0E0,1.5662502E-1,0E0,8.587769E-2,4.3676466E-2,0E0,0E0,4.0580004E-2,0E0,0E0],"parents":[2147483647,0,0,2,2,4,4,6,6,7,7,10,10],"right_children":[2,-1,4,-1,6,-1,8,10,-1,-1,12,-1,-1],"split_conditions":[1.56E2,-4.3754384E-2,4.38E2,9.027243E-2,8.127895E2,5.4478254E-2,6.7975E4,1.1666666E0,1.8956857E-2,-2.2392282E-3,8E-1,-9.8419085E-2,-1.4562824E-2],"split_indices":[1,0,1,0,0,0,7,6,0,0,4,0,0],"split_type":[0,0,0,0,0,0,0,0,0,0,0,0,0],"sum_hessian":[9.372674E0,1.7079012E0,7.6647725E0,1.3968809E0,6.2678914E0,1.4063056E0,4.861586E0,3.5445056E0,1.3170803E0,1.0774907E0,2.467015E0,1.2653204E0,1.2016946E0],"tree_param":{"num_deleted":"0","num_feature":"11","num_nodes":"13","size_leaf_vector":"1"}},{"base_weights":[3.460275E-3,-8.579947E-2,6.5294266E-2,-5.6612473E-2,1.9907517E-2,1.409948E-1,-3.6496226E-2,4.9579218E-2,-3.711742E-2,-1.6525008E-2,2.1818082E-1,1.0216709E-1,-1.8166464E-3],"categories":[],"categories_nodes":[],"categories_segments":[],"categories_sizes":[],"default_left":[0,0,0,0,0,0,0,0,0,0,0,0,0],"id":43,"left_children":[1,3,5,-1,7,9,-1,-1,-1,-1,11,-1,-1],"loss_changes":[6.2318522E-2,5.4204572E-2,1.1110113E-1,0E0,8.709439E-2,9.054088E-2,0E0,0E0,0E0,0E0,1.09752744E-1,0E0,0E0],"parents":[2147483647,0,0,1,1,2,2,4,4,5,5,10,10],"right_children":[2,4,6,-1,8,10,-1,-1,-1,-1,12,-1,-1],"split_conditions":[5.833333E-1,5.024671E2,1.2E1,-5.6612473E-2,8.127895E2,3.0244446E2,-3.6496226E-2,4.9579218E-2,-3.711742E-2,-1.6525008E-2,7.5114503E0,1.0216709E-1,-1.8166464E-3],"split_indices":[6,1,3,0,0,1,0,0,0,0,6,0,0],"split_type":[0,0,0,0,0,0,0,0,0,0,0,0,0],"sum_hessian":[9.276022E0,3.6375299E0,5.6384926E0,1.445294E0,2.1922357E0,4.1883307E0,1.4501618E0,1.0147244E0,1.1775115E0,1.2639169E0,2.9244137E0,1.5563178E0,1.3680959E0],"tree_param":{"num_deleted":"0","num_feature":"11","num_nodes":"13","size_leaf_vector":"1"}},{"base_weights":[3.018244E-3,-4.685936E-2,1.3189776E-1,-6.297918E-2,3.3158444E-2,-1.34429E-2,7.269057E-2,5.2813645E-2,-4.236141E-2,-1.0761137E-1,2.987259E-2,5.1868778E-2,-8.1379086E-2],"categories":[],"categories_nodes":[],"categories_segments":[],"categories_sizes":[],"default_left":[0,0,0,0,0,0,0,0,0,0,0,0,0],"id":44,"left_children":[1,3,5,-1,7,-1,-1,-1,9,11,-1,-1,-1],"loss_changes":[7.168033E-2,1.1244833E-1,7.143826E-2,0E0,7.529617E-2,0E0,0E0,0E0,5.6271687E-2,2.236564E-1,0E0,0E0,0E0],"parents":[2147483647,0,0,1,1,2,2,4,4,8,8,9,9],"right_children":[2,4,6,-1,8,-1,-1,-1,10,12,-1,-1,-1],"split_conditions":[8E0,2.2222222E-1,2.0565264E3,-6.297918E-2,8.333333E-1,-1.34429E-2,7.269057E-2,5.2813645E-2,1.2108182E3,8.4E1,2.987259E-2,5.1868778E-2,-8.1379086E-2],"split_indices":[3,10,0,0,10,0,0,0,0,1,0,0,0],"split_type":[0,0,0,0,0,0,0,0,0,0,0,0,0],"sum_hessian":[9.189427E0,7.084188E0,2.105239E0,1.7974831E0,5.286705E0,1.0379989E0,1.0672399E0,1.3677479E0,3.9189572E0,2.850421E0,1.0685363E0,1.0294365E0,1.8209845E0],"tree_param":{"num_deleted":"0","num_feature":"11","num_nodes":"13","size_leaf_vector":"1"}},{"base_weights":[7.034938E-3,-3.805083E-2,4.0532418E-2,2.0191811E-2,-6.647212E-2,-4.6997312E-2,9.797326E-2,-2.2041796E-2,1.8029387E-1,1.0572301E-1,-4.4744298E-2],"categories":[],"categories_nodes":[],"categories_segments":[],"categories_sizes":[],"default_left":[0,0,0,0,0,0,0,0,0,0,0],"id":45,"left_children":[1,3,-1,5,-1,-1,7,-1,9,-1,-1],"loss_changes":[6.344476E-2,9.263991E-2,0E0,1.140832E-1,0E0,0E0,9.228876E-2,0E0,2.8352153E-1,0E0,0E0],"parents":[2147483647,0,0,1,1,3,3,6,6,8,8],"right_children":[2,4,-1,6,-1,-1,8,-1,10,-1,-1],"split_conditions":[4.4333334E0,4.4210525E0,4.0532418E-2,1.56E2,-6.647212E-2,-4.6997312E-2,6.49E2,-2.2041796E-2,1.3007097E3,1.0572301E-1,-4.4744298E-2],"split_indices":[5,6,0,1,0,0,0,0,1,0,0],"split_type":[0,0,0,0,0,0,0,0,0,0,0],"sum_hessian":[9.097162E0,7.2483964E0,1.848766E0,6.1777945E0,1.0706019E0,1.5773476E0,4.6004467E0,1.527229E0,3.0732179E0,1.9728082E0,1.1004095E0],"tree_param":{"num_deleted":"0","num_feature":"11","num_nodes":"11","size_leaf_vector":"1"}},{"base_weights":[1.8637908E-3,1.0695803E-1,-7.323132E-2,-2.1241918E-2,8.212381E-2,-1.6486694E-1,7.503752E-2,-8.616251E-2,1.1247485E-2,5.6213196E-2,-2.347047E-2],"categories":[],"categories_nodes":[],"categories_segments":[],"categories_sizes":[],"default_left":[0,0,0,0,0,0,0,0,0,0,0],"id":46,"left_children":[1,3,5,-1,-1,7,9,-1,-1,-1,-1],"loss_changes":[8.667666E-2,1.5487675E-1,9.96027E-2,0E0,0E0,1.1674625E-1,6.871868E-2,0E0,0E0,0E0,0E0],"parents":[2147483647,0,0,1,1,2,2,5,5,6,6],"right_children":[2,4,6,-1,-1,8,10,-1,-1,-1,-1],"split_conditions":[8.127895E2,4.4244446E2,6.896552E-1,-2.1241918E-2,8.212381E-2,3.7735852E3,3.43775E3,-8.616251E-2,1.1247485E-2,5.6213196E-2,-2.347047E-2],"split_indices":[0,0,4,0,0,0,0,0,0,0,0],"split_type":[0,0,0,0,0,0,0,0,0,0,0],"sum_hessian":[8.990288E0,3.569932E0,5.4203563E0,2.006671E0,1.563261E0,3.2807717E0,2.1395843E0,1.7833154E0,1.4974562E0,1.1062531E0,1.0333313E0],"tree_param":{"num_deleted":"0","num_feature":"11","num_nodes":"11","size_leaf_vector":"1"}},{"base_weights":[3.222718E-3,-4.8008967E-2,4.501986E-2,8.66417E-2,-1.415478E-1,-2.1652825E-2,7.011674E-2,-2.360241E-3,-6.0704656E-2],"categories":[],"categories_nodes":[],"categories_segments":[],"categories_sizes":[],"default_left":[0,0,0,0,0,0,0,0,0],"id":47,"left_children":[1,3,-1,5,7,-1,-1,-1,-1],"loss_changes":[8.170241E-2,1.14270896E-1,0E0,1.0890879E-1,4.033783E-2,0E0,0E0,0E0,0E0],"parents":[2147483647,0,0,1,1,3,3,4,4],"right_children":[2,4,-1,6,8,-1,-1,-1,-1],"split_conditions":[1.6490769E3,4.38E2,4.501986E-2,1.56E2,1.1111111E-1,-2.1652825E-2,7.011674E-2,-2.360241E-3,-6.0704656E-2],"split_indices":[1,1,0,1,10,0,0,0,0],"split_type":[0,0,0,0,0,0,0,0,0],"sum_hessian":[8.902633E0,7.0989623E0,1.8036706E0,2.9402132E0,4.158749E0,1.658568E0,1.2816452E0,1.6532422E0,2.505507E0],"tree_param":{"num_deleted":"0","num_feature":"11","num_nodes":"9","size_leaf_vector":"1"}},{"base_weights":[5.4110414E-3,5.0528415E-2,-4.585175E-2,1.2269726E-1,-6.964185E-2,-3.7214525E-2,8.2914054E-2,2.2189118E-2,-5.0011724E-2,5.5550154E-2,-5.943618E-2],"categories":[],"categories_nodes":[],"categories_segments":[],"categories_sizes":[],"default_left":[0,0,0,0,0,0,0,0,0,0,0],"id":48,"left_children":[1,3,-1,5,7,9,-1,-1,-1,-1,-1],"loss_changes":[7.798636E-2,8.147547E-2,0E0,1.4830518E-1,6.520404E-2,1.667052E-1,0E0,0E0,0E0,0E0,0E0],"parents":[2147483647,0,0,1,1,3,3,4,4,5,5],"right_children":[2,4,-1,6,8,10,-1,-1,-1,-1,-1],"split_conditions":[1.2E1,2.239E3,-4.585175E-2,5.364545E2,8.1863635E2,8.4E1,8.2914054E-2,2.2189118E-2,-5.0011724E-2,5.5550154E-2,-5.943618E-2],"split_indices":[3,0,0,0,1,1,0,0,0,0,0],"split_type":[0,0,0,0,0,0,0,0,0,0,0],"sum_hessian":[8.841077E0,7.409362E0,1.4317148E0,4.6161075E0,2.7932544E0,2.6336071E0,1.9825002E0,1.2225244E0,1.57073E0,1.0423037E0,1.5913035E0],"tree_param":{"num_deleted":"0","num_feature":"11","num_nodes":"11","size_leaf_vector":"1"}},{"base_weights":[4.508486E-3,-4.0227916E-2,3.92494E-2,3.762009E-2,-8.732431E-2,-1.0117368E-1,2.75118E-2,7.752456E-2,-9.7955346E-2,2.987856E-2,-6.5561086E-2],"categories":[],"categories_nodes":[],"categories_segments":[],"categories_sizes":[],"default_left":[0,0,0,0,0,0,0,0,0,0,0],"id":49,"left_children":[1,3,-1,-1,5,-1,7,-1,9,-1,-1],"loss_changes":[6.0379617E-2,7.309843E-2,0E0,0E0,2.0423079E-1,0E0,1.869351E-1,0E0,1.2514342E-1,0E0,0E0],"parents":[2147483647,0,0,1,1,4,4,6,6,8,8],"right_children":[2,4,-1,-1,6,-1,8,-1,10,-1,-1],"split_conditions":[1.6490769E3,8.45E1,3.92494E-2,3.762009E-2,5.364545E2,-1.0117368E-1,2E0,7.752456E-2,1.9166202E3,2.987856E-2,-6.5561086E-2],"split_indices":[1,0,0,0,0,0,3,0,0,0,0],"split_type":[0,0,0,0,0,0,0,0,0,0,0],"sum_hessian":[8.753018E0,6.9671826E0,1.7858351E0,1.1744071E0,5.7927756E0,1.2139859E0,4.5787897E0,1.2389903E0,3.3397994E0,1.3318515E0,2.007948E0],"tree_param":{"num_deleted":"0","num_feature":"11","num_nodes":"11","size_leaf_vector":"1"}},{"base_weights":[4.8558647E-3,9.255589E-2,-5.7624236E-2,-3.4423314E-2,7.3766984E-2,-1.380793E-1,3.952967E-2,4.5377783E-2,-5.553918E-2,-2.4006528E-1,6.744322E-3,-1.967839E-2,-8.937053E-2],"categories":[],"categories_nodes":[],"categories_segments":[],"categories_sizes":[],"default_left":[0,0,0,0,0,0,0,0,0,0,0,0,0],"id":50,"left_children":[1,3,5,7,-1,9,-1,-1,-1,11,-1,-1,-1],"loss_changes":[5.813702E-2,9.399395E-2,1.13331884E-1,1.19792715E-1,0E0,8.514981E-2,0E0,0E0,0E0,1.1378795E-2,0E0,0E0,0E0],"parents":[2147483647,0,0,1,1,2,2,3,3,5,5,9,9],"right_children":[2,4,6,8,-1,10,-1,-1,-1,12,-1,-1,-1],"split_conditions":[8.127895E2,5.0643558E2,6.7975E4,8.4E1,7.3766984E-2,3.0772727E3,3.952967E-2,4.5377783E-2,-5.553918E-2,1.1660079E-1,6.744322E-3,-1.967839E-2,-8.937053E-2],"split_indices":[0,1,7,1,0,0,0,0,0,10,0,0,0],"split_type":[0,0,0,0,0,0,0,0,0,0,0,0,0],"sum_hessian":[8.636553E0,3.3928385E0,5.2437143E0,2.2801218E0,1.1127167E0,3.870433E0,1.3732814E0,1.0198851E0,1.2602369E0,2.0641434E0,1.8062898E0,1.0452278E0,1.0189155E0],"tree_param":{"num_deleted":"0","num_feature":"11","num_nodes":"13","size_leaf_vector":"1"}},{"base_weights":[3.44575E-3,4.2394016E-2,-3.917448E-2,-7.782271E-2,1.4184004E-1,-5.291271E-2,7.6797367E-3,7.624429E-2,-2.73415E-3],"categories":[],"categories_nodes":[],"categories_segments":[],"categories_sizes":[],"default_left":[0,0,0,0,0,0,0,0,0],"id":51,"left_children":[1,3,-1,5,7,-1,-1,-1,-1],"loss_changes":[5.547788E-2,1.0868618E-1,0E0,4.8786297E-2,8.410556E-2,0E0,0E0,0E0,0E0],"parents":[2147483647,0,0,1,1,3,3,4,4],"right_children":[2,4,-1,6,8,-1,-1,-1,-1],"split_conditions":[1.2E1,5.833333E-1,-3.917448E-2,5.024671E2,2.239E3,-5.291271E-2,7.6797367E-3,7.624429E-2,-2.73415E-3],"split_indices":[3,6,0,1,0,0,0,0,0],"split_type":[0,0,0,0,0,0,0,0,0],"sum_hessian":[8.567191E0,7.1678963E0,1.3992951E0,3.3434987E0,3.8243976E0,1.3508462E0,1.9926525E0,1.8009238E0,2.0234737E0],"tree_param":{"num_deleted":"0","num_feature":"11","num_nodes":"9","size_leaf_vector":"1"}},{"base_weights":[1.3698203E-3,-4.8231885E-2,1.2466933E-1,3.828726E-2,-1.6618513E-1,-1.6118383E-2,7.242348E-2,-4.882037E-2,5.9149407E-2,-2.2823059E-3,-8.0997914E-2,-6.1476875E-2,3.916835E-2],"categories":[],"categories_nodes":[],"categories_segments":[],"categories_sizes":[],"default_left":[0,0,0,0,0,0,0,0,0,0,0,0,0],"id":52,"left_children":[1,3,5,7,9,-1,-1,11,-1,-1,-1,-1,-1],"loss_changes":[6.421127E-2,8.297398E-2,7.5635E-2,8.080635E-2,5.331853E-2,0E0,0E0,1.4222126E-1,0E0,0E0,0E0,0E0,0E0],"parents":[2147483647,0,0,1,1,2,2,3,3,4,4,7,7],"right_children":[2,4,6,8,10,-1,-1,12,-1,-1,-1,-1,-1],"split_conditions":[8E0,1.882421E3,2.631579E-2,1.236E3,2.0481E4,-1.6118383E-2,7.242348E-2,5.833333E-1,5.9149407E-2,-2.2823059E-3,-8.0997914E-2,-6.1476875E-2,3.916835E-2],"split_indices":[3,0,10,1,7,0,0,6,0,0,0,0,0],"split_type":[0,0,0,0,0,0,0,0,0,0,0,0,0],"sum_hessian":[8.515945E0,6.5070653E0,2.00888E0,4.1433244E0,2.3637407E0,1.0081182E0,1.0007617E0,3.1235142E0,1.0198104E0,1.3597962E0,1.0039446E0,1.5939932E0,1.5295209E0],"tree_param":{"num_deleted":"0","num_feature":"11","num_nodes":"13","size_leaf_vector":"1"}},{"base_weights":[2.0293284E-3,-5.7983954E-2,1.17365085E-1,1.6341487E-2,-7.151438E-2,6.556316E-2,-1.0276789E-2,1.19555846E-1,-4.53403E-2,-2.4024662E-2,8.013694E-2],"categories":[],"categories_nodes":[],"categories_segments":[],"categories_sizes":[],"default_left":[0,0,0,0,0,0,0,0,0,0,0],"id":53,"left_children":[1,3,5,7,-1,-1,-1,9,-1,-1,-1],"loss_changes":[7.207965E-2,9.603844E-2,6.2072832E-2,1.183756E-1,0E0,0E0,0E0,1.4360724E-1,0E0,0E0,0E0],"parents":[2147483647,0,0,1,1,2,2,3,3,7,7],"right_children":[2,4,6,8,-1,-1,-1,10,-1,-1,-1],"split_conditions":[4.402E4,1.788E3,2.9436E3,1.4029851E0,-7.151438E-2,6.556316E-2,-1.0276789E-2,4.4244446E2,-4.53403E-2,-2.4024662E-2,8.013694E-2],"split_indices":[7,1,0,6,0,0,0,0,0,0,0],"split_type":[0,0,0,0,0,0,0,0,0,0,0],"sum_hessian":[8.430425E0,5.8721805E0,2.558244E0,4.802796E0,1.0693845E0,1.2696247E0,1.2886194E0,3.1485152E0,1.6542807E0,1.532531E0,1.6159842E0],"tree_param":{"num_deleted":"0","num_feature":"11","num_nodes":"11","size_leaf_vector":"1"}},{"base_weights":[9.903233E-4,3.9517347E-2,-3.8993716E-2,-6.1689693E-2,1.6284318E-1,3.679496E-2,-1.4957212E-1,8.520593E-2,-1.1766032E-2,-8.176799E-2,2.2673946E-2],"categories":[],"categories_nodes":[],"categories_segments":[],"categories_sizes":[],"default_left":[0,0,0,0,0,0,0,0,0,0,0],"id":54,"left_children":[1,3,-1,5,7,-1,9,-1,-1,-1,-1],"loss_changes":[5.2341465E-2,1.0984227E-1,0E0,1.012394E-1,1.06111005E-1,0E0,1.2902468E-1,0E0,0E0,0E0,0E0],"parents":[2147483647,0,0,1,1,3,3,4,4,6,6],"right_children":[2,4,-1,6,8,-1,10,-1,-1,-1,-1],"split_conditions":[1.2E1,2.316E3,-3.8993716E-2,8.4E1,6.1133E4,3.679496E-2,1.2108182E3,8.520593E-2,-1.1766032E-2,-8.176799E-2,2.2673946E-2],"split_indices":[3,7,0,1,7,0,0,0,0,0,0],"split_type":[0,0,0,0,0,0,0,0,0,0,0],"sum_hessian":[8.355203E0,6.995592E0,1.3596107E0,4.1168733E0,2.878719E0,1.2013481E0,2.915525E0,1.5459942E0,1.3327248E0,1.7493778E0,1.1661472E0],"tree_param":{"num_deleted":"0","num_feature":"11","num_nodes":"11","size_leaf_vector":"1"}},{"base_weights":[2.1195777E-3,-5.031917E-2,1.0222024E-1,1.7314643E-2,-6.2713146E-2,5.562323E-2,-7.1120407E-3,4.171009E-2,-4.1597307E-2,1.7928394E-2,-9.11902E-2,-7.037081E-2,2.2581292E-2],"categories":[],"categories_nodes":[],"categories_segments":[],"categories_sizes":[],"default_left":[0,0,0,0,0,0,0,0,0,0,0,0,0],"id":55,"left_children":[1,3,5,7,-1,-1,-1,-1,9,-1,11,-1,-1],"loss_changes":[5.382237E-2,7.614346E-2,4.1248683E-2,4.63746E-2,0E0,0E0,0E0,0E0,2.8492885E-2,0E0,1.00571044E-1,0E0,0E0],"parents":[2147483647,0,0,1,1,2,2,3,3,8,8,10,10],"right_children":[2,4,6,8,-1,-1,-1,-1,10,-1,12,-1,-1],"split_conditions":[4.402E4,1.3873E4,2.9436E3,8.77193E-1,-6.2713146E-2,5.562323E-2,-7.1120407E-3,4.171009E-2,8.4E1,1.7928394E-2,6.279537E2,-7.037081E-2,2.2581292E-2],"split_indices":[7,7,0,10,0,0,0,0,1,0,0,0,0],"split_type":[0,0,0,0,0,0,0,0,0,0,0,0,0],"sum_hessian":[8.273635E0,5.755744E0,2.5178907E0,4.660698E0,1.095046E0,1.23178E0,1.2861108E0,1.0764996E0,3.5841985E0,1.1101735E0,2.474025E0,1.1093487E0,1.3646764E0],"tree_param":{"num_deleted":"0","num_feature":"11","num_nodes":"13","size_leaf_vector":"1"}},{"base_weights":[1.1863419E-3,-4.3827295E-2,3.4500744E-2,3.641571E-2,-5.1894054E-2,-5.381764E-2,6.427057E-2,2.9299729E-2,-4.130947E-2],"categories":[],"categories_nodes":[],"categories_segments":[],"categories_sizes":[],"default_left":[0,0,0,0,0,0,0,0,0],"id":56,"left_children":[1,3,-1,5,-1,7,-1,-1,-1],"loss_changes":[5.2245498E-2,8.222978E-2,0E0,9.729283E-2,0E0,6.865846E-2,0E0,0E0,0E0],"parents":[2147483647,0,0,1,1,3,3,5,5],"right_children":[2,4,-1,6,-1,8,-1,-1,-1],"split_conditions":[1.4728214E3,8.4455E2,3.4500744E-2,5.749091E2,-5.1894054E-2,8.45E1,6.427057E-2,2.9299729E-2,-4.130947E-2],"split_indices":[1,1,0,1,0,0,0,0,0],"split_type":[0,0,0,0,0,0,0,0,0],"sum_hessian":[8.213877E0,6.3266506E0,1.8872256E0,4.3450823E0,1.9815687E0,3.3450203E0,1.0000619E0,1.1335509E0,2.2114694E0],"tree_param":{"num_deleted":"0","num_feature":"11","num_nodes":"9","size_leaf_vector":"1"}},{"base_weights":[4.6646167E-3,-3.3376638E-2,3.7362125E-2,8.325611E-2,-1.2839952E-1,-1.7202642E-2,6.631676E-2,-6.906838E-2,7.707422E-3],"categories":[],"categories_nodes":[],"categories_segments":[],"categories_sizes":[],"default_left":[0,0,0,0,0,0,0,0,0],"id":57,"left_children":[1,3,-1,5,7,-1,-1,-1,-1],"loss_changes":[4.5925923E-2,9.6488975E-2,0E0,9.17671E-2,7.902453E-2,0E0,0E0,0E0,0E0],"parents":[2147483647,0,0,1,1,3,3,4,4],"right_children":[2,4,-1,6,8,-1,-1,-1,-1],"split_conditions":[6.7975E4,8.127895E2,3.7362125E-2,4.4244446E2,3.0772727E3,-1.7202642E-2,6.631676E-2,-6.906838E-2,7.707422E-3],"split_indices":[7,0,0,0,0,0,0,0,0],"split_type":[0,0,0,0,0,0,0,0,0],"sum_hessian":[8.159455E0,6.741643E0,1.4178123E0,3.0822575E0,3.6593854E0,1.8146391E0,1.2676183E0,1.9058392E0,1.7535461E0],"tree_param":{"num_deleted":"0","num_feature":"11","num_nodes":"9","size_leaf_vector":"1"}},{"base_weights":[6.0369587E-3,4.3531775E-2,-3.812217E-2,-8.558357E-2,1.5860659E-1,2.7402217E-2,-1.7622344E-1,-8.6040115E-3,9.375043E-2,-6.613478E-2,-1.5622449E-2,2.5581622E-2,-2.7978193E-2],"categories":[],"categories_nodes":[],"categories_segments":[],"categories_sizes":[],"default_left":[0,0,0,0,0,0,0,0,0,0,0,0,0],"id":58,"left_children":[1,3,-1,5,7,-1,9,11,-1,-1,-1,-1,-1],"loss_changes":[5.096144E-2,1.3016047E-1,0E0,8.5811496E-2,1.1847218E-1,0E0,6.1778054E-3,3.2824446E-2,0E0,0E0,0E0,0E0,0E0],"parents":[2147483647,0,0,1,1,3,3,4,4,6,6,7,7],"right_children":[2,4,-1,6,8,-1,10,12,-1,-1,-1,-1,-1],"split_conditions":[2.7861538E1,6.454E2,-3.812217E-2,8.45E1,1.6666666E0,2.7402217E-2,6.86E2,1.3007097E3,9.375043E-2,-6.613478E-2,-1.5622449E-2,2.5581622E-2,-2.7978193E-2],"split_indices":[6,1,0,0,6,0,0,1,0,0,0,0,0],"split_type":[0,0,0,0,0,0,0,0,0,0,0,0,0],"sum_hessian":[8.10238E0,6.8467464E0,1.2556335E0,3.3473065E0,3.49944E0,1.1313121E0,2.2159944E0,2.1296327E0,1.3698075E0,1.0619901E0,1.1540042E0,1.0063819E0,1.1232507E0],"tree_param":{"num_deleted":"0","num_feature":"11","num_nodes":"13","size_leaf_vector":"1"}},{"base_weights":[4.3301624E-3,-3.9114777E-2,3.306476E-2,-5.778906E-2,3.701658E-2,5.515893E-2,-4.3315645E-2,-3.379053E-2,1.4170027E-2],"categories":[],"categories_nodes":[],"categories_segments":[],"categories_sizes":[],"default_left":[0,0,0,0,0,0,0,0,0],"id":59,"left_children":[1,3,-1,-1,5,-1,7,-1,-1],"loss_changes":[4.5752373E-2,9.0411864E-2,0E0,0E0,7.405155E-2,0E0,3.313021E-2,0E0,0E0],"parents":[2147483647,0,0,1,1,4,4,6,6],"right_children":[2,4,-1,-1,6,-1,8,-1,-1],"split_conditions":[8E0,2.2222222E-1,3.306476E-2,-5.778906E-2,8.333333E-1,5.515893E-2,5.51E2,-3.379053E-2,1.4170027E-2],"split_indices":[3,10,0,0,10,0,1,0,0],"split_type":[0,0,0,0,0,0,0,0,0],"sum_hessian":[8.008591E0,6.125777E0,1.8828142E0,1.5234913E0,4.6022854E0,1.1716806E0,3.4306047E0,1.8049335E0,1.6256711E0],"tree_param":{"num_deleted":"0","num_feature":"11","num_nodes":"9","size_leaf_vector":"1"}},{"base_weights":[4.2558433E-3,4.652278E-2,-4.1219916E-2,-5.5517275E-2,1.2903884E-1,2.4421873E-2,-4.0880565E-2,-1.2635969E-2,1.9603601E-1,9.120187E-2,-2.1811249E-3],"categories":[],"categories_nodes":[],"categories_segments":[],"categories_sizes":[],"default_left":[0,0,0,0,0,0,0,0,0,0,0],"id":60,"left_children":[1,3,-1,5,7,-1,-1,-1,9,-1,-1],"loss_changes":[6.0043495E-2,7.156439E-2,0E0,5.6634754E-2,6.0199372E-2,0E0,0E0,0E0,7.755181E-2,0E0,0E0],"parents":[2147483647,0,0,1,1,3,3,4,4,8,8],"right_children":[2,4,-1,6,8,-1,-1,-1,10,-1,-1],"split_conditions":[1.2E1,5.833333E-1,-4.1219916E-2,5.17E2,3.0244446E2,2.4421873E-2,-4.0880565E-2,-1.2635969E-2,7.5114503E0,9.120187E-2,-2.1811249E-3],"split_indices":[3,6,0,0,1,0,0,0,6,0,0],"split_type":[0,0,0,0,0,0,0,0,0,0,0],"sum_hessian":[7.960777E0,6.648567E0,1.3122095E0,3.1189015E0,3.5296657E0,1.1540164E0,1.964885E0,1.0974109E0,2.4322548E0,1.265091E0,1.1671638E0],"tree_param":{"num_deleted":"0","num_feature":"11","num_nodes":"11","size_leaf_vector":"1"}},{"base_weights":[5.292223E-3,-3.842445E-2,3.7016906E-2,5.46427E-2,-1.7721637E-1,-4.519367E-2,6.8524644E-2,-6.549666E-2,-1.3502182E-2,2.238053E-2,-3.462789E-2],"categories":[],"categories_nodes":[],"categories_segments":[],"categories_sizes":[],"default_left":[0,0,0,0,0,0,0,0,0,0,0],"id":61,"left_children":[1,3,-1,5,7,9,-1,-1,-1,-1,-1],"loss_changes":[5.0705813E-2,1.0346397E-1,0E0,9.898153E-2,7.2922558E-3,4.294225E-2,0E0,0E0,0E0,0E0,0E0],"parents":[2147483647,0,0,1,1,3,3,4,4,5,5],"right_children":[2,4,-1,6,8,10,-1,-1,-1,-1,-1],"split_conditions":[4.4333334E0,1.1666666E0,3.7016906E-2,5.4545456E-1,3.0493333E3,5.17E2,6.8524644E-2,-6.549666E-2,-1.3502182E-2,2.238053E-2,-3.462789E-2],"split_indices":[5,6,0,6,0,0,0,0,0,0,0],"split_type":[0,0,0,0,0,0,0,0,0,0,0],"sum_hessian":[7.9029956E0,6.2602487E0,1.6427469E0,4.110347E0,2.149902E0,3.0804725E0,1.0298741E0,1.1431416E0,1.0067605E0,1.1155221E0,1.9649503E0],"tree_param":{"num_deleted":"0","num_feature":"11","num_nodes":"11","size_leaf_vector":"1"}},{"base_weights":[5.364995E-3,4.245229E-2,-3.583762E-2,-3.0371157E-2,9.487221E-2,1.7088947E-1,-2.306688E-2,7.1350946E-3,8.062658E-2,2.2132253E-2,-3.5458047E-2],"categories":[],"categories_nodes":[],"categories_segments":[],"categories_sizes":[],"default_left":[0,0,0,0,0,0,0,0,0,0,0],"id":62,"left_children":[1,3,-1,-1,5,7,9,-1,-1,-1,-1],"loss_changes":[4.6044484E-2,6.655671E-2,0E0,0E0,5.8239046E-2,4.8337996E-2,3.8702585E-2,0E0,0E0,0E0,0E0],"parents":[2147483647,0,0,1,1,4,4,5,5,6,6],"right_children":[2,4,-1,-1,6,8,10,-1,-1,-1,-1],"split_conditions":[1.2E1,1.433E2,-3.583762E-2,-3.0371157E-2,2.239E3,2E0,3.8761063E0,7.1350946E-3,8.062658E-2,2.2132253E-2,-3.5458047E-2],"split_indices":[3,1,0,0,0,3,6,0,0,0,0],"split_type":[0,0,0,0,0,0,0,0,0,0,0],"sum_hessian":[7.850696E0,6.5611625E0,1.2895334E0,1.5048656E0,5.056297E0,2.801582E0,2.254715E0,1.6158136E0,1.1857685E0,1.2285185E0,1.0261965E0],"tree_param":{"num_deleted":"0","num_feature":"11","num_nodes":"11","size_leaf_vector":"1"}},{"base_weights":[4.862723E-3,-3.8515035E-2,3.3292748E-2,-5.4748822E-2,3.2762658E-2,-2.2185367E-2,9.970964E-2,5.4584775E-2,-1.0199426E-2],"categories":[],"categories_nodes":[],"categories_segments":[],"categories_sizes":[],"default_left":[0,0,0,0,0,0,0,0,0],"id":63,"left_children":[1,3,-1,-1,5,-1,7,-1,-1],"loss_changes":[4.475661E-2,7.766591E-2,0E0,0E0,4.680975E-2,0E0,4.816758E-2,0E0,0E0],"parents":[2147483647,0,0,1,1,4,4,6,6],"right_children":[2,4,-1,-1,6,-1,8,-1,-1],"split_conditions":[8E0,2.2222222E-1,3.3292748E-2,-5.4748822E-2,4.4244446E2,-2.2185367E-2,1.6683604E3,5.4584775E-2,-1.0199426E-2],"split_indices":[3,10,0,0,0,0,0,0,0],"split_type":[0,0,0,0,0,0,0,0,0],"sum_hessian":[7.7948794E0,5.985228E0,1.8096514E0,1.4651897E0,4.520038E0,1.7021607E0,2.8178778E0,1.5213454E0,1.2965323E0],"tree_param":{"num_deleted":"0","num_feature":"11","num_nodes":"9","size_leaf_vector":"1"}},{"base_weights":[3.520583E-3,4.0338855E-2,-3.5418008E-2,-2.7662499E-2,4.513794E-2,2.5709618E-2,-1.180038E-1,-6.4888336E-2,3.692311E-3],"categories":[],"categories_nodes":[],"categories_segments":[],"categories_sizes":[],"default_left":[0,0,0,0,0,0,0,0,0],"id":64,"left_children":[1,3,-1,5,-1,-1,7,-1,-1],"loss_changes":[4.3937594E-2,6.0045164E-2,0E0,6.601281E-2,0E0,0E0,4.6957336E-2,0E0,0E0],"parents":[2147483647,0,0,1,1,3,3,6,6],"right_children":[2,4,-1,6,-1,-1,8,-1,-1],"split_conditions":[1.2E1,2.4E0,-3.5418008E-2,5.17E2,4.513794E-2,2.5709618E-2,1.2108182E3,-6.4888336E-2,3.692311E-3],"split_indices":[3,6,0,0,0,0,0,0,0],"split_type":[0,0,0,0,0,0,0,0,0],"sum_hessian":[7.7515163E0,6.4626455E0,1.2888708E0,4.4583473E0,2.0042982E0,2.0000513E0,2.458296E0,1.0251929E0,1.4331032E0],"tree_param":{"num_deleted":"0","num_feature":"11","num_nodes":"9","size_leaf_vector":"1"}},{"base_weights":[-4.8034856E-4,-4.092164E-2,3.305825E-2,4.1469578E-2,-1.6156921E-1,-4.699955E-2,5.9590336E-2,-6.1464157E-2,-1.2325386E-2,-3.4525882E-2,1.2093267E-2],"categories":[],"categories_nodes":[],"categories_segments":[],"categories_sizes":[],"default_left":[0,0,0,0,0,0,0,0,0,0,0],"id":65,"left_children":[1,3,-1,5,7,9,-1,-1,-1,-1,-1],"loss_changes":[4.3521978E-2,7.740432E-2,0E0,7.91669E-2,7.7102855E-3,2.8549284E-2,0E0,0E0,0E0,0E0,0E0],"parents":[2147483647,0,0,1,1,3,3,4,4,5,5],"right_children":[2,4,-1,6,8,10,-1,-1,-1,-1,-1],"split_conditions":[4.4333334E0,1.1666666E0,3.305825E-2,5.4545456E-1,2.406077E3,6.279537E2,5.9590336E-2,-6.1464157E-2,-1.2325386E-2,-3.4525882E-2,1.2093267E-2],"split_indices":[5,6,0,6,0,0,0,0,0,0,0],"split_type":[0,0,0,0,0,0,0,0,0,0,0],"sum_hessian":[7.7163134E0,6.1128755E0,1.6034378E0,4.022293E0,2.0905821E0,3.0220919E0,1.0002015E0,1.0225347E0,1.0680474E0,1.5192319E0,1.50286E0],"tree_param":{"num_deleted":"0","num_feature":"11","num_nodes":"11","size_leaf_vector":"1"}},{"base_weights":[-7.4802287E-4,3.504917E-2,-3.661096E-2,-8.1469364E-2,1.3839735E-1,2.0342711E-2,-4.7592763E-2,-5.003409E-3,8.176948E-2,6.4365985E-4,-2.8787265E-3],"categories":[],"categories_nodes":[],"categories_segments":[],"categories_sizes":[],"default_left":[0,0,0,0,0,0,0,0,0,0,0],"id":66,"left_children":[1,3,-1,5,7,-1,-1,9,-1,-1,-1],"loss_changes":[4.1908894E-2,1.0121733E-1,0E0,5.8454644E-2,8.4648125E-2,0E0,0E0,1.21520556E-4,0E0,0E0,0E0],"parents":[2147483647,0,0,1,1,3,3,4,4,7,7],"right_children":[2,4,-1,6,8,-1,-1,10,-1,-1,-1],"split_conditions":[2.7861538E1,6.454E2,-3.661096E-2,8.45E1,1.6666666E0,2.0342711E-2,-4.7592763E-2,1.2256774E3,8.176948E-2,6.4365985E-4,-2.8787265E-3],"split_indices":[6,1,0,0,6,0,0,0,0,0,0],"split_type":[0,0,0,0,0,0,0,0,0,0,0],"sum_hessian":[7.6673083E0,6.469053E0,1.1982553E0,3.1402829E0,3.32877E0,1.1115388E0,2.0287442E0,2.0743618E0,1.2544082E0,1.0197347E0,1.0546271E0],"tree_param":{"num_deleted":"0","num_feature":"11","num_nodes":"11","size_leaf_vector":"1"}},{"base_weights":[1.4282373E-3,3.7679337E-2,-3.646662E-2,1.1190999E-1,-7.470598E-2,-3.1419694E-2,2.358777E-1,2.8930599E-2,-6.190103E-2,8.835964E-2,1.5752265E-2],"categories":[],"categories_nodes":[],"categories_segments":[],"categories_sizes":[],"default_left":[0,0,0,0,0,0,0,0,0,0,0],"id":67,"left_children":[1,3,-1,5,7,-1,9,-1,-1,-1,-1],"loss_changes":[4.2935677E-2,7.0160925E-2,0E0,1.5527055E-1,9.978884E-2,0E0,2.1099925E-2,0E0,0E0,0E0,0E0],"parents":[2147483647,0,0,1,1,3,3,4,4,6,6],"right_children":[2,4,-1,6,8,-1,10,-1,-1,-1,-1],"split_conditions":[1.788E3,2.1495E4,-3.646662E-2,4.4244446E2,7.0527826E2,-3.1419694E-2,1.1666666E0,2.8930599E-2,-6.190103E-2,8.835964E-2,1.5752265E-2],"split_indices":[1,7,0,0,1,0,6,0,0,0,0],"split_type":[0,0,0,0,0,0,0,0,0,0,0],"sum_hessian":[7.6031938E0,6.407978E0,1.1952157E0,3.8616095E0,2.5463686E0,1.4619366E0,2.399673E0,1.223283E0,1.3230857E0,1.3588141E0,1.0408589E0],"tree_param":{"num_deleted":"0","num_feature":"11","num_nodes":"11","size_leaf_vector":"1"}},{"base_weights":[1.5096177E-3,-3.779917E-2,3.6874384E-2,3.0002829E-2,-5.092677E-2,-2.5869306E-2,9.1483586E-2,1.7431647E-1,-2.4494773E-2,-5.4309517E-3,8.389203E-2],"categories":[],"categories_nodes":[],"categories_segments":[],"categories_sizes":[],"default_left":[0,0,0,0,0,0,0,0,0,0,0],"id":68,"left_children":[1,3,-1,5,-1,-1,7,9,-1,-1,-1],"loss_changes":[4.5410246E-2,6.966691E-2,0E0,4.803213E-2,0E0,0E0,7.388214E-2,6.854297E-2,0E0,0E0,0E0],"parents":[2147483647,0,0,1,1,3,3,6,6,7,7],"right_children":[2,4,-1,6,-1,-1,8,10,-1,-1,-1],"split_conditions":[6.7975E4,2.1495E4,3.6874384E-2,4.4244446E2,-5.092677E-2,-2.5869306E-2,3.8752144E3,1.0535E3,-2.4494773E-2,-5.4309517E-3,8.389203E-2],"split_indices":[7,7,0,0,0,0,0,1,0,0,0],"split_type":[0,0,0,0,0,0,0,0,0,0,0],"sum_hessian":[7.541859E0,6.2174206E0,1.3244383E0,4.617492E0,1.5999284E0,1.4581618E0,3.1593306E0,2.1323175E0,1.027013E0,1.047224E0,1.0850935E0],"tree_param":{"num_deleted":"0","num_feature":"11","num_nodes":"11","size_leaf_vector":"1"}},{"base_weights":[2.8328157E-3,9.7644515E-2,-5.420706E-2,-2.0217238E-2,7.4560136E-2,-1.2576436E-1,2.371513E-2,-2.849153E-2,-6.2621415E-2,-5.1818874E-2,3.6634948E-2],"categories":[],"categories_nodes":[],"categories_segments":[],"categories_sizes":[],"default_left":[0,0,0,0,0,0,0,0,0,0,0],"id":69,"left_children":[1,3,5,-1,-1,7,-1,9,-1,-1,-1],"loss_changes":[5.1192258E-2,1.05027124E-1,6.660378E-2,0E0,0E0,2.8371759E-2,0E0,8.877145E-2,0E0,0E0,0E0],"parents":[2147483647,0,0,1,1,2,2,5,5,7,7],"right_children":[2,4,6,-1,-1,8,-1,10,-1,-1,-1],"split_conditions":[4.38E2,1.56E2,1.4728214E3,-2.0217238E-2,7.4560136E-2,6.1133E4,2.371513E-2,1.2547084E3,-6.2621415E-2,-5.1818874E-2,3.6634948E-2],"split_indices":[1,1,1,0,0,7,0,0,0,0,0],"split_type":[0,0,0,0,0,0,0,0,0,0,0],"sum_hessian":[7.4872108E0,2.5450175E0,4.942193E0,1.4798288E0,1.0651886E0,3.252096E0,1.690097E0,2.1154559E0,1.1366401E0,1.0055522E0,1.1099038E0],"tree_param":{"num_deleted":"0","num_feature":"11","num_nodes":"11","size_leaf_vector":"1"}},{"base_weights":[2.071559E-3,-5.0139587E-2,1.0125573E-1,3.4157127E-2,-1.11455426E-1,5.4747645E-2,-7.930857E-3,1.2291264E-2,-2.1519324E-1,-7.9111904E-2,-1.9369997E-2],"categories":[],"categories_nodes":[],"categories_segments":[],"categories_sizes":[],"default_left":[0,0,0,0,0,0,0,0,0,0,0],"id":70,"left_children":[1,3,5,-1,7,-1,-1,-1,9,-1,-1],"loss_changes":[4.870389E-2,7.491459E-2,3.8397845E-2,0E0,8.802699E-2,0E0,0E0,0E0,5.9235394E-3,0E0,0E0],"parents":[2147483647,0,0,1,1,2,2,4,4,8,8],"right_children":[2,4,6,-1,8,-1,-1,-1,10,-1,-1],"split_conditions":[4.402E4,8.4E1,2.9436E3,3.4157127E-2,8.888889E-1,5.4747645E-2,-7.930857E-3,1.2291264E-2,1.7401666E3,-7.9111904E-2,-1.9369997E-2],"split_indices":[7,1,0,0,6,0,0,0,0,0,0],"split_type":[0,0,0,0,0,0,0,0,0,0,0],"sum_hessian":[7.4246035E0,5.188058E0,2.2365453E0,1.1786691E0,4.009389E0,1.1046301E0,1.1319152E0,1.8686934E0,2.1406956E0,1.0513523E0,1.0893433E0],"tree_param":{"num_deleted":"0","num_feature":"11","num_nodes":"11","size_leaf_vector":"1"}},{"base_weights":[8.1070175E-4,-3.9268952E-2,3.2607272E-2,4.8134208E-2,-1.1321304E-1,-1.7968675E-2,4.813155E-2,1.2868673E-2,-8.106379E-2],"categories":[],"categories_nodes":[],"categories_segments":[],"categories_sizes":[],"default_left":[0,0,0,0,0,0,0,0,0],"id":71,"left_children":[1,3,-1,5,7,-1,-1,-1,-1],"loss_changes":[4.0557835E-2,4.9747E-2,0E0,5.6231722E-2,1.09902404E-1,0E0,0E0,0E0,0E0],"parents":[2147483647,0,0,1,1,3,3,4,4],"right_children":[2,4,-1,6,8,-1,-1,-1,-1],"split_conditions":[4.4333334E0,8.127895E2,3.2607272E-2,4.4244446E2,1.3007097E3,-1.7968675E-2,4.813155E-2,1.2868673E-2,-8.106379E-2],"split_indices":[5,0,0,0,1,0,0,0,0],"split_type":[0,0,0,0,0,0,0,0,0],"sum_hessian":[7.392999E0,5.8540845E0,1.5389148E0,2.8428426E0,3.0112422E0,1.6868571E0,1.1559855E0,1.874329E0,1.1369131E0],"tree_param":{"num_deleted":"0","num_feature":"11","num_nodes":"9","size_leaf_vector":"1"}},{"base_weights":[-1.10167435E-4,3.520475E-2,-3.427521E-2,-6.6973865E-2,1.2108906E-1,1.6594673E-2,-3.9692324E-2,-8.987638E-3,1.7933115E-1,8.1840135E-2,-1.013055E-3],"categories":[],"categories_nodes":[],"categories_segments":[],"categories_sizes":[],"default_left":[0,0,0,0,0,0,0,0,0,0,0],"id":72,"left_children":[1,3,-1,5,7,-1,-1,-1,9,-1,-1],"loss_changes":[3.7699874E-2,7.081286E-2,0E0,3.8533725E-2,4.2658046E-2,0E0,0E0,0E0,5.560314E-2,0E0,0E0],"parents":[2147483647,0,0,1,1,3,3,4,4,8,8],"right_children":[2,4,-1,6,8,-1,-1,-1,10,-1,-1],"split_conditions":[1.2E1,5.833333E-1,-3.427521E-2,5.17E2,3.0244446E2,1.6594673E-2,-3.9692324E-2,-8.987638E-3,7.5114503E0,8.1840135E-2,-1.013055E-3],"split_indices":[3,6,0,0,1,0,0,0,6,0,0],"split_type":[0,0,0,0,0,0,0,0,0,0,0],"sum_hessian":[7.35496E0,6.1452084E0,1.2097518E0,2.9069388E0,3.2382693E0,1.0656452E0,1.8412936E0,1.0362985E0,2.2019708E0,1.1305245E0,1.0714462E0],"tree_param":{"num_deleted":"0","num_feature":"11","num_nodes":"11","size_leaf_vector":"1"}},{"base_weights":[1.8156117E-3,-3.9308887E-2,3.0853154E-2,-4.9275897E-2,2.458994E-2,8.5845105E-2,-2.3076165E-2,-9.829014E-3,5.026675E-2],"categories":[],"categories_nodes":[],"categories_segments":[],"categories_sizes":[],"default_left":[0,0,0,0,0,0,0,0,0],"id":73,"left_children":[1,3,-1,-1,5,7,-1,-1,-1],"loss_changes":[3.8563907E-2,5.696041E-2,0E0,0E0,3.9282028E-2,4.1835237E-2,0E0,0E0,0E0],"parents":[2147483647,0,0,1,1,4,4,5,5],"right_children":[2,4,-1,-1,6,8,-1,-1,-1],"split_conditions":[8E0,2.2222222E-1,3.0853154E-2,-4.9275897E-2,9.61485E2,2.2771428E2,-2.3076165E-2,-9.829014E-3,5.026675E-2],"split_indices":[3,10,0,0,1,0,0,0,0],"split_type":[0,0,0,0,0,0,0,0,0],"sum_hessian":[7.308888E0,5.628618E0,1.6802702E0,1.3731408E0,4.255477E0,2.7502172E0,1.5052595E0,1.3661675E0,1.3840498E0],"tree_param":{"num_deleted":"0","num_feature":"11","num_nodes":"9","size_leaf_vector":"1"}},{"base_weights":[1.1645486E-3,3.6516722E-2,-3.372645E-2,-3.2928552E-2,1.23492844E-1,3.6173034E-2,-1.1561171E-1,6.706642E-2,-1.0754893E-2,-6.913253E-2,2.4588717E-2],"categories":[],"categories_nodes":[],"categories_segments":[],"categories_sizes":[],"default_left":[0,0,0,0,0,0,0,0,0,0,0],"id":74,"left_children":[1,3,-1,5,7,-1,9,-1,-1,-1,-1],"loss_changes":[3.732606E-2,4.673487E-2,0E0,7.381546E-2,6.1375473E-2,0E0,1.000295E-1,0E0,0E0,0E0,0E0],"parents":[2147483647,0,0,1,1,3,3,4,4,6,6],"right_children":[2,4,-1,6,8,-1,10,-1,-1,-1,-1],"split_conditions":[1.2E1,2.316E3,-3.372645E-2,8.4E1,6.1133E4,3.6173034E-2,1.2108182E3,6.706642E-2,-1.0754893E-2,-6.913253E-2,2.4588717E-2],"split_indices":[3,7,0,1,7,0,0,0,0,0,0],"split_type":[0,0,0,0,0,0,0,0,0,0,0],"sum_hessian":[7.2731123E0,6.0642147E0,1.2088975E0,3.7174547E0,2.3467603E0,1.1409416E0,2.576513E0,1.1939906E0,1.1527697E0,1.5242581E0,1.0522549E0],"tree_param":{"num_deleted":"0","num_feature":"11","num_nodes":"11","size_leaf_vector":"1"}},{"base_weights":[2.5920302E-3,-3.5844944E-2,3.588417E-2,6.080693E-2,-1.4494684E-1,-2.6820488E-2,4.6130795E-2,-7.225917E-2,7.776089E-3,2.7991999E-2,-4.1308798E-2],"categories":[],"categories_nodes":[],"categories_segments":[],"categories_sizes":[],"default_left":[0,0,0,0,0,0,0,0,0,0,0],"id":75,"left_children":[1,3,-1,5,7,9,-1,-1,-1,-1,-1],"loss_changes":[4.124984E-2,8.21557E-2,0E0,3.9905667E-2,6.46327E-2,5.4305334E-2,0E0,0E0,0E0,0E0,0E0],"parents":[2147483647,0,0,1,1,3,3,4,4,5,5],"right_children":[2,4,-1,6,8,10,-1,-1,-1,-1,-1],"split_conditions":[6.7975E4,1.1666666E0,3.588417E-2,6.279537E2,6.896552E-1,8.45E1,4.6130795E-2,-7.225917E-2,7.776089E-3,2.7991999E-2,-4.1308798E-2],"split_indices":[7,6,0,0,4,0,0,0,0,0,0],"split_type":[0,0,0,0,0,0,0,0,0,0,0],"sum_hessian":[7.217554E0,5.9552007E0,1.2623534E0,3.3924954E0,2.5627055E0,2.1126127E0,1.2798824E0,1.3789626E0,1.1837429E0,1.0900561E0,1.0225568E0],"tree_param":{"num_deleted":"0","num_feature":"11","num_nodes":"11","size_leaf_vector":"1"}},{"base_weights":[2.2642475E-3,7.607131E-2,-5.175992E-2,-1.735576E-2,6.070258E-2,-1.2337992E-1,3.3074547E-2,-1.3305269E-2,-6.884378E-2,1.5626414E-2,-2.2559509E-2],"categories":[],"categories_nodes":[],"categories_segments":[],"categories_sizes":[],"default_left":[0,0,0,0,0,0,0,0,0,0,0],"id":76,"left_children":[1,3,5,-1,-1,7,-1,9,-1,-1,-1],"loss_changes":[3.6451757E-2,7.6830626E-2,7.513608E-2,0E0,0E0,4.5406885E-2,0E0,1.6456146E-2,0E0,0E0,0E0],"parents":[2147483647,0,0,1,1,2,2,5,5,7,7],"right_children":[2,4,6,-1,-1,8,-1,10,-1,-1,-1],"split_conditions":[8.127895E2,4.4244446E2,6.7975E4,-1.735576E-2,6.070258E-2,2.4991E4,3.3074547E-2,3.7978E3,-6.884378E-2,1.5626414E-2,-2.2559509E-2],"split_indices":[0,0,7,0,0,7,0,0,0,0,0],"split_type":[0,0,0,0,0,0,0,0,0,0,0],"sum_hessian":[7.154336E0,2.8511024E0,4.3032336E0,1.6465707E0,1.2045317E0,3.1493964E0,1.153837E0,2.0980947E0,1.0513018E0,1.0972311E0,1.0008634E0],"tree_param":{"num_deleted":"0","num_feature":"11","num_nodes":"11","size_leaf_vector":"1"}},{"base_weights":[1.661647E-3,-3.903564E-2,3.030627E-2,3.6357347E-2,-4.2214222E-2,-5.8488514E-2,4.48468E-2,-4.0516056E-2,1.4388578E-2],"categories":[],"categories_nodes":[],"categories_segments":[],"categories_sizes":[],"default_left":[0,0,0,0,0,0,0,0,0],"id":77,"left_children":[1,3,-1,5,-1,7,-1,-1,-1],"loss_changes":[3.671009E-2,5.471325E-2,0E0,5.7134453E-2,0E0,3.2330066E-2,0E0,0E0,0E0],"parents":[2147483647,0,0,1,1,3,3,5,5],"right_children":[2,4,-1,6,-1,8,-1,-1,-1],"split_conditions":[8E0,1.882421E3,3.030627E-2,5.833333E-1,-4.2214222E-2,6.454E2,4.48468E-2,-4.0516056E-2,1.4388578E-2],"split_indices":[3,0,0,6,0,1,0,0,0],"split_type":[0,0,0,0,0,0,0,0,0],"sum_hessian":[7.1032376E0,5.4699054E0,1.6333325E0,3.5098405E0,1.9600648E0,2.1719558E0,1.3378848E0,1.1070244E0,1.0649313E0],"tree_param":{"num_deleted":"0","num_feature":"11","num_nodes":"9","size_leaf_vector":"1"}},{"base_weights":[2.012604E-3,-3.6649484E-2,4.0011946E-2,-6.693608E-2,1.2237069E-1,2.6027111E-2,-4.9657498E-2,7.6980084E-2,-7.8825466E-4,2.7605087E-2,-2.705339E-2],"categories":[],"categories_nodes":[],"categories_segments":[],"categories_sizes":[],"default_left":[0,0,0,0,0,0,0,0,0,0,0],"id":78,"left_children":[1,-1,3,5,7,-1,-1,-1,9,-1,-1],"loss_changes":[4.297223E-2,0E0,6.9258966E-2,6.98595E-2,7.079936E-2,0E0,0E0,0E0,3.5043627E-2,0E0,0E0],"parents":[2147483647,0,0,2,2,3,3,4,4,8,8],"right_children":[2,-1,4,6,8,-1,-1,-1,10,-1,-1],"split_conditions":[1.0869565E-2,-3.6649484E-2,5.749091E2,8.45E1,1.0198516E3,2.6027111E-2,-4.9657498E-2,7.6980084E-2,8.333333E-1,2.7605087E-2,-2.705339E-2],"split_indices":[10,0,1,0,1,0,0,0,10,0,0],"split_type":[0,0,0,0,0,0,0,0,0,0,0],"sum_hessian":[7.070964E0,1.1378093E0,5.9331546E0,2.6627142E0,3.2704403E0,1.0874574E0,1.5752568E0,1.046444E0,2.2239964E0,1.0767323E0,1.147264E0],"tree_param":{"num_deleted":"0","num_feature":"11","num_nodes":"11","size_leaf_vector":"1"}},{"base_weights":[3.6474005E-3,-3.8205046E-2,3.1597037E-2,7.818464E-2,-1.271681E-1,-1.718511E-2,5.9738073E-2,-1.172743E-2,-5.753899E-2],"categories":[],"categories_nodes":[],"categories_segments":[],"categories_sizes":[],"default_left":[0,0,0,0,0,0,0,0,0],"id":79,"left_children":[1,3,-1,5,7,-1,-1,-1,-1],"loss_changes":[3.8114343E-2,7.6303E-2,0E0,6.704205E-2,1.534646E-2,0E0,0E0,0E0,0E0],"parents":[2147483647,0,0,1,1,3,3,4,4],"right_children":[2,4,-1,6,8,-1,-1,-1,-1],"split_conditions":[1.4728214E3,4.38E2,3.1597037E-2,1.04583336E2,6.1133E4,-1.718511E-2,5.9738073E-2,-1.172743E-2,-5.753899E-2],"split_indices":[1,1,0,1,7,0,0,0,0],"split_type":[0,0,0,0,0,0,0,0,0],"sum_hessian":[7.0111213E0,5.40892E0,1.6022016E0,2.3957431E0,3.0131764E0,1.3782783E0,1.0174649E0,1.9544659E0,1.0587106E0],"tree_param":{"num_deleted":"0","num_feature":"11","num_nodes":"9","size_leaf_vector":"1"}},{"base_weights":[3.1970607E-3,3.950126E-2,-3.4015495E-2,-4.9482606E-2,1.126018E-1,1.842606E-2,-3.408529E-2,-7.1285E-3,1.6597205E-1,7.655762E-2,-2.1802795E-3],"categories":[],"categories_nodes":[],"categories_segments":[],"categories_sizes":[],"default_left":[0,0,0,0,0,0,0,0,0,0,0],"id":80,"left_children":[1,3,-1,5,7,-1,-1,-1,9,-1,-1],"loss_changes":[3.820947E-2,4.9926333E-2,0E0,3.3793457E-2,3.3409737E-2,0E0,0E0,0E0,4.876694E-2,0E0,0E0],"parents":[2147483647,0,0,1,1,3,3,4,4,8,8],"right_children":[2,4,-1,6,8,-1,-1,-1,10,-1,-1],"split_conditions":[1.2E1,5.833333E-1,-3.4015495E-2,5.17E2,3.2907965E2,1.842606E-2,-3.408529E-2,-7.1285E-3,7.5114503E0,7.655762E-2,-2.1802795E-3],"split_indices":[3,6,0,0,1,0,0,0,6,0,0],"split_type":[0,0,0,0,0,0,0,0,0,0,0],"sum_hessian":[6.969587E0,5.818767E0,1.1508197E0,2.7699947E0,3.0487723E0,1.0304543E0,1.7395405E0,1.0136435E0,2.0351288E0,1.0310636E0,1.0040653E0],"tree_param":{"num_deleted":"0","num_feature":"11","num_nodes":"11","size_leaf_vector":"1"}},{"base_weights":[4.5901327E-3,-3.6724642E-2,3.3492494E-2,3.7547387E-2,-4.3610435E-2,9.690433E-2,-1.8312696E-2,-1.0636419E-2,5.6855537E-2],"categories":[],"categories_nodes":[],"categories_segments":[],"categories_sizes":[],"default_left":[0,0,0,0,0,0,0,0,0],"id":81,"left_children":[1,3,-1,5,-1,7,-1,-1,-1],"loss_changes":[3.9170977E-2,5.7697505E-2,0E0,3.3068188E-2,0E0,4.695989E-2,0E0,0E0,0E0],"parents":[2147483647,0,0,1,1,3,3,5,5],"right_children":[2,4,-1,6,-1,8,-1,-1,-1],"split_conditions":[4.4333334E0,1.1666666E0,3.3492494E-2,1.0198516E3,-4.3610435E-2,1.433E2,-1.8312696E-2,-1.0636419E-2,5.6855537E-2],"split_indices":[5,6,0,1,0,1,0,0,0],"split_type":[0,0,0,0,0,0,0,0,0],"sum_hessian":[6.9295707E0,5.473938E0,1.4556324E0,3.6399524E0,1.8339857E0,2.282715E0,1.3572373E0,1.1937915E0,1.0889236E0],"tree_param":{"num_deleted":"0","num_feature":"11","num_nodes":"9","size_leaf_vector":"1"}},{"base_weights":[5.5204267E-3,-3.217555E-2,3.974698E-2,-6.4146966E-2,1.1913557E-1,2.8089765E-2,-5.338842E-2,-7.493764E-3,5.8673874E-2],"categories":[],"categories_nodes":[],"categories_segments":[],"categories_sizes":[],"default_left":[0,0,0,0,0,0,0,0,0],"id":82,"left_children":[1,-1,3,5,7,-1,-1,-1,-1],"loss_changes":[3.4734093E-2,0E0,6.3612856E-2,8.111896E-2,5.1118452E-2,0E0,0E0,0E0,0E0],"parents":[2147483647,0,0,2,2,3,3,4,4],"right_children":[2,-1,4,6,8,-1,-1,-1,-1],"split_conditions":[1.0869565E-2,-3.217555E-2,5.749091E2,8.4E1,1.2108182E3,2.8089765E-2,-5.338842E-2,-7.493764E-3,5.8673874E-2],"split_indices":[10,0,1,1,0,0,0,0,0],"split_type":[0,0,0,0,0,0,0,0,0],"sum_hessian":[6.8944793E0,1.1085057E0,5.7859735E0,