{"learner":{"attributes":{"scikit_learn":"{\"_estimator_type\": \"classifier\"}"},"feature_names":["average_followers","average_follows","repost_total","post_total","repost_percentage","average_repost","average_favorite","news_lifetime","nb_users_10_hours","average_time_difference","retweet_percentage_1_hour"],"feature_types":["float","float","int","int","float","float","float","int","int","float","float"],"gradient_booster":{"model":{"gbtree_model_param":{"num_parallel_tree":"1","num_trees":"100"},"iteration_indptr":[0,1,2,3,4,5,6,7,8,9,10,11,12,13,14,15,16,17,18,19,20,21,22,23,24,25,26,27,28,29,30,31,32,33,34,35,36,37,38,39,40,41,42,43,44,45,46,47,48,49,50,51,52,53,54,55,56,57,58,59,60,61,62,63,64,65,66,67,68,69,70,71,72,73,74,75,76,77,78,79,80,81,82,83,84,85,86,87,88,89,90,91,92,93,94,95,96,97,98,99,100],"tree_info":[0,0,0,0,0,0,0,0,0,0,0,0,0,0,0,0,0,0,0,0,0,0,0,0,0,0,0,0,0,0,0,0,0,0,0,0,0,0,0,0,0,0,0,0,0,0,0,0,0,0,0,0,0,0,0,0,0,0,0,0,0,0,0,0,0,0,0,0,0,0,0,0,0,0,0,0,0,0,0,0,0,0,0,0,0,0,0,0,0,0,0,0,0,0,0,0,0,0,0,0],"trees":[{"base_weights":[1.3246293E-4,-6.08503E-1,8.706406E-1,-8.23448E-1,-8.3380744E-2,1.4105755E0,-1.4249031E-1,-2.8337884E-1,-5.8900523E-1,1.0747912E0,-7.762704E-1,1.6130533E0,-2.2389308E-1,1.068476E0,-6.3045466E-1,3.2246733E-1,-4.9529934E-1,4.5317933E-1,2.1923369E-2,-1.072764E0,-1.904103E-1,5.3653187E-1,9.364527E-1,4.045056E-1,4.7270577E-2,3.0730814E-1,-1.1714624E0,-2.559468E-2,3.396517E-1,-1.5425181E-2,-8.856606E-1,-3.7012842E-1,-4.0093133E-1,1.8085754E-1,-5.891963E-1,-2.1087937E-2,3.6335552E-1,-3.7012842E-1,3.396517E-1,-7.703311E-2,-1.4048957E0,1.720824E-1,-3.818276E-1,-2.2788587E-1,1.2998708E-1,-3.3218637E-1,-6.227854E-2,-3.5349026E-1,1.8085754E-1,-2.6158106E-1,-2.1087937E-2,4.7270577E-2,-2.1990333E-1,-8.631637E-2,-4.952632E-1],"categories":[],"categories_nodes":[],"categories_segments":[],"categories_sizes":[],"default_left":[0,0,0,0,0,0,0,0,0,0,0,0,0,0,0,0,0,0,0,0,0,0,0,0,0,0,0,0,0,0,0,0,0,0,0,0,0,0,0,0,0,0,0,0,0,0,0,0,0,0,0,0,0,0,0],"id":0,"left_children":[1,3,5,7,9,11,13,15,-1,17,19,21,-1,23,25,27,29,-1,-1,31,33,-1,35,-1,-1,37,39,41,-1,43,45,47,-1,-1,49,-1,-1,51,-1,-1,53,-1,-1,-1,-1,-1,-1,-1,-1,-1,-1,-1,-1,-1,-1],"loss_changes":[5.2936745E1,6.5684395E0,2.269052E1,2.5060299E1,1.5432383E1,1.295652E1,9.656204E0,3.9347546E0,0E0,3.0452938E0,1.8736501E0,1.282135E0,0E0,9.95245E-1,6.1761703E0,2.347073E0,4.140701E0,0E0,0E0,9.368887E-1,2.011416E0,0E0,2.084476E0,0E0,0E0,3.205377E0,1.235898E0,5.7596827E0,0E0,3.9909708E0,1.605258E0,3.4558246E0,0E0,0E0,5.2406454E-1,0E0,0E0,7.840859E-1,0E0,0E0,1.1006727E0,0E0,0E0,0E0,0E0,0E0,0E0,0E0,0E0,0E0,0E0,0E0,0E0,0E0,0E0],"parents":[2147483647,0,0,1,1,2,2,3,3,4,4,5,5,6,6,7,7,9,9,10,10,11,11,13,13,14,14,15,15,16,16,19,19,20,20,22,22,25,25,26,26,27,27,29,29,30,30,31,31,34,34,37,37,40,40],"right_children":[2,4,6,8,10,12,14,16,-1,18,20,22,-1,24,26,28,30,-1,-1,32,34,-1,36,-1,-1,38,40,42,-1,44,46,48,-1,-1,50,-1,-1,52,-1,-1,54,-1,-1,-1,-1,-1,-1,-1,-1,-1,-1,-1,-1,-1,-1],"split_conditions":[9.6E1,1.1E1,9.247E4,8E0,7.2314E4,5E-1,1.1425E3,1.9298245E-1,-5.8900523E-1,2E0,2.30579E3,4.5E1,-2.2389308E-1,5.754758E2,2.22E2,7E0,6.04E2,4.5317933E-1,2.1923369E-2,9.393333E2,3.3741E3,5.3653187E-1,1.043771E3,4.045056E-1,4.7270577E-2,3.0289018E0,9.9E1,6.3091E4,3.396517E-1,1.225E2,1.08275E3,7.5917755E2,-4.0093133E-1,1.8085754E-1,6.36732E3,-2.1087937E-2,3.6335552E-1,5.6E1,3.396517E-1,-7.703311E-2,2.72066E5,1.720824E-1,-3.818276E-1,-2.2788587E-1,1.2998708E-1,-3.3218637E-1,-6.227854E-2,-3.5349026E-1,1.8085754E-1,-2.6158106E-1,-2.1087937E-2,4.7270577E-2,-2.1990333E-1,-8.631637E-2,-4.952632E-1],"split_indices":[3,3,7,3,7,10,0,10,0,8,0,8,0,1,2,3,0,0,0,0,0,0,0,0,0,5,3,7,0,0,1,0,0,0,0,0,0,2,0,0,7,0,0,0,0,0,0,0,0,0,0,0,0,0,0],"split_type":[0,0,0,0,0,0,0,0,0,0,0,0,0,0,0,0,0,0,0,0,0,0,0,0,0,0,0,0,0,0,0,0,0,0,0,0,0,0,0,0,0,0,0,0,0,0,0,0,0,0,0,0,0,0,0],"sum_hessian":[9.791425E1,5.78018E1,4.0112457E1,4.061075E1,1.7191051E1,2.5911152E1,1.4201304E1,2.8402609E1,1.2208138E1,6.228642E0,1.096241E1,2.3917986E1,1.9931655E0,3.7371852E0,1.0464119E1,7.225225E0,2.1177383E1,3.986331E0,2.2423112E0,6.7269335E0,4.2354765E0,1.7689344E1,6.228642E0,2.491457E0,1.2457285E0,3.986331E0,6.477788E0,5.730351E0,1.4948741E0,9.965828E0,1.12115555E1,2.491457E0,4.2354765E0,1.2457285E0,2.9897482E0,1.4948741E0,4.733768E0,2.491457E0,1.4948741E0,1.7440197E0,4.733768E0,4.2354765E0,1.4948741E0,3.4880395E0,6.477788E0,7.972662E0,3.238894E0,1.2457285E0,1.2457285E0,1.4948741E0,1.4948741E0,1.2457285E0,1.2457285E0,1.2457285E0,3.4880395E0],"tree_param":{"num_deleted":"0","num_feature":"11","num_nodes":"55","size_leaf_vector":"1"}},{"base_weights":[-1.130261E-3,-5.6227183E-1,5.787805E-1,-2.1205355E-1,-1.0247041E0,1.1684968E0,-2.4890752E-1,-2.9350287E-1,2.1113457E-1,-4.484494E-1,-2.727906E-1,1.327857E0,-1.7899126E-1,4.0519178E-2,-4.1571295E-1,-1.0183348E-1,-8.733336E-1,5.0076646E-1,-9.056731E-1,4.3955785E-1,7.7196485E-1,3.3425695E-1,-1.2984115E-1,-2.596897E-1,8.089501E-1,-3.2613263E-1,-4.9065936E-2,3.2762444E-1,-1.4539458E-1,-6.6355034E-3,-3.6900496E-1,-1.7283488E-2,2.995474E-1,1.4199276E-1,-3.7531003E-1,-2.0663878E-1,2.973808E-2,3.0537975E-1,7.123182E-2,1.1072734E-1,-1.9092618E-1],"categories":[],"categories_nodes":[],"categories_segments":[],"categories_sizes":[],"default_left":[0,0,0,0,0,0,0,0,0,0,0,0,0,0,0,0,0,0,0,0,0,0,0,0,0,0,0,0,0,0,0,0,0,0,0,0,0,0,0,0,0],"id":1,"left_children":[1,3,5,7,9,11,13,15,-1,-1,17,19,-1,21,-1,23,25,27,29,-1,31,-1,33,35,37,-1,-1,-1,-1,-1,-1,-1,-1,39,-1,-1,-1,-1,-1,-1,-1],"loss_changes":[3.1334055E1,7.708023E0,2.3404503E1,2.3778222E0,6.9549847E0,8.620029E0,6.8097296E0,2.9601977E0,0E0,0E0,4.9752445E0,8.411598E-1,0E0,3.3149621E0,0E0,3.3374147E0,8.3640957E-1,3.326239E0,1.5306163E0,0E0,1.4164739E0,0E0,5.009754E0,3.039261E0,1.7108893E-1,0E0,0E0,0E0,0E0,0E0,0E0,0E0,0E0,2.6494448E0,0E0,0E0,0E0,0E0,0E0,0E0,0E0],"parents":[2147483647,0,0,1,1,2,2,3,3,4,4,5,5,6,6,7,7,10,10,11,11,13,13,15,15,16,16,17,17,18,18,20,20,22,22,23,23,24,24,33,33],"right_children":[2,4,6,8,10,12,14,16,-1,-1,18,20,-1,22,-1,24,26,28,30,-1,32,-1,34,36,38,-1,-1,-1,-1,-1,-1,-1,-1,40,-1,-1,-1,-1,-1,-1,-1],"split_conditions":[3.2E1,8E0,9.247E4,7E0,1.1E1,5E-1,9.815498E-1,6.7993E4,2.1113457E-1,-4.484494E-1,7.2314E4,4.5E1,-1.7899126E-1,6.510417E-4,-4.1571295E-1,4E0,3.9944024E7,2E0,1.7E1,4.3955785E-1,1.043771E3,3.3425695E-1,1.696252E1,4.3341666E2,2.1587969E3,-3.2613263E-1,-4.9065936E-2,3.2762444E-1,-1.4539458E-1,-6.6355034E-3,-3.6900496E-1,-1.7283488E-2,2.995474E-1,1.4705882E-2,-3.7531003E-1,-2.0663878E-1,2.973808E-2,3.0537975E-1,7.123182E-2,1.1072734E-1,-1.9092618E-1],"split_indices":[3,3,7,3,3,10,4,7,0,0,7,8,0,10,0,3,7,8,3,0,0,0,5,1,0,0,0,0,0,0,0,0,0,10,0,0,0,0,0,0,0],"split_type":[0,0,0,0,0,0,0,0,0,0,0,0,0,0,0,0,0,0,0,0,0,0,0,0,0,0,0,0,0,0,0,0,0,0,0,0,0,0,0,0,0],"sum_hessian":[9.429035E1,4.7936127E1,4.635423E1,2.8107649E1,1.9828476E1,2.682793E1,1.9526297E1,2.6436096E1,1.6715546E0,1.1592396E1,8.23608E0,2.4833628E1,1.9943031E0,1.6332457E1,3.1938412E0,2.0751942E1,5.684154E0,3.800083E0,4.435997E0,1.8602133E1,6.2314954E0,1.477916E0,1.485454E1,1.8295801E1,2.45614E0,3.9598846E0,1.7242696E0,2.307302E0,1.4927808E0,1.4779793E0,2.9580178E0,1.4965521E0,4.7349434E0,1.2658768E1,2.195772E0,7.9130316E0,1.038277E1,1.226518E0,1.2296221E0,1.0206819E1,2.4519491E0],"tree_param":{"num_deleted":"0","num_feature":"11","num_nodes":"41","size_leaf_vector":"1"}},{"base_weights":[-4.369735E-3,-4.166721E-1,4.7936398E-1,-2.660252E-1,-1.0883727E0,9.6660674E-1,-1.6029498E-1,-1.3410285E-1,-8.753901E-1,-1.27223E0,1.8458592E-2,1.1200458E0,-1.4516906E-1,5.280482E-1,-4.4489127E-1,8.44905E-2,-7.0449984E-1,-3.7469116E-1,1.7529494E-1,-4.0908307E-1,-1.1870869E-1,3.719712E-1,5.524243E-1,-9.6246846E-2,8.676423E-1,2.60344E-1,-7.467434E-1,-5.31931E-2,3.001337E-1,-9.362265E-1,-7.140893E-2,9.4213414E-1,-1.5327477E-1,2.3423702E-2,3.3836496E-1,-1.4444168E-1,2.5190732E-1,-2.8869766E-1,-1.046894E0,5.812657E-2,-3.2961887E-1,-3.2213E-1,-3.934729E-2,1.1910002E-1,-1.6876312E-1,6.7268565E-2,3.2769185E-1,1.9026431E-1,-2.360963E-1,1.9915592E-2,-2.5279915E-1,-6.484122E-2,-3.6866203E-1],"categories":[],"categories_nodes":[],"categories_segments":[],"categories_sizes":[],"default_left":[0,0,0,0,0,0,0,0,0,0,0,0,0,0,0,0,0,0,0,0,0,0,0,0,0,0,0,0,0,0,0,0,0,0,0,0,0,0,0,0,0,0,0,0,0,0,0,0,0,0,0,0,0],"id":2,"left_children":[1,3,5,7,9,11,13,15,17,19,-1,21,-1,23,25,27,29,-1,-1,-1,-1,-1,31,-1,33,35,37,39,-1,41,43,45,-1,-1,-1,47,-1,49,51,-1,-1,-1,-1,-1,-1,-1,-1,-1,-1,-1,-1,-1,-1],"loss_changes":[1.794043E1,4.623804E0,1.3056405E1,3.177286E0,1.8904457E0,5.8031673E0,3.9091744E0,4.4074697E0,4.6085367E0,5.603695E-2,0E0,7.899761E-1,0E0,1.9917141E0,3.134709E0,3.345127E0,1.3662062E0,0E0,0E0,0E0,0E0,0E0,2.7950003E0,0E0,8.3969855E-1,1.2660283E0,1.0630794E0,6.316987E0,0E0,6.418438E-1,1.0745211E0,2.3346758E-1,0E0,0E0,0E0,2.3637426E0,0E0,1.1008567E0,5.838318E-1,0E0,0E0,0E0,0E0,0E0,0E0,0E0,0E0,0E0,0E0,0E0,0E0,0E0,0E0],"parents":[2147483647,0,0,1,1,2,2,3,3,4,4,5,5,6,6,7,7,8,8,9,9,11,11,13,13,14,14,15,15,16,16,22,22,24,24,25,25,26,26,27,27,29,29,30,30,31,31,35,35,37,37,38,38],"right_children":[2,4,6,8,10,12,14,16,18,20,-1,22,-1,24,26,28,30,-1,-1,-1,-1,-1,32,-1,34,36,38,40,-1,42,44,46,-1,-1,-1,48,-1,50,52,-1,-1,-1,-1,-1,-1,-1,-1,-1,-1,-1,-1,-1,-1],"split_conditions":[4.7E1,2E0,9.247E4,1.625562E3,3.8752144E3,5E-1,1.1425E3,8.6197E4,2.212245E1,9.376205E0,1.8458592E-2,4.8473097E-2,-1.4516906E-1,9.6E1,1.56E2,1.1E1,2.2409122E8,-3.7469116E-1,1.7529494E-1,-4.0908307E-1,-1.1870869E-1,3.719712E-1,2.04E2,-9.6246846E-2,2.69587E5,9.4E1,9.9E1,8E0,3.001337E-1,2.6617646E0,8E0,9.174312E-2,-1.5327477E-1,2.3423702E-2,3.3836496E-1,4.1E1,2.5190732E-1,5.878E3,2.72066E5,5.812657E-2,-3.2961887E-1,-3.2213E-1,-3.934729E-2,1.1910002E-1,-1.6876312E-1,6.7268565E-2,3.2769185E-1,1.9026431E-1,-2.360963E-1,1.9915592E-2,-2.5279915E-1,-6.484122E-2,-3.6866203E-1],"split_indices":[3,8,7,1,0,10,0,7,6,5,0,10,0,3,2,3,7,0,0,0,0,0,2,0,7,2,3,3,0,5,2,10,0,0,0,2,0,2,7,0,0,0,0,0,0,0,0,0,0,0,0,0,0],"split_type":[0,0,0,0,0,0,0,0,0,0,0,0,0,0,0,0,0,0,0,0,0,0,0,0,0,0,0,0,0,0,0,0,0,0,0,0,0,0,0,0,0,0,0,0,0,0,0,0,0,0,0,0,0],"sum_hessian":[8.795049E1,4.7555763E1,4.039473E1,3.9984264E1,7.5714993E0,2.2638979E1,1.7755753E1,3.3871452E1,6.1128125E0,6.4360585E0,1.1354411E0,2.067928E1,1.9596988E0,4.9435444E0,1.2812209E1,2.5103071E1,8.768381E0,4.982116E0,1.1306964E0,5.325213E0,1.1108456E0,1.609607E1,4.5832095E0,1.4283715E0,3.515173E0,3.8813918E0,8.930817E0,2.2641584E1,2.4614885E0,6.0683856E0,2.6999953E0,3.4374022E0,1.1458075E0,1.1936623E0,2.3215108E0,2.7268457E0,1.154546E0,4.3121257E0,4.6186914E0,1.89746E1,3.6669831E0,4.8978643E0,1.1705213E0,1.4800746E0,1.2199208E0,1.0259478E0,2.4114542E0,1.2387086E0,1.488137E0,3.1641335E0,1.1479924E0,1.2230468E0,3.3956444E0],"tree_param":{"num_deleted":"0","num_feature":"11","num_nodes":"53","size_leaf_vector":"1"}},{"base_weights":[-1.0303121E-2,-2.9565495E-1,4.586247E-1,-2.1310458E-1,-8.95E-1,6.9236714E-1,-2.5385565E-1,-7.401362E-2,-5.421397E-1,-3.2211068E-1,-1.1634388E-2,1.1031111E0,1.916858E-1,2.5099024E-1,-5.9152955E-1,-2.2703195E-1,5.888042E-1,-8.2690364E-1,-1.2962845E-1,3.5608232E-1,3.041327E-2,7.3152477E-1,-2.5604138E-2,-6.1245963E-2,-3.1147966E-1,6.5561675E-2,-3.3428738E-1,-9.941497E-2,8.149463E-1,-3.1596932E-1,-3.280558E-1,3.2697064E-1,-6.730974E-1,7.175853E-2,2.6268697E-1,2.0275329E-1,-2.7154973E-1,1.0856221E-1,-1.9191296E-1,-2.4703424E-1,5.391159E-2,3.8194686E-2,2.883292E-1,-2.693677E-1,1.0788085E-1,-6.9754E-2,2.563404E-1,-3.766614E-2,-2.6312345E-1,-2.3740432E-1,1.2888642E-1],"categories":[],"categories_nodes":[],"categories_segments":[],"categories_sizes":[],"default_left":[0,0,0,0,0,0,0,0,0,0,0,0,0,0,0,0,0,0,0,0,0,0,0,0,0,0,0,0,0,0,0,0,0,0,0,0,0,0,0,0,0,0,0,0,0,0,0,0,0,0,0],"id":3,"left_children":[1,3,5,7,9,11,13,15,17,-1,-1,19,21,-1,23,25,27,29,31,-1,-1,33,35,37,-1,39,-1,-1,41,43,-1,45,47,-1,-1,-1,49,-1,-1,-1,-1,-1,-1,-1,-1,-1,-1,-1,-1,-1,-1],"loss_changes":[1.1164373E1,2.3745432E0,5.4338164E0,2.1055753E0,8.7094593E-1,4.7327967E0,3.6362898E0,3.593434E0,1.5106196E0,0E0,0E0,9.7107506E-1,1.4316313E0,0E0,1.6183305E0,7.4551487E0,1.6593606E0,7.3906994E-1,1.9100797E0,0E0,0E0,3.819549E-2,1.8318304E0,1.2861701E0,0E0,2.4137383E0,0E0,0E0,4.452846E-1,1.9490399E0,0E0,1.4895782E0,2.7368355E-1,0E0,0E0,0E0,3.1782393E0,0E0,0E0,0E0,0E0,0E0,0E0,0E0,0E0,0E0,0E0,0E0,0E0,0E0,0E0],"parents":[2147483647,0,0,1,1,2,2,3,3,4,4,5,5,6,6,7,7,8,8,11,11,12,12,14,14,15,15,16,16,17,17,18,18,21,21,22,22,23,23,25,25,28,28,29,29,31,31,32,32,36,36],"right_children":[2,4,6,8,10,12,14,16,18,-1,-1,20,22,-1,24,26,28,30,32,-1,-1,34,36,38,-1,40,-1,-1,42,44,-1,46,48,-1,-1,-1,50,-1,-1,-1,-1,-1,-1,-1,-1,-1,-1,-1,-1,-1,-1],"split_conditions":[9.6E1,1.9619686E3,6.31688E5,8.6197E4,1.772436E1,2.1E1,1.1425E3,1.1E1,7.732394E0,-3.2211068E-1,-1.1634388E-2,1.7379358E3,3.75E-1,2.5099024E-1,9.9E1,8E0,3.7445456E2,9.393333E2,8.5030866E-1,3.5608232E-1,3.041327E-2,8.333333E-1,1E2,3E0,-3.1147966E-1,8.666667E0,-3.3428738E-1,-9.941497E-2,2.1E1,2.27E2,-3.280558E-1,7.562908E2,3.9537988E7,7.175853E-2,2.6268697E-1,2.0275329E-1,1.8543726E3,1.0856221E-1,-1.9191296E-1,-2.4703424E-1,5.391159E-2,3.8194686E-2,2.883292E-1,-2.693677E-1,1.0788085E-1,-6.9754E-2,2.563404E-1,-3.766614E-2,-2.6312345E-1,-2.3740432E-1,1.2888642E-1],"split_indices":[3,1,7,7,6,8,0,3,6,0,0,1,5,0,3,3,1,0,4,0,0,6,3,8,0,1,0,0,3,1,0,1,7,0,0,0,0,0,0,0,0,0,0,0,0,0,0,0,0,0,0],"split_type":[0,0,0,0,0,0,0,0,0,0,0,0,0,0,0,0,0,0,0,0,0,0,0,0,0,0,0,0,0,0,0,0,0,0,0,0,0,0,0,0,0,0,0,0,0,0,0,0,0,0,0],"sum_hessian":[8.1421555E1,5.0848656E1,3.0572903E1,4.5884365E1,4.9642887E0,2.3041828E1,7.5310726E0,3.3112057E1,1.2772308E1,3.8969483E0,1.0673404E0,1.1996796E1,1.1045033E1,1.4312689E0,6.0998034E0,2.7435715E1,5.676343E0,6.9618554E0,5.8104534E0,1.0899766E1,1.0970304E0,2.4906454E0,8.554388E0,3.3090265E0,2.7907772E0,2.132833E1,6.1073866E0,1.0279934E0,4.64835E0,3.1364214E0,3.825434E0,3.3740697E0,2.4363835E0,1.1661829E0,1.3244625E0,1.7669685E0,6.7874193E0,2.1273725E0,1.1816537E0,1.7197669E0,1.9608562E1,1.1427785E0,3.5055714E0,1.5082037E0,1.6282177E0,1.9087696E0,1.4653001E0,1.0997779E0,1.3366057E0,3.8239837E0,2.9634356E0],"tree_param":{"num_deleted":"0","num_feature":"11","num_nodes":"51","size_leaf_vector":"1"}},{"base_weights":[-1.3877802E-2,-2.4943726E-1,3.926203E-1,-1.442687E-1,-6.5892345E-1,7.0189124E-1,-4.3796577E-2,-6.19554E-2,-5.77667E-1,-8.925214E-1,1.1706761E-1,8.7445897E-1,-1.2563454E-1,4.3160984E-1,-4.748299E-1,-1.4629489E-1,7.325946E-1,-8.930982E-1,1.5585074E-1,-1.058438E0,-3.1789746E-2,3.1764454E-1,4.203791E-1,1.6709689E-2,2.3904772E-1,1.03928685E-1,-6.7007685E-1,1.0116427E-3,-4.6932775E-1,3.1026328E-1,6.0915253E-3,-9.975034E-1,-7.330515E-2,-9.491253E-2,-3.4221488E-1,2.8402176E-1,-6.891594E-2,1.352768E-1,-1.8281792E-1,-3.8681654E-3,-2.821003E-1,-4.587306E-2,2.7087608E-1,-1.8389532E-1,1.09152645E-1,-3.4876275E-1,-8.315529E-2,-2.436165E-1,1.5646182E-1],"categories":[],"categories_nodes":[],"categories_segments":[],"categories_sizes":[],"default_left":[0,0,0,0,0,0,0,0,0,0,0,0,0,0,0,0,0,0,0,0,0,0,0,0,0,0,0,0,0,0,0,0,0,0,0,0,0,0,0,0,0,0,0,0,0,0,0,0,0],"id":4,"left_children":[1,3,5,7,9,11,13,15,17,19,-1,21,-1,23,25,27,29,31,-1,33,-1,-1,35,37,-1,-1,39,41,43,-1,-1,45,-1,-1,-1,-1,47,-1,-1,-1,-1,-1,-1,-1,-1,-1,-1,-1,-1],"loss_changes":[7.4404063E0,2.0219784E0,3.8802633E0,1.4052397E0,2.741538E0,3.6056824E0,2.8217752E0,2.4570627E0,2.6536841E0,9.698553E-1,0E0,7.971411E-1,0E0,9.862262E-1,1.3824517E0,1.5486574E0,7.377019E-1,1.14029884E-1,0E0,5.035162E-2,0E0,0E0,1.5959717E0,1.3920234E0,0E0,0E0,1.0778127E0,3.37866E0,1.4429033E0,0E0,0E0,1.8008375E-1,0E0,0E0,0E0,0E0,2.1841025E0,0E0,0E0,0E0,0E0,0E0,0E0,0E0,0E0,0E0,0E0,0E0,0E0],"parents":[2147483647,0,0,1,1,2,2,3,3,4,4,5,5,6,6,7,7,8,8,9,9,11,11,13,13,14,14,15,15,16,16,17,17,19,19,22,22,23,23,26,26,27,27,28,28,31,31,36,36],"right_children":[2,4,6,8,10,12,14,16,18,20,-1,22,-1,24,26,28,30,32,-1,34,-1,-1,36,38,-1,-1,40,42,44,-1,-1,46,-1,-1,-1,-1,48,-1,-1,-1,-1,-1,-1,-1,-1,-1,-1,-1,-1],"split_conditions":[9.6E1,2E0,9.247E4,1.625562E3,1.1E1,5E-1,2.83E2,1.3893606E3,2.212245E1,9.2E1,1.1706761E-1,4.5E1,-1.2563454E-1,3.0289018E0,6.008421E2,8.6197E4,5E0,6.167478E3,1.5585074E-1,5E-1,-3.1789746E-2,3.1764454E-1,2.4E0,6E1,2.3904772E-1,1.03928685E-1,7.89327E5,1.1E1,4.19623E8,3.1026328E-1,6.0915253E-3,7E0,-7.330515E-2,-9.491253E-2,-3.4221488E-1,2.8402176E-1,1.6165603E3,1.352768E-1,-1.8281792E-1,-3.8681654E-3,-2.821003E-1,-4.587306E-2,2.7087608E-1,-1.8389532E-1,1.09152645E-1,-3.4876275E-1,-8.315529E-2,-2.436165E-1,1.5646182E-1],"split_indices":[3,8,7,1,8,10,2,1,6,3,0,8,0,5,1,7,3,0,0,6,0,0,6,2,0,0,7,3,7,0,0,3,0,0,0,0,0,0,0,0,0,0,0,0,0,0,0,0,0],"split_type":[0,0,0,0,0,0,0,0,0,0,0,0,0,0,0,0,0,0,0,0,0,0,0,0,0,0,0,0,0,0,0,0,0,0,0,0,0,0,0,0,0,0,0,0,0,0,0,0,0],"sum_hessian":[7.568021E1,4.815911E1,2.7521097E1,3.939388E1,8.765234E0,1.5750821E1,1.1770275E1,3.40667E1,5.3271756E0,7.2911215E0,1.4741125E0,1.3839446E1,1.9113758E0,5.596406E0,6.1738696E0,3.1535196E1,2.5315046E0,4.282092E0,1.0450836E0,5.73559E0,1.5555315E0,8.8959255E0,4.9435205E0,3.1095653E0,2.4868405E0,1.0371284E0,5.136741E0,2.2343283E1,9.191914E0,1.4609276E0,1.070577E0,3.225429E0,1.0566628E0,1.056077E0,4.679513E0,1.9311633E0,3.0123572E0,2.0013733E0,1.1081921E0,1.8021576E0,3.3345835E0,1.979541E1,2.5478725E0,8.065517E0,1.1263965E0,2.1246939E0,1.1007354E0,1.1675684E0,1.8447888E0],"tree_param":{"num_deleted":"0","num_feature":"11","num_nodes":"49","size_leaf_vector":"1"}},{"base_weights":[-5.5040256E-3,-1.8696497E-1,3.547022E-1,-1.1754191E-1,-5.855258E-1,6.083537E-1,9.073415E-4,-2.6662648E-1,1.3508457E-1,-2.8405207E-1,8.0461636E-2,9.442597E-1,3.0053623E-2,6.032958E-1,-2.8057712E-1,-4.8430856E-2,-3.0211017E-1,5.022405E-1,-1.20016366E-1,5.248524E-2,3.0590752E-1,3.489869E-1,-2.2575192E-1,-2.7436225E-3,2.550219E-1,1.3429138E-1,-4.614565E-1,-3.8004878E-1,3.28229E-1,1.4056876E-2,2.8514707E-1,5.118888E-1,-5.0337017E-1,2.3296674E-1,-1.1348442E-1,5.5611704E-2,-6.068971E-1,-2.9533075E-2,-2.7787113E-1,3.8309745E-2,2.570546E-1,2.0131236E-1,-1.8502414E-1,-2.8880926E-2,2.5046763E-1,-2.1901661E-1,2.3058984E-2,-1.00885265E-1,4.8975695E-2,-1.2378552E-2,-2.8571057E-1],"categories":[],"categories_nodes":[],"categories_segments":[],"categories_sizes":[],"default_left":[0,0,0,0,0,0,0,0,0,0,0,0,0,0,0,0,0,0,0,0,0,0,0,0,0,0,0,0,0,0,0,0,0,0,0,0,0,0,0,0,0,0,0,0,0,0,0,0,0,0,0],"id":5,"left_children":[1,3,5,7,9,11,13,15,17,-1,-1,19,21,23,25,27,-1,29,31,-1,-1,33,-1,-1,-1,-1,35,37,39,41,-1,43,45,-1,47,-1,49,-1,-1,-1,-1,-1,-1,-1,-1,-1,-1,-1,-1,-1,-1],"loss_changes":[4.743756E0,1.266007E0,2.1817837E0,1.6305414E0,2.384004E0,2.7226915E0,2.060929E0,4.3068705E0,1.5940813E0,0E0,0E0,3.3956814E-1,1.8191428E0,5.92716E-1,1.2979627E0,2.857047E0,0E0,1.4979501E0,2.7938588E0,0E0,0E0,1.0993409E0,0E0,0E0,0E0,0E0,7.8322005E-1,1.769344E0,1.0331322E0,2.2045836E0,0E0,9.543326E-1,9.795302E-1,0E0,2.6016575E-1,0E0,1.1438694E0,0E0,0E0,0E0,0E0,0E0,0E0,0E0,0E0,0E0,0E0,0E0,0E0,0E0,0E0],"parents":[2147483647,0,0,1,1,2,2,3,3,4,4,5,5,6,6,7,7,8,8,11,11,12,12,13,13,14,14,15,15,17,17,18,18,21,21,26,26,27,27,28,28,29,29,31,31,32,32,34,34,36,36],"right_children":[2,4,6,8,10,12,14,16,18,-1,-1,20,22,24,26,28,-1,30,32,-1,-1,34,-1,-1,-1,-1,36,38,40,42,-1,44,46,-1,48,-1,50,-1,-1,-1,-1,-1,-1,-1,-1,-1,-1,-1,-1,-1,-1],"split_conditions":[9.7E1,1.6408242E3,9.247E4,7.8789856E2,6.490975E3,4.8473097E-2,1.1425E3,5.555556E-1,8E0,-2.8405207E-1,8.0461636E-2,3.335E2,1.5026364E3,2.69587E5,6E1,7.542373E-1,-3.0211017E-1,1.08275E3,1.0118571E3,5.248524E-2,3.0590752E-1,3.75E-1,-2.2575192E-1,-2.7436225E-3,2.550219E-1,1.3429138E-1,9.8E1,1.8181819E-1,3.3383644E7,1.9298245E-1,2.8514707E-1,2.9E1,1.1193916E1,2.3296674E-1,6.8026587E2,5.5611704E-2,6.31688E5,-2.9533075E-2,-2.7787113E-1,3.8309745E-2,2.570546E-1,2.0131236E-1,-1.8502414E-1,-2.8880926E-2,2.5046763E-1,-2.1901661E-1,2.3058984E-2,-1.00885265E-1,4.8975695E-2,-1.2378552E-2,-2.8571057E-1],"split_indices":[3,1,7,1,0,10,0,4,3,0,0,1,1,7,2,6,0,1,1,0,0,5,0,0,0,0,3,6,7,10,0,3,5,0,1,0,7,0,0,0,0,0,0,0,0,0,0,0,0,0,0],"split_type":[0,0,0,0,0,0,0,0,0,0,0,0,0,0,0,0,0,0,0,0,0,0,0,0,0,0,0,0,0,0,0,0,0,0,0,0,0,0,0,0,0,0,0,0,0,0,0,0,0,0,0],"sum_hessian":[7.0560555E1,4.7242283E1,2.3318274E1,4.133695E1,5.905334E0,1.3162195E1,1.0156079E1,2.5960966E1,1.5375981E1,4.072653E0,1.8326812E0,7.9257164E0,5.236479E0,2.870285E0,7.2857943E0,2.0874678E1,5.086289E0,5.9063835E0,9.469598E0,1.0041372E0,6.9215794E0,4.1138988E0,1.1225798E0,1.1009456E0,1.7693394E0,1.1561961E0,6.129598E0,1.1096302E1,9.778376E0,3.3209424E0,2.5854409E0,3.4490426E0,6.020555E0,1.7847236E0,2.3291752E0,1.0748373E0,5.054761E0,8.100211E0,2.996091E0,7.9892535E0,1.7891222E0,1.5954692E0,1.7254732E0,1.4399061E0,2.0091364E0,4.1435475E0,1.8770077E0,1.1711273E0,1.1580478E0,2.3411183E0,2.7136424E0],"tree_param":{"num_deleted":"0","num_feature":"11","num_nodes":"51","size_leaf_vector":"1"}},{"base_weights":[4.50472E-4,-2.2168016E-1,2.0028274E-1,-1.9778728E-2,-2.9753473E-1,5.453765E-1,-1.3724503E-1,2.736905E-1,-1.777413E-1,7.0725805E-1,-1.3858342E-1,6.29392E-3,-2.6446894E-1,7.2690123E-1,-8.014132E-2,-6.5229267E-1,7.7558674E-2,7.906676E-1,1.9197586E-1,2.512931E-1,-1.1404365E-1,2.8347597E-1,3.972015E-3,-1.9259031E-1,2.3263428E-1,-8.966657E-1,6.938587E-2,6.7433923E-1,-1.9906631E-1,2.8022248E-1,2.876902E-1,-6.2493365E-2,1.5060797E-1,4.643617E-2,-2.742781E-1,-9.822383E-2,2.0967735E-1,-3.531654E-1,-5.784292E-2,5.3635582E-2,2.6208344E-1,-2.5819522E-1,2.677277E-2,-6.80293E-2,1.7157242E-1,-2.1658143E-1,5.095427E-2],"categories":[],"categories_nodes":[],"categories_segments":[],"categories_sizes":[],"default_left":[0,0,0,0,0,0,0,0,0,0,0,0,0,0,0,0,0,0,0,0,0,0,0,0,0,0,0,0,0,0,0,0,0,0,0,0,0,0,0,0,0,0,0,0,0,0,0],"id":6,"left_children":[1,3,5,7,-1,9,11,13,15,17,-1,19,-1,21,23,25,27,29,31,-1,33,-1,-1,-1,35,37,-1,39,41,-1,43,-1,-1,45,-1,-1,-1,-1,-1,-1,-1,-1,-1,-1,-1,-1,-1],"loss_changes":[3.0287607E0,5.0047693E0,4.25852E0,1.2827873E0,0E0,3.255546E0,2.0308816E0,1.6152438E0,2.220821E0,5.302625E-1,0E0,1.7847573E0,0E0,6.652701E-1,1.2657554E0,1.5832968E0,2.2045462E0,6.933327E-1,5.42877E-1,0E0,2.0496645E0,0E0,0E0,0E0,1.4862857E0,7.9921055E-1,0E0,2.5854957E-1,1.858521E0,0E0,7.73656E-1,0E0,0E0,1.4474275E0,0E0,0E0,0E0,0E0,0E0,0E0,0E0,0E0,0E0,0E0,0E0,0E0,0E0],"parents":[2147483647,0,0,1,1,2,2,3,3,5,5,6,6,7,7,8,8,9,9,11,11,13,13,14,14,15,15,16,16,17,17,18,18,20,20,24,24,25,25,27,27,28,28,30,30,33,33],"right_children":[2,4,6,8,-1,10,12,14,16,18,-1,20,-1,22,24,26,28,30,32,-1,34,-1,-1,-1,36,38,-1,40,42,-1,44,-1,-1,46,-1,-1,-1,-1,-1,-1,-1,-1,-1,-1,-1,-1,-1],"split_conditions":[1.1E1,8E0,9.247E4,3.125E-1,-2.9753473E-1,5E-1,9.815498E-1,1.7E0,6.993007E-1,7.6342E4,-1.3858342E-1,6.510417E-4,-2.6446894E-1,8.1581E4,7.562908E2,2.2E0,2.18E2,5.5E1,8.0127E4,2.512931E-1,1.696252E1,2.8347597E-1,3.972015E-3,-1.9259031E-1,2.212245E1,7.0561E4,6.938587E-2,7.75E1,4.7E1,2.8022248E-1,6.8026587E2,-6.2493365E-2,1.5060797E-1,1.75E0,-2.742781E-1,-9.822383E-2,2.0967735E-1,-3.531654E-1,-5.784292E-2,5.3635582E-2,2.6208344E-1,-2.5819522E-1,2.677277E-2,-6.80293E-2,1.7157242E-1,-2.1658143E-1,5.095427E-2],"split_indices":[3,3,7,10,0,10,4,6,10,7,0,10,0,7,1,6,0,8,7,0,5,0,0,0,6,7,0,0,1,0,1,0,0,6,0,0,0,0,0,0,0,0,0,0,0,0,0],"split_type":[0,0,0,0,0,0,0,0,0,0,0,0,0,0,0,0,0,0,0,0,0,0,0,0,0,0,0,0,0,0,0,0,0,0,0,0,0,0,0,0,0,0,0,0,0,0,0],"sum_hessian":[6.6232216E1,3.1314331E1,3.4917885E1,2.5622452E1,5.6918793E0,1.6960947E1,1.795694E1,8.709312E0,1.691314E1,1.4869264E1,2.0916824E0,1.58851E1,2.0718384E0,3.356158E0,5.353154E0,5.372233E0,1.1540906E1,1.2337705E1,2.5315595E0,1.2548959E0,1.4630205E1,2.32258E0,1.0335778E0,1.538007E0,3.8151472E0,4.196726E0,1.1755072E0,3.199875E0,8.341031E0,8.933517E0,3.404187E0,1.2482107E0,1.2833488E0,1.2970917E1,1.6592879E0,1.8686286E0,1.9465184E0,2.5198169E0,1.6769089E0,1.4618098E0,1.7380655E0,1.9291129E0,6.411918E0,1.28336E0,2.120827E0,1.1238489E0,1.1847068E1],"tree_param":{"num_deleted":"0","num_feature":"11","num_nodes":"47","size_leaf_vector":"1"}},{"base_weights":[-7.646639E-3,-1.3417363E-1,2.6456776E-1,1.4329161E-1,-2.2496882E-1,3.904889E-1,-2.633675E-1,-4.7753885E-2,6.2381107E-1,-2.9533464E-1,2.2593966E-1,6.149226E-1,8.157506E-2,-2.3553865E-1,2.432487E-1,-2.5716752E-1,2.4271576E-1,2.6892713E-1,1.3990672E-2,-2.1626826E-1,-2.7109802E-1,2.098887E-1,-1.2744671E-1,-2.7576843E-2,7.137151E-1,-2.1415307E-1,3.4727204E-1,2.4822392E-4,1.1047557E-1,1.0549362E-1,-2.4694908E-1,-4.1331849E-1,2.3556061E-2,2.8677633E-1,3.5778403E-1,2.425243E-1,4.6580184E-2,-7.833685E-2,1.442442E-1,-7.4639566E-2,-2.696169E-1,1.1276334E-1,-6.143486E-2,2.2964774E-1,-8.274179E-2,1.23778544E-1,-5.6060966E-2],"categories":[],"categories_nodes":[],"categories_segments":[],"categories_sizes":[],"default_left":[0,0,0,0,0,0,0,0,0,0,0,0,0,0,0,0,0,0,0,0,0,0,0,0,0,0,0,0,0,0,0,0,0,0,0,0,0,0,0,0,0,0,0,0,0,0,0],"id":7,"left_children":[1,3,5,7,9,11,13,15,17,19,21,23,25,-1,27,29,-1,-1,-1,31,-1,-1,-1,-1,33,-1,35,-1,-1,37,-1,39,41,-1,43,-1,45,-1,-1,-1,-1,-1,-1,-1,-1,-1,-1],"loss_changes":[2.1969209E0,1.1282377E0,1.4489943E0,1.0705508E0,1.1190978E0,1.1113074E0,1.3796613E0,1.8302363E0,4.7684824E-1,1.2053797E0,1.8520261E0,7.3250175E-1,1.9814129E0,0E0,9.1970176E-2,1.7338774E0,0E0,0E0,0E0,1.2898805E0,0E0,0E0,0E0,0E0,3.901682E-1,0E0,9.082053E-1,0E0,0E0,9.204362E-1,0E0,9.682436E-1,1.1360273E0,0E0,1.5123682E0,0E0,5.2058E-1,0E0,0E0,0E0,0E0,0E0,0E0,0E0,0E0,0E0,0E0],"parents":[2147483647,0,0,1,1,2,2,3,3,4,4,5,5,6,6,7,7,8,8,9,9,10,10,11,11,12,12,14,14,15,15,19,19,24,24,26,26,29,29,31,31,32,32,34,34,36,36],"right_children":[2,4,6,8,10,12,14,16,18,20,22,24,26,-1,28,30,-1,-1,-1,32,-1,-1,-1,-1,34,-1,36,-1,-1,38,-1,40,42,-1,44,-1,46,-1,-1,-1,-1,-1,-1,-1,-1,-1,-1],"split_conditions":[9.7E1,5.364545E2,1.5040686E3,4.3341666E2,1.148654E1,9.247E4,1.8280154E3,4.0425E2,3.1922223E2,9.5566505E-1,4.1626E5,7.762238E-1,1.71673E5,-2.3553865E-1,1.6E1,1.4316667E2,2.4271576E-1,2.6892713E-1,1.3990672E-2,3.101852E0,-2.7109802E-1,2.098887E-1,-1.2744671E-1,-2.7576843E-2,2.8127E4,-2.1415307E-1,5.718801E2,2.4822392E-4,1.1047557E-1,2.7E1,-2.4694908E-1,2.9078013E-1,6.863395E2,2.8677633E-1,4.2E1,2.425243E-1,6.31688E5,-7.833685E-2,1.442442E-1,-7.4639566E-2,-2.696169E-1,1.1276334E-1,-6.143486E-2,2.2964774E-1,-8.274179E-2,1.23778544E-1,-5.6060966E-2],"split_indices":[3,0,1,1,5,7,1,0,0,4,7,6,7,0,8,1,0,0,0,6,0,0,0,0,7,0,1,0,0,1,0,4,1,0,8,0,7,0,0,0,0,0,0,0,0,0,0],"split_type":[0,0,0,0,0,0,0,0,0,0,0,0,0,0,0,0,0,0,0,0,0,0,0,0,0,0,0,0,0,0,0,0,0,0,0,0,0,0,0,0,0,0,0,0,0,0,0],"sum_hessian":[6.175458E1,4.250506E1,1.9249521E1,1.0337136E1,3.2167923E1,1.5752613E1,3.4969077E0,8.040862E0,2.296275E0,2.8124086E1,4.0438366E0,8.550132E0,7.2024813E0,1.4518769E0,2.0450308E0,7.023973E0,1.0168889E0,1.1839485E0,1.1123265E0,2.6088745E1,2.03534E0,2.2968612E0,1.7469757E0,1.0569988E0,7.493133E0,1.3811228E0,5.8213587E0,1.038216E0,1.0068148E0,4.7768364E0,2.2471366E0,1.3924413E1,1.2164332E1,3.4558105E0,4.0373225E0,1.6312115E0,4.190147E0,2.5703557E0,2.2064805E0,1.1529303E1,2.3951101E0,4.5294127E0,7.6349196E0,2.329884E0,1.7074381E0,1.3329303E0,2.8572168E0],"tree_param":{"num_deleted":"0","num_feature":"11","num_nodes":"47","size_leaf_vector":"1"}},{"base_weights":[-2.7606217E-4,-1.2550947E-1,1.8923871E-1,-3.8899366E-2,-6.3498497E-1,4.8910096E-1,-6.812706E-2,9.347281E-2,-3.2135308E-1,-2.518758E-1,2.9150732E-2,2.694488E-1,5.938665E-2,5.2101564E-2,-2.0567931E-1,2.1756023E-1,-4.5428395E-1,-6.111078E-1,1.698253E-1,1.531632E-1,-2.0715371E-1,3.604914E-1,-3.4472552E-1,6.33676E-1,-2.2405626E-2,-2.386168E-1,-7.649005E-2,-7.3780894E-1,-2.3535467E-3,-1.4113936E-1,5.2848864E-1,-2.2752818E-1,1.6548447E-1,6.916928E-1,-1.00137524E-1,8.428281E-2,-6.738572E-1,2.6608568E-1,-5.4158267E-2,5.8140516E-2,-1.7848966E-1,4.738224E-2,-7.923526E-2,-2.5970322E-1,-8.094552E-2,4.3876953E-2,2.055752E-1,-1.137504E-1,2.0438825E-1,2.3901252E-1,5.9037328E-2,8.561689E-2,-1.5350904E-1,-2.2338832E-2,-2.7872163E-1],"categories":[],"categories_nodes":[],"categories_segments":[],"categories_sizes":[],"default_left":[0,0,0,0,0,0,0,0,0,0,0,0,0,0,0,0,0,0,0,0,0,0,0,0,0,0,0,0,0,0,0,0,0,0,0,0,0,0,0,0,0,0,0,0,0,0,0,0,0,0,0,0,0,0,0],"id":8,"left_children":[1,3,5,7,9,11,13,15,17,-1,-1,-1,19,21,-1,23,25,27,29,-1,31,33,35,37,39,-1,41,43,-1,-1,45,-1,47,49,51,-1,53,-1,-1,-1,-1,-1,-1,-1,-1,-1,-1,-1,-1,-1,-1,-1,-1,-1,-1],"loss_changes":[1.4466033E0,1.5946548E0,1.9049773E0,1.2426263E0,8.70574E-1,1.9371262E0,1.0697542E0,1.6524386E0,1.60874E0,0E0,0E0,0E0,8.9860547E-1,1.6647578E0,0E0,1.9425511E0,5.249272E-1,5.1918817E-1,1.3293643E0,0E0,1.1230488E0,1.224474E0,1.4281495E0,1.6237676E0,1.7511184E0,0E0,1.8524712E-1,1.054523E-1,0E0,0E0,1.08736455E-1,0E0,1.3029375E0,7.872105E-2,7.871677E-1,0E0,5.788754E-1,0E0,0E0,0E0,0E0,0E0,0E0,0E0,0E0,0E0,0E0,0E0,0E0,0E0,0E0,0E0,0E0,0E0,0E0],"parents":[2147483647,0,0,1,1,2,2,3,3,4,4,5,5,6,6,7,7,8,8,12,12,13,13,15,15,16,16,17,17,18,18,20,20,21,21,22,22,23,23,24,24,26,26,27,27,30,30,32,32,33,33,34,34,36,36],"right_children":[2,4,6,8,10,12,14,16,18,-1,-1,-1,20,22,-1,24,26,28,30,-1,32,34,36,38,40,-1,42,44,-1,-1,46,-1,48,50,52,-1,54,-1,-1,-1,-1,-1,-1,-1,-1,-1,-1,-1,-1,-1,-1,-1,-1,-1,-1],"split_conditions":[4.7E1,2E0,9.247E4,3.2028538E3,3.3368E3,4.5E1,5.878E3,1.3584906E0,7.152778E-1,-2.518758E-1,2.9150732E-2,2.694488E-1,3.75E-1,6.535948E-3,-2.0567931E-1,3.125E-1,7.562908E2,1.2708E4,4.6948357E-3,1.531632E-1,2.023E3,9.905E2,4.1E1,4.552827E7,2E0,-2.386168E-1,1.1920322E3,4.0625E0,-2.3535467E-3,-1.4113936E-1,2.6654E4,-2.2752818E-1,1.5254828E3,1.6750682E7,9.9E1,8.428281E-2,2.34498E5,2.6608568E-1,-5.4158267E-2,5.8140516E-2,-1.7848966E-1,4.738224E-2,-7.923526E-2,-2.5970322E-1,-8.094552E-2,4.3876953E-2,2.055752E-1,-1.137504E-1,2.0438825E-1,2.3901252E-1,5.9037328E-2,8.561689E-2,-1.5350904E-1,-2.2338832E-2,-2.7872163E-1],"split_indices":[3,8,7,0,0,8,2,5,4,0,0,0,5,10,0,10,1,0,10,0,7,1,2,7,3,0,1,6,0,0,7,0,0,7,3,0,7,0,0,0,0,0,0,0,0,0,0,0,0,0,0,0,0,0,0],"split_type":[0,0,0,0,0,0,0,0,0,0,0,0,0,0,0,0,0,0,0,0,0,0,0,0,0,0,0,0,0,0,0,0,0,0,0,0,0,0,0,0,0,0,0,0,0,0,0,0,0,0,0,0,0,0,0],"sum_hessian":[5.8950996E1,3.5698666E1,2.325233E1,3.1431677E1,4.2669888E0,1.0323635E1,1.2928696E1,2.1857302E1,9.574374E0,3.220331E0,1.0466578E0,4.7304235E0,5.5932117E0,1.1588E1,1.3406957E0,1.8311808E1,3.5454943E0,5.8683596E0,3.7060149E0,1.7372401E0,3.8559718E0,6.572117E0,5.015883E0,6.0975623E0,1.2214246E1,1.2823365E0,2.2631578E0,4.665459E0,1.2029008E0,1.2186862E0,2.4873285E0,1.1376555E0,2.7183163E0,3.5313663E0,3.0407505E0,1.7795091E0,3.236374E0,4.58267E0,1.514892E0,9.346415E0,2.8678312E0,1.0764326E0,1.1867254E0,2.9968565E0,1.6686025E0,1.2856117E0,1.2017169E0,1.4510424E0,1.2672739E0,2.41012E0,1.1212463E0,1.7283177E0,1.3124328E0,1.3522534E0,1.8841205E0],"tree_param":{"num_deleted":"0","num_feature":"11","num_nodes":"55","size_leaf_vector":"1"}},{"base_weights":[-9.22494E-3,4.932422E-2,-3.5106277E-1,1.639063E-4,6.219199E-1,-5.922025E-1,1.0072975E-1,-3.0363637E-1,1.18913084E-1,2.6115435E-1,-1.2593062E-2,-4.9608587E-3,-8.0161846E-1,3.7121102E-2,-6.886591E-1,6.06024E-1,-3.1785097E-2,-2.9468724E-1,-9.0924874E-2,-2.566063E-1,1.9135363E-1,5.5829985E-3,-2.956144E-1,1.714681E-1,8.4197336E-1,9.4811745E-2,-4.3053147E-1,-1.7360856E-1,1.4113881E-2,1.5462084E-1,-1.21246286E-1,7.700018E-2,2.7861974E-1,9.788882E-2,-5.9819266E-2,7.010863E-2,-2.0931031E-1],"categories":[],"categories_nodes":[],"categories_segments":[],"categories_sizes":[],"default_left":[0,0,0,0,0,0,0,0,0,0,0,0,0,0,0,0,0,0,0,0,0,0,0,0,0,0,0,0,0,0,0,0,0,0,0,0,0],"id":9,"left_children":[1,3,5,7,9,11,-1,13,15,-1,-1,-1,17,19,21,23,25,-1,-1,27,-1,-1,-1,29,31,33,35,-1,-1,-1,-1,-1,-1,-1,-1,-1,-1],"loss_changes":[1.1493814E0,1.3839365E0,1.5891435E0,1.7057416E0,6.7811E-1,7.793746E-1,0E0,1.7689123E0,2.5145943E0,0E0,0E0,0E0,1.3463116E-1,1.5749077E0,1.3383362E0,6.84258E-1,1.3993205E0,0E0,0E0,6.223216E-1,0E0,0E0,0E0,1.0199304E0,1.4611959E-2,1.5120199E0,1.3459399E0,0E0,0E0,0E0,0E0,0E0,0E0,0E0,0E0,0E0,0E0],"parents":[2147483647,0,0,1,1,2,2,3,3,4,4,5,5,7,7,8,8,12,12,13,13,14,14,15,15,16,16,19,19,23,23,24,24,25,25,26,26],"right_children":[2,4,6,8,10,12,-1,14,16,-1,-1,-1,18,20,22,24,26,-1,-1,28,-1,-1,-1,30,32,34,36,-1,-1,-1,-1,-1,-1,-1,-1,-1,-1],"split_conditions":[1.662862E3,1.404E3,6.490975E3,7.762238E-1,8.739726E-1,6.535948E-3,1.0072975E-1,6.279537E2,1.4414415E-1,2.6115435E-1,-1.2593062E-2,-4.9608587E-3,1.9247E4,4.3341666E2,4E-1,6.6015E2,5.882353E-2,-2.9468724E-1,-9.0924874E-2,1.92E2,1.9135363E-1,5.5829985E-3,-2.956144E-1,5.893333E2,1.1660079E-1,6.31688E5,1.7E0,-1.7360856E-1,1.4113881E-2,1.5462084E-1,-1.21246286E-1,7.700018E-2,2.7861974E-1,9.788882E-2,-5.9819266E-2,7.010863E-2,-2.0931031E-1],"split_indices":[1,1,0,6,4,10,0,0,4,0,0,0,7,1,10,0,10,0,0,0,0,0,0,0,10,7,6,0,0,0,0,0,0,0,0,0,0],"split_type":[0,0,0,0,0,0,0,0,0,0,0,0,0,0,0,0,0,0,0,0,0,0,0,0,0,0,0,0,0,0,0,0,0,0,0,0,0],"sum_hessian":[5.5562782E1,4.8168335E1,7.3944473E0,4.528101E1,2.8873239E0,5.5749145E0,1.8195329E0,1.2287782E1,3.299323E1,1.874283E0,1.0130408E0,1.7748822E0,3.8000324E0,6.9979544E0,5.2898273E0,7.0815754E0,2.5911652E1,2.0769725E0,1.72306E0,5.0846334E0,1.9133209E0,1.8403759E0,3.4494514E0,3.0996182E0,3.9819572E0,2.0246025E1,5.665627E0,2.0278654E0,3.0567682E0,2.00578E0,1.0938383E0,1.0250455E0,2.9569118E0,1.1269838E1,8.976187E0,1.6611154E0,4.0045114E0],"tree_param":{"num_deleted":"0","num_feature":"11","num_nodes":"37","size_leaf_vector":"1"}},{"base_weights":[-8.028566E-3,-1.2114947E-1,1.5431248E-1,2.651782E-2,-4.4223428E-1,4.7270676E-1,-8.464043E-2,2.5339025E-1,-9.2620686E-2,-2.6857942E-1,-1.945458E-2,2.5744075E-1,7.759764E-2,3.6568865E-2,-2.047453E-1,3.8907024E-1,-7.159934E-2,2.6406586E-1,-2.5791317E-1,1.5132147E-1,-3.6176336E-1,-2.8285837E-1,3.4576267E-1,3.0875704E-1,-2.788559E-1,6.16474E-1,-5.2678667E-2,-2.1332075E-1,2.3773207E-1,-4.8709884E-1,2.462828E-1,-1.9881634E-1,3.477854E-2,4.2065565E-2,-1.7278647E-1,2.20625E-1,-1.0589096E-1,6.084229E-1,-1.0574497E-1,7.4663945E-2,-5.298665E-1,2.717151E-1,6.026538E-2,6.1142817E-2,-1.9398068E-1,-5.0811883E-2,-3.102682E-1,1.7101562E-1,-9.480206E-2,6.9512494E-2,2.2343414E-1,6.039419E-2,-1.2980193E-1,-2.0869775E-2,-1.9585104E-1],"categories":[],"categories_nodes":[],"categories_segments":[],"categories_sizes":[],"default_left":[0,0,0,0,0,0,0,0,0,0,0,0,0,0,0,0,0,0,0,0,0,0,0,0,0,0,0,0,0,0,0,0,0,0,0,0,0,0,0,0,0,0,0,0,0,0,0,0,0,0,0,0,0,0,0],"id":10,"left_children":[1,3,5,7,9,11,13,15,17,-1,19,-1,21,23,-1,25,-1,27,29,-1,31,33,35,37,39,41,-1,43,-1,45,47,-1,-1,-1,-1,-1,-1,49,51,-1,53,-1,-1,-1,-1,-1,-1,-1,-1,-1,-1,-1,-1,-1,-1],"loss_changes":[1.0246439E0,1.5689368E0,1.7849185E0,6.5703905E-1,1.9750621E0,1.4539552E0,1.0358368E0,6.495586E-1,1.0174158E0,0E0,1.3307251E0,0E0,6.8066037E-1,1.1633765E0,0E0,9.9637496E-1,0E0,1.5797925E0,1.4498411E0,0E0,7.1731037E-1,4.6793666E-1,1.3234637E0,9.5990855E-1,9.7140324E-1,4.374118E-1,0E0,8.052235E-1,0E0,1.2586288E0,9.558093E-1,0E0,0E0,0E0,0E0,0E0,0E0,4.9992442E-2,4.7632694E-1,0E0,2.1577764E-1,0E0,0E0,0E0,0E0,0E0,0E0,0E0,0E0,0E0,0E0,0E0,0E0,0E0,0E0],"parents":[2147483647,0,0,1,1,2,2,3,3,4,4,5,5,6,6,7,7,8,8,10,10,12,12,13,13,15,15,17,17,18,18,20,20,21,21,22,22,23,23,24,24,25,25,27,27,29,29,30,30,37,37,38,38,40,40],"right_children":[2,4,6,8,10,12,14,16,18,-1,20,-1,22,24,-1,26,-1,28,30,-1,32,34,36,38,40,42,-1,44,-1,46,48,-1,-1,-1,-1,-1,-1,50,52,-1,54,-1,-1,-1,-1,-1,-1,-1,-1,-1,-1,-1,-1,-1,-1],"split_conditions":[3.2E1,8E0,9.247E4,3.125E-1,1.1E1,4.5E1,9.815498E-1,9.5566505E-1,2.18E2,-2.6857942E-1,1.9E1,2.5744075E-1,1.5254828E3,6.535948E-3,-2.047453E-1,3.0772727E3,-7.159934E-2,1.225E2,9.5672095E2,1.5132147E-1,3.2258064E-2,2.9E1,1.5026364E3,9.905E2,9.8039216E-1,4.0505453E2,-5.2678667E-2,2E0,2.3773207E-1,5.545238E2,1.625562E3,-1.9881634E-1,3.477854E-2,4.2065565E-2,-1.7278647E-1,2.20625E-1,-1.0589096E-1,7.562908E2,9.9E1,7.4663945E-2,5.5784296E2,2.717151E-1,6.026538E-2,6.1142817E-2,-1.9398068E-1,-5.0811883E-2,-3.102682E-1,1.7101562E-1,-9.480206E-2,6.9512494E-2,2.2343414E-1,6.039419E-2,-1.2980193E-1,-2.0869775E-2,-1.9585104E-1],"split_indices":[3,3,7,10,3,8,4,4,0,0,3,0,0,10,0,0,0,0,1,0,10,2,1,1,5,1,0,3,0,1,1,0,0,0,0,0,0,1,3,0,1,0,0,0,0,0,0,0,0,0,0,0,0,0,0],"split_type":[0,0,0,0,0,0,0,0,0,0,0,0,0,0,0,0,0,0,0,0,0,0,0,0,0,0,0,0,0,0,0,0,0,0,0,0,0,0,0,0,0,0,0,0,0,0,0,0,0,0,0,0,0,0,0],"sum_hessian":[5.377782E1,3.1843014E1,2.1934805E1,2.2440166E1,9.402848E0,8.984761E0,1.2950044E1,7.3386006E0,1.5101565E1,3.9995518E0,5.403296E0,3.9548795E0,5.0298815E0,1.1547657E1,1.4023869E0,5.9164767E0,1.4221241E0,4.5929084E0,1.0508657E1,1.9482353E0,3.455061E0,2.122336E0,2.9075456E0,6.210014E0,5.3376427E0,4.152443E0,1.7640336E0,2.7261233E0,1.8667849E0,7.2479587E0,3.2606988E0,1.8820083E0,1.5730525E0,1.0820386E0,1.0402972E0,1.8329083E0,1.0746374E0,3.3327491E0,2.877265E0,1.7232003E0,3.6144423E0,1.7530178E0,2.3994253E0,1.6587859E0,1.0673374E0,5.4137044E0,1.8342544E0,2.0604668E0,1.200232E0,1.6031106E0,1.7296387E0,1.6818528E0,1.195412E0,1.0921259E0,2.5223165E0],"tree_param":{"num_deleted":"0","num_feature":"11","num_nodes":"55","size_leaf_vector":"1"}},{"base_weights":[-8.842973E-3,-2.0415802E-1,6.895117E-2,2.6891924E-2,-6.6398966E-1,2.687808E-1,-1.1652015E-1,-2.5957966E-1,3.1997523E-1,-2.9412886E-2,-2.3764405E-1,4.0008998E-1,-2.657547E-1,-3.5390905E-1,1.452265E-1,7.785821E-3,-2.0573565E-1,2.1214543E-1,5.2842636E-2,2.3569664E-1,7.1353984E-1,3.8147576E-2,-1.811384E-1,-6.18347E-1,7.780719E-2,4.2630532E-1,-2.626675E-1,-3.1981313E-1,1.749968E-1,-1.523096E-1,1.4303574E-1,3.434256E-1,-6.684718E-2,3.820303E-2,2.5560325E-1,-7.5995153E-1,-2.570254E-2,1.3596337E-1,-1.8967688E-1,-6.4310044E-2,6.701793E-1,-1.3941118E-2,-1.7977028E-1,3.0760381E-2,-1.6793892E-1,1.5229483E-1,-2.2844177E-2,-3.920377E-2,-2.6494017E-1,-1.81941E-1,7.1603484E-2,2.495026E-1,3.1346172E-2,-1.0792881E-1,1.2831151E-1],"categories":[],"categories_nodes":[],"categories_segments":[],"categories_sizes":[],"default_left":[0,0,0,0,0,0,0,0,0,0,0,0,0,0,0,0,0,0,0,0,0,0,0,0,0,0,0,0,0,0,0,0,0,0,0,0,0,0,0,0,0,0,0,0,0,0,0,0,0,0,0,0,0,0,0],"id":11,"left_children":[1,3,5,7,9,11,13,15,17,-1,-1,19,21,23,25,27,-1,-1,29,31,33,-1,-1,35,37,39,41,43,-1,-1,-1,45,-1,-1,-1,47,-1,-1,49,-1,51,53,-1,-1,-1,-1,-1,-1,-1,-1,-1,-1,-1,-1,-1],"loss_changes":[7.952157E-1,1.6005046E0,1.4216653E0,9.9618095E-1,2.8648543E-1,1.3950142E0,1.3036351E0,6.949787E-1,5.649617E-1,0E0,0E0,6.118953E-1,6.374954E-1,1.2878361E0,1.2921804E0,1.0741818E0,0E0,0E0,1.3178097E0,6.4080495E-1,2.7421474E-1,0E0,0E0,4.5128536E-1,5.8936286E-1,1.155431E0,3.950048E-1,4.2694208E-1,0E0,0E0,0E0,7.031511E-1,0E0,0E0,0E0,2.939744E-1,0E0,0E0,7.9325306E-1,0E0,3.6372638E-1,7.334187E-1,0E0,0E0,0E0,0E0,0E0,0E0,0E0,0E0,0E0,0E0,0E0,0E0,0E0],"parents":[2147483647,0,0,1,1,2,2,3,3,4,4,5,5,6,6,7,7,8,8,11,11,12,12,13,13,14,14,15,15,18,18,19,19,20,20,23,23,24,24,25,25,26,26,27,27,31,31,35,35,38,38,40,40,41,41],"right_children":[2,4,6,8,10,12,14,16,18,-1,-1,20,22,24,26,28,-1,-1,30,32,34,-1,-1,36,38,40,42,44,-1,-1,-1,46,-1,-1,-1,48,-1,-1,50,-1,52,54,-1,-1,-1,-1,-1,-1,-1,-1,-1,-1,-1,-1,-1],"split_conditions":[1E0,1.0714286E-1,6.086956E-1,4.3341666E2,1.4E2,3.2028538E3,1.0016E1,1.28E2,6.454E2,-2.9412886E-2,-2.3764405E-1,8.4455E2,2.1052632E-1,2.7238174E3,7.89327E5,2.7E1,-2.0573565E-1,2.1214543E-1,1.287825E3,2.4E1,2.1E1,3.8147576E-2,-1.811384E-1,1E2,9.15E0,6.7547797E2,4.50298E1,2.18E2,1.749968E-1,-1.523096E-1,1.4303574E-1,5.500615E2,-6.684718E-2,3.820303E-2,2.5560325E-1,3E0,-2.570254E-2,1.3596337E-1,2.212245E1,-6.4310044E-2,1.7379358E3,1.424E3,-1.7977028E-1,3.0760381E-2,-1.6793892E-1,1.5229483E-1,-2.2844177E-2,-3.920377E-2,-2.6494017E-1,-1.81941E-1,7.1603484E-2,2.495026E-1,3.1346172E-2,-1.0792881E-1,1.2831151E-1],"split_indices":[6,6,4,1,1,0,5,1,1,0,0,1,5,0,7,1,0,0,1,8,3,0,0,3,6,1,5,0,0,0,0,1,0,0,0,3,0,0,6,0,1,2,0,0,0,0,0,0,0,0,0,0,0,0,0],"split_type":[0,0,0,0,0,0,0,0,0,0,0,0,0,0,0,0,0,0,0,0,0,0,0,0,0,0,0,0,0,0,0,0,0,0,0,0,0,0,0,0,0,0,0,0,0,0,0,0,0,0,0,0,0,0,0],"sum_hessian":[5.0409763E1,1.3896348E1,3.6513412E1,9.875672E0,4.0206757E0,1.736015E1,1.9153265E1,5.0519776E0,4.823695E0,1.0682528E0,2.9524229E0,1.4138524E1,3.2216246E0,9.859327E0,9.293938E0,3.7077692E0,1.3442085E0,1.2968606E0,3.5268342E0,1.0423638E1,3.7148855E0,1.778389E0,1.4432356E0,5.84612E0,4.0132074E0,5.4755864E0,3.8183515E0,2.6459823E0,1.0617867E0,1.4336659E0,2.0931685E0,8.6438E0,1.7798387E0,1.0766569E0,2.6382284E0,4.2813063E0,1.5648134E0,1.3808656E0,2.6323419E0,1.5430064E0,3.93258E0,2.7945619E0,1.0237896E0,1.1662449E0,1.4797375E0,6.0614038E0,2.5823965E0,1.0382591E0,3.2430472E0,1.123427E0,1.508915E0,2.693452E0,1.239128E0,1.6712952E0,1.1232667E0],"tree_param":{"num_deleted":"0","num_feature":"11","num_nodes":"55","size_leaf_vector":"1"}},{"base_weights":[-1.2440861E-2,-9.2516765E-2,1.79569E-1,1.5573821E-2,-2.5120378E-1,4.031476E-1,-5.208692E-2,-1.766934E-1,1.9855967E-1,-2.4729687E-1,-2.2783576E-2,6.9421434E-1,2.2114944E-2,2.9352865E-1,-2.6575378E-1,-2.0266678E-2,-2.3259208E-1,2.5580066E-1,-1.2446374E-2,-2.9373658E-1,3.9948803E-1,2.3692994E-1,5.770989E-2,3.637128E-1,-1.6199145E-1,2.020707E-1,-5.942198E-2,-5.555336E-1,8.341996E-2,-1.8083544E-1,1.4423247E-1,-1.9721206E-1,1.7044643E-1,7.190336E-2,-5.2783906E-1,1.9822127E-1,-4.1903704E-2,1.9343363E-1,-4.1433603E-2,-3.1987164E-2,-2.1276179E-1,1.4410505E-2,-1.5026484E-1,-1.13736205E-2,-1.933062E-1,8.705106E-3,-2.1908705E-1],"categories":[],"categories_nodes":[],"categories_segments":[],"categories_sizes":[],"default_left":[0,0,0,0,0,0,0,0,0,0,0,0,0,0,0,0,0,0,0,0,0,0,0,0,0,0,0,0,0,0,0,0,0,0,0,0,0,0,0,0,0,0,0,0,0,0,0],"id":12,"left_children":[1,3,5,7,9,11,13,15,17,-1,19,21,23,25,27,29,-1,-1,31,33,35,-1,-1,37,-1,-1,-1,39,-1,41,-1,43,-1,-1,45,-1,-1,-1,-1,-1,-1,-1,-1,-1,-1,-1,-1],"loss_changes":[7.741702E-1,6.116314E-1,7.896439E-1,8.096738E-1,1.8681418E0,8.3489573E-1,6.816459E-1,1.039144E0,1.6325533E0,0E0,1.4141939E0,5.4914236E-2,1.0322024E0,8.056314E-1,1.0332186E0,8.880863E-1,0E0,0E0,1.1709377E0,1.060642E0,7.7600175E-1,0E0,0E0,5.552168E-1,0E0,0E0,0E0,1.9834542E-1,0E0,6.29686E-1,0E0,5.618081E-1,0E0,0E0,6.4250255E-1,0E0,0E0,0E0,0E0,0E0,0E0,0E0,0E0,0E0,0E0,0E0,0E0],"parents":[2147483647,0,0,1,1,2,2,3,3,4,4,5,5,6,6,7,7,8,8,10,10,11,11,12,12,13,13,14,14,15,15,18,18,19,19,20,20,23,23,27,27,29,29,31,31,34,34],"right_children":[2,4,6,8,10,12,14,16,18,-1,20,22,24,26,28,30,-1,-1,32,34,36,-1,-1,38,-1,-1,-1,40,-1,42,-1,44,-1,-1,46,-1,-1,-1,-1,-1,-1,-1,-1,-1,-1,-1,-1],"split_conditions":[9.7E1,8E0,2.1E1,4.3341666E2,1.1E1,6.31688E5,2.7E0,2.563598E3,5.545238E2,-2.4729687E-1,2.5170156E3,1.8483273E3,4E0,5E-1,6.831667E2,4E0,-2.3259208E-1,2.5580066E-1,2.212245E1,7.22E4,1.4623854E1,2.3692994E-1,5.770989E-2,9.9E1,-1.6199145E-1,2.020707E-1,-5.942198E-2,3.2E1,8.341996E-2,1.5470909E2,1.4423247E-1,1.9265555E3,1.7044643E-1,7.190336E-2,9.393333E2,1.9822127E-1,-4.1903704E-2,1.9343363E-1,-4.1433603E-2,-3.1987164E-2,-2.1276179E-1,1.4410505E-2,-1.5026484E-1,-1.13736205E-2,-1.933062E-1,8.705106E-3,-2.1908705E-1],"split_indices":[3,3,8,1,3,7,6,0,1,0,0,0,8,10,1,3,0,0,6,7,6,0,0,3,0,0,0,8,0,1,0,1,0,0,0,0,0,0,0,0,0,0,0,0,0,0,0],"split_type":[0,0,0,0,0,0,0,0,0,0,0,0,0,0,0,0,0,0,0,0,0,0,0,0,0,0,0,0,0,0,0,0,0,0,0,0,0,0,0,0,0,0,0,0,0,0,0],"sum_hessian":[4.827084E1,3.443021E1,1.3840628E1,2.1016533E1,1.3413677E1,6.666392E0,7.1742363E0,1.0265128E1,1.0751406E1,3.0791404E0,1.0334537E1,3.313396E0,3.3529959E0,2.598034E0,4.5762024E0,8.958098E0,1.3070297E0,1.8806149E0,8.8707905E0,6.4806075E0,3.8539293E0,2.3014774E0,1.0119185E0,2.3050606E0,1.0479352E0,1.2565149E0,1.341519E0,2.9713511E0,1.6048511E0,7.2680025E0,1.6900955E0,7.2302327E0,1.640558E0,1.969404E0,4.5112033E0,2.444154E0,1.4097754E0,1.2949224E0,1.0101383E0,1.1897314E0,1.7816197E0,4.733163E0,2.5348399E0,6.1308327E0,1.0993998E0,1.4312152E0,3.0799882E0],"tree_param":{"num_deleted":"0","num_feature":"11","num_nodes":"47","size_leaf_vector":"1"}},{"base_weights":[-9.372865E-3,-9.788264E-2,1.244476E-1,1.0306034E-2,-3.6528587E-1,4.023578E-1,-6.973678E-2,-2.9970595E-1,9.544747E-2,-2.2966833E-1,-6.1136015E-2,2.29675E-1,7.818752E-2,-1.7692101E-1,3.981739E-2,-2.6276289E-3,-1.4825323E-1,1.7616448E-1,-6.866471E-3,1.4940576E-1,-2.9455158E-1,-6.9957346E-2,2.6393765E-1,1.9607633E-1,-8.90042E-2,-3.8760993E-1,1.622353E-1,7.907889E-2,-5.294595E-1,1.4793158E-1,-1.1924882E-2,1.2737198E-1,-3.7994412E-1,-2.0922683E-1,2.7615659E-2,2.1002641E-1,-3.8421655E-3,-2.5195042E-2,-2.2466053E-1,1.2117964E-1,-4.9415845E-2,-1.0321909E-3,-1.9873916E-1],"categories":[],"categories_nodes":[],"categories_segments":[],"categories_sizes":[],"default_left":[0,0,0,0,0,0,0,0,0,0,0,0,0,0,0,0,0,0,0,0,0,0,0,0,0,0,0,0,0,0,0,0,0,0,0,0,0,0,0,0,0,0,0],"id":13,"left_children":[1,3,5,7,9,11,13,15,17,-1,19,-1,21,-1,23,-1,-1,-1,25,-1,27,-1,29,-1,31,33,35,-1,37,-1,-1,39,41,-1,-1,-1,-1,-1,-1,-1,-1,-1,-1],"loss_changes":[5.6596804E-1,8.3410203E-1,1.0562959E0,5.936334E-1,9.6304715E-1,8.8033736E-1,7.1100694E-1,2.7031127E-1,8.871945E-1,0E0,9.0370756E-1,0E0,3.7000293E-1,0E0,9.204106E-1,0E0,0E0,0E0,1.062017E0,0E0,7.5846714E-1,0E0,2.8471974E-1,0E0,6.71217E-1,8.172731E-1,1.0870109E0,0E0,2.9430807E-1,0E0,0E0,5.8537155E-1,4.7327602E-1,0E0,0E0,0E0,0E0,0E0,0E0,0E0,0E0,0E0,0E0],"parents":[2147483647,0,0,1,1,2,2,3,3,4,4,5,5,6,6,7,7,8,8,10,10,12,12,14,14,18,18,20,20,22,22,24,24,25,25,26,26,28,28,31,31,32,32],"right_children":[2,4,6,8,10,12,14,16,18,-1,20,-1,22,-1,24,-1,-1,-1,26,-1,28,-1,30,-1,32,34,36,-1,38,-1,-1,40,42,-1,-1,-1,-1,-1,-1,-1,-1,-1,-1],"split_conditions":[3.2E1,8E0,9.247E4,8.4E1,1.1E1,4.5E1,1.71673E5,2.18E2,1.5470909E2,-2.2966833E-1,1.3E1,2.29675E-1,2.023E3,-1.7692101E-1,2.34498E5,-2.6276289E-3,-1.4825323E-1,1.7616448E-1,4.3341666E2,1.4940576E-1,3.59375E-1,-6.9957346E-2,3.2453E4,1.9607633E-1,4E0,5.8672E4,5.545238E2,7.907889E-2,7.2314E4,1.4793158E-1,-1.1924882E-2,1.1238095E1,6.31688E5,-2.0922683E-1,2.7615659E-2,2.1002641E-1,-3.8421655E-3,-2.5195042E-2,-2.2466053E-1,1.2117964E-1,-4.9415845E-2,-1.0321909E-3,-1.9873916E-1],"split_indices":[3,3,7,1,3,8,7,0,1,0,3,0,7,0,7,0,0,0,1,0,5,0,7,0,8,7,1,0,7,0,0,6,7,0,0,0,0,0,0,0,0,0,0],"split_type":[0,0,0,0,0,0,0,0,0,0,0,0,0,0,0,0,0,0,0,0,0,0,0,0,0,0,0,0,0,0,0,0,0,0,0,0,0,0,0,0,0,0,0],"sum_hessian":[4.575508E1,2.7701601E1,1.8053478E1,2.040671E1,7.2948923E0,6.9848933E0,1.1068585E1,3.8539264E0,1.6552782E1,2.4947E0,4.8001924E0,2.6518664E0,4.333027E0,1.1634063E0,9.905179E0,1.9626544E0,1.891272E0,2.0345356E0,1.4518248E1,1.0798229E0,3.7203696E0,1.5235878E0,2.8094392E0,1.0116388E0,8.89354E0,4.067605E0,1.0450643E1,1.0658214E0,2.6545482E0,1.2456919E0,1.5637473E0,5.422761E0,3.4707797E0,2.1955295E0,1.8720756E0,1.8295274E0,8.621115E0,1.3322964E0,1.3222518E0,2.5887582E0,2.8340025E0,1.92182E0,1.5489597E0],"tree_param":{"num_deleted":"0","num_feature":"11","num_nodes":"43","size_leaf_vector":"1"}},{"base_weights":[-7.6424167E-3,-1.7777613E-1,6.1174545E-2,4.3595906E-2,-6.9052607E-1,3.1529337E-1,-3.699184E-2,-8.2149215E-2,1.6398248E-1,-3.8742963E-2,-2.5128576E-1,8.034169E-2,6.407043E-1,1.9062731E-2,-1.3206884E-1,2.8801948E-1,-2.448651E-1,1.2087797E-1,-2.1230486E-1,2.3679374E-1,4.865758E-2,-4.4065407E-1,9.1880016E-2,1.89782E-2,1.1135113E-1,-3.9994806E-1,5.1007356E-2,-1.09307505E-1,-2.6530104E-3,-2.3124408E-2,-1.8430643E-1,-3.2569894E-1,1.6649668E-1,-2.6344808E-2,-1.9148976E-1,4.716625E-3,-1.70206E-1,1.1718782E-1,1.6020941E-4],"categories":[],"categories_nodes":[],"categories_segments":[],"categories_sizes":[],"default_left":[0,0,0,0,0,0,0,0,0,0,0,0,0,0,0,0,0,0,0,0,0,0,0,0,0,0,0,0,0,0,0,0,0,0,0,0,0,0,0],"id":14,"left_children":[1,3,5,7,9,11,13,15,-1,-1,-1,17,19,21,-1,23,25,-1,27,-1,-1,29,31,-1,-1,33,-1,-1,-1,-1,-1,35,37,-1,-1,-1,-1,-1,-1],"loss_changes":[5.348382E-1,1.5221164E0,8.2509327E-1,6.850978E-1,2.2403347E-1,6.5125656E-1,5.6028306E-1,6.106049E-1,0E0,0E0,0E0,6.9736415E-1,1.35831E-1,7.9016614E-1,0E0,3.62764E-2,5.0354326E-1,0E0,1.2216771E-1,0E0,0E0,1.5692896E-1,6.823865E-1,0E0,0E0,3.327192E-1,0E0,0E0,0E0,0E0,0E0,2.8899053E-1,6.606221E-1,0E0,0E0,0E0,0E0,0E0,0E0],"parents":[2147483647,0,0,1,1,2,2,3,3,4,4,5,5,6,6,7,7,11,11,12,12,13,13,15,15,16,16,18,18,21,21,22,22,25,25,31,31,32,32],"right_children":[2,4,6,8,10,12,14,16,-1,-1,-1,18,20,22,-1,24,26,-1,28,-1,-1,30,32,-1,-1,34,-1,-1,-1,-1,-1,36,38,-1,-1,-1,-1,-1,-1],"split_conditions":[8E-1,1.0714286E-1,2.2222222E-1,3E0,1.4E2,1.2E1,1.7954544E8,2.18E2,1.6398248E-1,-3.8742963E-2,-2.5128576E-1,3.0244446E2,2.5E-1,4.085E2,-1.3206884E-1,1.8E2,1.287825E3,1.2087797E-1,1.1682059E3,2.3679374E-1,4.865758E-2,8.423043E2,3.101852E0,1.89782E-2,1.1135113E-1,6.279537E2,5.1007356E-2,-1.09307505E-1,-2.6530104E-3,-2.3124408E-2,-1.8430643E-1,2.3454545E0,1.59E2,-2.6344808E-2,-1.9148976E-1,4.716625E-3,-1.70206E-1,1.1718782E-1,1.6020941E-4],"split_indices":[6,6,4,3,1,3,7,0,0,0,0,1,5,1,0,0,1,0,0,0,0,0,6,0,0,0,0,0,0,0,0,6,2,0,0,0,0,0,0],"split_type":[0,0,0,0,0,0,0,0,0,0,0,0,0,0,0,0,0,0,0,0,0,0,0,0,0,0,0,0,0,0,0,0,0,0,0,0,0,0,0],"sum_hessian":[4.3752224E1,1.2144498E1,3.1607725E1,9.121433E0,3.0230646E0,8.191343E0,2.3416382E1,7.9665956E0,1.1548371E0,1.0175476E0,2.005517E0,5.480924E0,2.7104192E0,2.1394966E1,2.0214157E0,2.1974516E0,5.769144E0,2.4278564E0,3.0530677E0,1.5725348E0,1.1378844E0,2.2347612E0,1.9160206E1,1.0689231E0,1.1285285E0,4.2256413E0,1.5435028E0,1.294699E0,1.7583687E0,1.189267E0,1.0454943E0,2.3945525E0,1.6765654E1,2.422151E0,1.8034899E0,1.379901E0,1.0146515E0,6.556937E0,1.0208716E1],"tree_param":{"num_deleted":"0","num_feature":"11","num_nodes":"39","size_leaf_vector":"1"}},{"base_weights":[-1.2105038E-2,3.4802157E-2,-2.8188545E-1,-1.8474367E-2,4.4472557E-1,-5.2713746E-1,1.0644667E-1,-2.6586443E-1,8.443202E-2,2.099006E-1,-1.0313607E-2,-2.4765825E-1,-1.4713056E-1,6.6095837E-3,-5.980184E-1,3.4477696E-1,-3.5149395E-2,4.6173513E-2,-1.14720285E-1,-2.1320641E-1,1.1588818E-1,-4.96365E-2,-2.592317E-1,3.2050319E-3,5.184274E-1,-2.7290618E-1,1.1973513E-1,1.978814E-2,-1.8507788E-1,7.061048E-2,-6.410039E-2,2.1520403E-1,-2.7958548E-2,6.8343016E-3,-1.8392725E-1,-1.7647572E-2,1.468458E-1],"categories":[],"categories_nodes":[],"categories_segments":[],"categories_sizes":[],"default_left":[0,0,0,0,0,0,0,0,0,0,0,0,0,0,0,0,0,0,0,0,0,0,0,0,0,0,0,0,0,0,0,0,0,0,0,0,0],"id":15,"left_children":[1,3,5,7,9,11,-1,13,15,-1,-1,-1,17,19,21,23,25,-1,-1,27,-1,-1,-1,29,31,33,35,-1,-1,-1,-1,-1,-1,-1,-1,-1,-1],"loss_changes":[5.607136E-1,8.3757776E-1,1.211101E0,9.024772E-1,5.624395E-1,4.6099234E-1,0E0,9.448267E-1,7.957797E-1,0E0,0E0,0E0,3.0506516E-1,6.415592E-1,3.975221E-1,4.7376078E-1,7.0128804E-1,0E0,0E0,5.9157276E-1,0E0,0E0,0E0,2.3697346E-1,7.1259797E-1,7.650715E-1,8.0056214E-1,0E0,0E0,0E0,0E0,0E0,0E0,0E0,0E0,0E0,0E0],"parents":[2147483647,0,0,1,1,2,2,3,3,4,4,5,5,7,7,8,8,12,12,13,13,14,14,15,15,16,16,19,19,23,23,24,24,25,25,26,26],"right_children":[2,4,6,8,10,12,-1,14,16,-1,-1,-1,18,20,22,24,26,-1,-1,28,-1,-1,-1,30,32,34,36,-1,-1,-1,-1,-1,-1,-1,-1,-1,-1],"split_conditions":[1.662862E3,1.3437693E3,6.490975E3,7.762238E-1,6.7E0,1.9247E4,1.0644667E-1,6.279537E2,2.2222222E-1,2.099006E-1,-1.0313607E-2,-2.4765825E-1,2.3695798E3,2.5881818E2,4.7980328E2,6.6015E2,3.127451E0,4.6173513E-2,-1.14720285E-1,2.18E2,1.1588818E-1,-4.96365E-2,-2.592317E-1,1.6971428E2,7.22E4,6.454E2,2.5939827E3,1.978814E-2,-1.8507788E-1,7.061048E-2,-6.410039E-2,2.1520403E-1,-2.7958548E-2,6.8343016E-3,-1.8392725E-1,-1.7647572E-2,1.468458E-1],"split_indices":[1,1,0,6,6,7,0,0,4,0,0,0,1,0,1,0,5,0,0,0,0,0,0,0,7,1,0,0,0,0,0,0,0,0,0,0,0],"split_type":[0,0,0,0,0,0,0,0,0,0,0,0,0,0,0,0,0,0,0,0,0,0,0,0,0,0,0,0,0,0,0,0,0,0,0,0,0],"sum_hessian":[4.2533695E1,3.6975666E1,5.5580263E0,3.3567883E1,3.4077854E0,4.1367064E0,1.4213202E0,9.396017E0,2.4171865E1,1.9237453E0,1.48404E0,1.660468E0,2.4762383E0,5.700147E0,3.6958697E0,7.015334E0,1.7156532E1,1.2379797E0,1.2382587E0,3.8877952E0,1.8123521E0,2.025284E0,1.6705856E0,2.707707E0,4.307627E0,6.4671226E0,1.0689409E1,2.7930539E0,1.0947413E0,1.2665644E0,1.4411426E0,3.1200333E0,1.1875939E0,3.9590042E0,2.5081184E0,7.7754083E0,2.9140007E0],"tree_param":{"num_deleted":"0","num_feature":"11","num_nodes":"37","size_leaf_vector":"1"}},{"base_weights":[-1.4444623E-2,-7.9007454E-2,1.4588857E-1,-1.3618226E-1,1.5455921E-1,3.3182517E-1,-4.7120597E-2,-6.443708E-2,-1.8652497E-1,-9.6638404E-2,3.9595512E-1,1.7674875E-1,-2.391604E-2,8.395613E-2,-2.2286928E-1,-1.3417827E-1,1.4167733E-1,2.0059516E-1,-7.8667305E-2,7.803518E-2,-7.89191E-2,-4.5596302E-1,6.9663666E-2,3.1792738E-2,-3.329332E-1,-3.611099E-2,-2.0115833E-1,-2.3483938E-2,1.546693E-1,-3.141491E-2,-2.3936452E-1],"categories":[],"categories_nodes":[],"categories_segments":[],"categories_sizes":[],"default_left":[0,0,0,0,0,0,0,0,0,0,0,0,0,0,0,0,0,0,0,0,0,0,0,0,0,0,0,0,0,0,0],"id":16,"left_children":[1,3,5,7,9,11,13,15,-1,-1,17,-1,19,-1,21,23,-1,-1,-1,-1,-1,25,-1,27,29,-1,-1,-1,-1,-1,-1],"loss_changes":[4.4950396E-1,4.3252373E-1,4.6414602E-1,8.4078825E-1,8.7869847E-1,6.082038E-1,4.650802E-1,9.29695E-1,0E0,0E0,1.0336087E0,0E0,3.1873873E-1,0E0,6.48424E-1,7.119805E-1,0E0,0E0,0E0,0E0,0E0,1.8712932E-1,0E0,7.0596397E-1,9.523684E-1,0E0,0E0,0E0,0E0,0E0,0E0],"parents":[2147483647,0,0,1,1,2,2,3,3,4,4,5,5,6,6,7,7,10,10,12,12,14,14,15,15,21,21,23,23,24,24],"right_children":[2,4,6,8,10,12,14,16,-1,-1,18,-1,20,-1,22,24,-1,-1,-1,-1,-1,26,-1,28,30,-1,-1,-1,-1,-1,-1],"split_conditions":[9.7E1,4.638E3,2.1E1,3.2028538E3,8.27E2,8.014655E2,2.7E0,2.5170156E3,-1.8652497E-1,-9.6638404E-2,1.9619686E3,1.7674875E-1,6.31688E5,8.395613E-2,6.831667E2,5.500615E2,1.4167733E-1,2.0059516E-1,-7.8667305E-2,7.803518E-2,-7.89191E-2,5.6365533E2,6.9663666E-2,4.3341666E2,1.7028905E3,-3.611099E-2,-2.0115833E-1,-2.3483938E-2,1.546693E-1,-3.141491E-2,-2.3936452E-1],"split_indices":[3,0,8,0,1,1,6,0,0,0,1,0,7,0,1,1,0,0,0,0,0,1,0,1,0,0,0,0,0,0,0],"split_type":[0,0,0,0,0,0,0,0,0,0,0,0,0,0,0,0,0,0,0,0,0,0,0,0,0,0,0,0,0,0,0],"sum_hessian":[4.1310287E1,2.9812605E1,1.1497685E1,2.4284857E1,5.5277476E0,5.489816E0,6.007869E0,2.2145452E1,2.139403E0,1.7458196E0,3.7819278E0,2.8047507E0,2.6850653E0,1.8932291E0,4.1146398E0,2.0262428E1,1.8830242E0,2.6627815E0,1.1191465E0,1.1872705E0,1.4977949E0,2.7196777E0,1.394962E0,1.1499648E1,8.762781E0,1.6694877E0,1.05019E0,1.0050945E1,1.4487026E0,6.699566E0,2.0632153E0],"tree_param":{"num_deleted":"0","num_feature":"11","num_nodes":"31","size_leaf_vector":"1"}},{"base_weights":[-1.22060245E-2,2.9057855E-2,-2.4790032E-1,-1.3127595E-1,1.2329377E-1,-4.5598814E-1,8.578867E-2,-2.0960122E-2,-1.9789056E-1,2.5278035E-1,-1.6402146E-1,-2.1270442E-1,-8.220258E-2,-1.0234258E-1,1.3409932E-1,5.661768E-1,1.3260067E-1,-3.786635E-1,2.0182885E-1,2.3107583E-2,-6.0208376E-2,-2.7972493E-1,8.058252E-2,2.4190967E-1,5.5635512E-2,-2.2221474E-1,2.949689E-1,-4.6051145E-2,-2.0653306E-1,1.3771461E-1,-2.4988664E-2,-1.833777E-2,-1.7940013E-1,9.195119E-2,-8.309602E-2,6.560754E-2,-1.4022072E-1,-3.5256702E-2,1.5844241E-1,8.339468E-2,-8.981794E-2],"categories":[],"categories_nodes":[],"categories_segments":[],"categories_sizes":[],"default_left":[0,0,0,0,0,0,0,0,0,0,0,0,0,0,0,0,0,0,0,0,0,0,0,0,0,0,0,0,0,0,0,0,0,0,0,0,0,0,0,0,0],"id":17,"left_children":[1,3,5,7,9,11,-1,13,-1,15,17,-1,19,21,-1,23,25,27,29,-1,-1,31,33,-1,-1,35,37,39,-1,-1,-1,-1,-1,-1,-1,-1,-1,-1,-1,-1,-1],"loss_changes":[4.065274E-1,5.576471E-1,8.216268E-1,7.876232E-1,9.003536E-1,4.016081E-1,0E0,5.182876E-1,0E0,5.3913605E-1,6.8725765E-1,0E0,7.38343E-2,3.919093E-1,0E0,2.358458E-1,8.1986284E-1,5.092499E-1,2.970182E-1,0E0,0E0,3.8110086E-1,6.003341E-1,0E0,0E0,6.0825E-1,9.6736574E-1,3.7903678E-1,0E0,0E0,0E0,0E0,0E0,0E0,0E0,0E0,0E0,0E0,0E0,0E0,0E0],"parents":[2147483647,0,0,1,1,2,2,3,3,4,4,5,5,7,7,9,9,10,10,12,12,13,13,15,15,16,16,17,17,18,18,21,21,22,22,25,25,26,26,27,27],"right_children":[2,4,6,8,10,12,-1,14,-1,16,18,-1,20,22,-1,24,26,28,30,-1,-1,32,34,-1,-1,36,38,40,-1,-1,-1,-1,-1,-1,-1,-1,-1,-1,-1,-1,-1],"split_conditions":[1.6408242E3,4.3341666E2,6.490975E3,2.563598E3,6.31688E5,2.0971008E3,8.578867E-2,1.5964192E3,-1.9789056E-1,5.6365533E2,2.4942344E3,-2.1270442E-1,2.563598E3,7.542373E-1,1.3409932E-1,4E0,7.6402405E2,5.50055E-3,3.3741E3,2.3107583E-2,-6.0208376E-2,1.4E2,8E0,2.4190967E-1,5.5635512E-2,1.9465E4,1.424E3,2.55E1,-2.0653306E-1,1.3771461E-1,-2.4988664E-2,-1.833777E-2,-1.7940013E-1,9.195119E-2,-8.309602E-2,6.560754E-2,-1.4022072E-1,-3.5256702E-2,1.5844241E-1,8.339468E-2,-8.981794E-2],"split_indices":[1,1,0,0,7,1,0,0,0,1,0,0,0,6,0,3,1,10,0,0,0,1,2,0,0,7,0,6,0,0,0,0,0,0,0,0,0,0,0,0,0],"split_type":[0,0,0,0,0,0,0,0,0,0,0,0,0,0,0,0,0,0,0,0,0,0,0,0,0,0,0,0,0,0,0,0,0,0,0,0,0,0,0,0,0],"sum_hessian":[4.0058796E1,3.4836544E1,5.2222495E0,1.27501955E1,2.208635E1,3.8625739E0,1.359676E0,1.1407996E1,1.342199E0,1.5307706E1,6.778643E0,1.7685444E0,2.0940294E0,1.0383503E1,1.0244935E0,3.2143793E0,1.2093327E1,4.2501087E0,2.5285347E0,1.0427501E0,1.0512792E0,5.0029593E0,5.3805437E0,1.2854509E0,1.9289284E0,3.680947E0,8.412379E0,2.6034396E0,1.6466691E0,1.0086262E0,1.5199084E0,3.6725912E0,1.3303682E0,3.3847709E0,1.995773E0,1.3540685E0,2.3268785E0,3.2171314E0,5.195248E0,1.0996664E0,1.5037732E0],"tree_param":{"num_deleted":"0","num_feature":"11","num_nodes":"41","size_leaf_vector":"1"}},{"base_weights":[-1.3722049E-2,-9.400779E-2,1.2117967E-1,9.579488E-3,-3.3066648E-1,3.3317754E-1,-2.4878912E-2,2.5289565E-1,-1.10771865E-1,-2.1645361E-1,-5.8775794E-2,1.9903435E-1,5.7137538E-2,2.0466124E-1,-2.1707457E-1,3.631298E-1,-4.876503E-2,-3.7520543E-1,1.832317E-2,9.513823E-2,-2.6112905E-1,-6.577539E-2,2.653151E-1,3.5768017E-1,-3.7993886E-2,2.0152712E-2,-1.7789365E-1,4.91225E-1,-2.0452455E-2,-1.7007814E-1,8.424368E-3,-2.3550928E-1,1.6163877E-1,-1.4112255E-1,2.6137503E-2,1.2242176E-1,-2.2885923E-3,2.4628876E-2,1.3497676E-1,-9.8306306E-2,2.8102618E-1,2.1265852E-1,4.7703225E-2,-9.768196E-3,-1.0848094E-1,1.6084139E-1,-2.7742665E-2,2.0105833E-1,-8.106416E-2],"categories":[],"categories_nodes":[],"categories_segments":[],"categories_sizes":[],"default_left":[0,0,0,0,0,0,0,0,0,0,0,0,0,0,0,0,0,0,0,0,0,0,0,0,0,0,0,0,0,0,0,0,0,0,0,0,0,0,0,0,0,0,0,0,0,0,0,0,0],"id":18,"left_children":[1,3,5,7,9,11,13,15,17,-1,19,-1,21,23,25,27,-1,29,31,-1,33,-1,35,37,-1,39,-1,41,-1,-1,-1,43,45,-1,-1,-1,-1,-1,-1,-1,47,-1,-1,-1,-1,-1,-1,-1,-1],"loss_changes":[4.411693E-1,6.268145E-1,4.8024064E-1,5.746296E-1,7.8362817E-1,5.3526086E-1,4.836045E-1,3.5587895E-1,4.5695084E-1,0E0,5.1432073E-1,0E0,3.1817794E-1,3.013877E-1,5.38393E-1,3.3359456E-1,0E0,3.5392904E-1,3.9503706E-1,0E0,3.497256E-1,0E0,1.2117487E-1,5.7550102E-2,0E0,5.082787E-1,0E0,1.9890416E-1,0E0,0E0,0E0,8.9258716E-2,7.0286316E-1,0E0,0E0,0E0,0E0,0E0,0E0,0E0,8.5882676E-1,0E0,0E0,0E0,0E0,0E0,0E0,0E0,0E0],"parents":[2147483647,0,0,1,1,2,2,3,3,4,4,5,5,6,6,7,7,8,8,10,10,12,12,13,13,14,14,15,15,17,17,18,18,20,20,22,22,23,23,25,25,27,27,31,31,32,32,40,40],"right_children":[2,4,6,8,10,12,14,16,18,-1,20,-1,22,24,26,28,-1,30,32,-1,34,-1,36,38,-1,40,-1,42,-1,-1,-1,44,46,-1,-1,-1,-1,-1,-1,-1,48,-1,-1,-1,-1,-1,-1,-1,-1],"split_conditions":[4.7E1,8E0,9.247E4,3.125E-1,1.1E1,4.5E1,4E0,9.5566505E-1,6.993007E-1,-2.1645361E-1,3.8476E4,1.9903435E-1,1.5254828E3,2.55E1,6.31688E5,3.0772727E3,-4.876503E-2,7.0561E4,8.4E1,9.513823E-2,2.4390243E-2,-6.577539E-2,2.3163477E3,7.562908E2,-3.7993886E-2,7.732394E0,-1.7789365E-1,4.0505453E2,-2.0452455E-2,-1.7007814E-1,8.424368E-3,2.18E2,4.23E2,-1.4112255E-1,2.6137503E-2,1.2242176E-1,-2.2885923E-3,2.4628876E-2,1.3497676E-1,-9.8306306E-2,3.42E2,2.1265852E-1,4.7703225E-2,-9.768196E-3,-1.0848094E-1,1.6084139E-1,-2.7742665E-2,2.0105833E-1,-8.106416E-2],"split_indices":[3,3,7,10,3,8,8,4,10,0,7,0,0,6,7,0,0,7,1,0,10,0,0,1,0,6,0,1,0,0,0,0,0,0,0,0,0,0,0,0,2,0,0,0,0,0,0,0,0],"split_type":[0,0,0,0,0,0,0,0,0,0,0,0,0,0,0,0,0,0,0,0,0,0,0,0,0,0,0,0,0,0,0,0,0,0,0,0,0,0,0,0,0,0,0,0,0,0,0,0,0],"sum_hessian":[3.8681465E1,2.4439575E1,1.424189E1,1.7666388E1,6.773188E0,5.2869635E0,8.954927E0,5.482011E0,1.2184377E1,2.1003006E0,4.6728873E0,1.7680811E0,3.5188823E0,4.051429E0,4.903498E0,4.4319634E0,1.0500474E0,3.3716283E0,8.812748E0,1.4367325E0,3.2361548E0,1.4889158E0,2.0299664E0,2.7169611E0,1.3344674E0,3.5865018E0,1.3169965E0,3.3099868E0,1.1219766E0,2.0102108E0,1.3614175E0,2.9480457E0,5.8647027E0,1.8023125E0,1.4338423E0,1.007786E0,1.0221803E0,1.1553211E0,1.56164E0,1.4272864E0,2.1592155E0,1.3148606E0,1.9951261E0,1.6119041E0,1.3361417E0,1.922137E0,3.9425654E0,1.1391772E0,1.0200382E0],"tree_param":{"num_deleted":"0","num_feature":"11","num_nodes":"49","size_leaf_vector":"1"}},{"base_weights":[-9.315674E-3,-3.391702E-1,2.020916E-2,1.505923E-3,-1.5641415E-1,1.6677055E-1,-2.3686154E-2,-1.7344302E-1,1.3591834E-2,1.5742737E-1,-3.0236362E-2,-1.5513915E-1,1.12337E-1,-6.3486464E-2,9.8531514E-2,9.428788E-2,-6.2995986E-3],"categories":[],"categories_nodes":[],"categories_segments":[],"categories_sizes":[],"default_left":[0,0,0,0,0,0,0,0,0,0,0,0,0,0,0,0,0],"id":19,"left_children":[1,3,5,-1,-1,-1,7,-1,9,-1,11,13,15,-1,-1,-1,-1],"loss_changes":[3.765409E-1,2.0172608E-1,8.546291E-1,0E0,0E0,0E0,7.1130663E-1,0E0,7.5219953E-1,0E0,5.733323E-1,5.354637E-1,4.1475427E-1,0E0,0E0,0E0,0E0],"parents":[2147483647,0,0,1,1,2,2,6,6,8,8,10,10,11,11,12,12],"right_children":[2,4,6,-1,-1,-1,8,-1,10,-1,12,14,16,-1,-1,-1,-1],"split_conditions":[1.225E2,7.45E1,2.18E2,1.505923E-3,-1.5641415E-1,1.6677055E-1,2.5881818E2,-1.7344302E-1,4.23E2,1.5742737E-1,3.2E1,1.148654E1,9.247E4,-6.3486464E-2,9.8531514E-2,9.428788E-2,-6.2995986E-3],"split_indices":[0,0,0,0,0,0,0,0,0,0,3,5,7,0,0,0,0],"split_type":[0,0,0,0,0,0,0,0,0,0,0,0,0,0,0,0,0],"sum_hessian":[3.6959793E1,2.1748228E0,3.478497E1,1.0894101E0,1.0854127E0,1.7510554E0,3.3033913E1,1.1670296E0,3.1866884E1,1.6499964E0,3.0216888E1,1.6059591E1,1.4157297E1,1.4883558E1,1.1760328E0,5.0902424E0,9.067055E0],"tree_param":{"num_deleted":"0","num_feature":"11","num_nodes":"17","size_leaf_vector":"1"}},{"base_weights":[-3.3585818E-3,-4.279454E-2,2.0524131E-1,1.7802423E-2,-1.587432E-1,-5.5727627E-2,3.6854744E-1,-4.6687283E-2,4.788198E-1,1.5611668E-1,-1.0110922E-2,1.833343E-2,-3.2302037E-1,1.8620189E-1,2.6196312E-2,7.2852485E-2,-1.1963373E-1,1.2928171E-1,-1.9558102E-1,9.20474E-2,-2.2513103E-2],"categories":[],"categories_nodes":[],"categories_segments":[],"categories_sizes":[],"default_left":[0,0,0,0,0,0,0,0,0,0,0,0,0,0,0,0,0,0,0,0,0],"id":20,"left_children":[1,3,5,7,-1,-1,9,11,13,-1,-1,15,17,-1,-1,19,-1,-1,-1,-1,-1],"loss_changes":[3.154783E-1,9.578645E-1,4.579705E-1,9.019111E-1,0E0,0E0,3.0082387E-1,4.8860812E-1,1.5235776E-1,0E0,0E0,5.451208E-1,1.5632608E0,0E0,0E0,7.46792E-1,0E0,0E0,0E0,0E0,0E0],"parents":[2147483647,0,0,1,1,2,2,3,3,6,6,7,7,8,8,11,11,12,12,15,15],"right_children":[2,4,6,8,-1,-1,10,12,14,-1,-1,16,18,-1,-1,20,-1,-1,-1,-1,-1],"split_conditions":[4.638E3,3.2028538E3,8.27E2,2.5170156E3,-1.587432E-1,-5.5727627E-2,1.9619686E3,1.755583E3,2E0,1.5611668E-1,-1.0110922E-2,4.552827E7,9.8039216E-1,1.8620189E-1,2.6196312E-2,6.25E-2,-1.1963373E-1,1.2928171E-1,-1.9558102E-1,9.20474E-2,-2.2513103E-2],"split_indices":[0,0,1,0,0,0,1,0,8,0,0,7,5,0,0,10,0,0,0,0,0],"split_type":[0,0,0,0,0,0,0,0,0,0,0,0,0,0,0,0,0,0,0,0,0],"sum_hessian":[3.6282097E1,3.1181973E1,5.1001253E0,2.8583937E1,2.5980349E0,1.4620606E0,3.6380649E0,2.5864584E1,2.7193537E0,2.4278913E0,1.2101736E0,2.1693739E1,4.1708455E0,1.566413E0,1.1529406E0,1.9915947E1,1.7777905E0,1.1726521E0,2.9981935E0,7.2971845E0,1.2618763E1],"tree_param":{"num_deleted":"0","num_feature":"11","num_nodes":"21","size_leaf_vector":"1"}},{"base_weights":[-1.9173344E-3,-8.45732E-2,2.3263082E-2,1.4665246E-1,-1.5414525E-2,-1.4830218E-1,1.6728388E-2,1.3654761E-1,-2.2014955E-2,3.1640336E-2,-2.006681E-1,6.401742E-2,-2.7848424E-2,-8.779989E-3,-1.37698E-1],"categories":[],"categories_nodes":[],"categories_segments":[],"categories_sizes":[],"default_left":[0,0,0,0,0,0,0,0,0,0,0,0,0,0,0],"id":21,"left_children":[1,-1,3,-1,5,-1,7,-1,9,11,13,-1,-1,-1,-1],"loss_changes":[2.6329547E-1,0E0,6.258028E-1,0E0,5.1119256E-1,0E0,5.464878E-1,0E0,2.9365164E-1,5.6078213E-1,2.9910758E-1,0E0,0E0,0E0,0E0],"parents":[2147483647,0,0,2,2,4,4,6,6,8,8,9,9,10,10],"right_children":[2,-1,4,-1,6,-1,8,-1,10,12,14,-1,-1,-1,-1],"split_conditions":[1.225E2,-8.45732E-2,2.18E2,1.4665246E-1,2.5881818E2,-1.4830218E-1,4.23E2,1.3654761E-1,5E-1,6.9365E4,6.7E1,6.401742E-2,-2.7848424E-2,-8.779989E-3,-1.37698E-1],"split_indices":[0,0,0,0,0,0,0,0,10,7,7,0,0,0,0],"split_type":[0,0,0,0,0,0,0,0,0,0,0,0,0,0,0],"sum_hessian":[3.541485E1,2.0808816E0,3.3333965E1,1.6640636E0,3.1669903E1,1.0874563E0,3.0582447E1,1.610422E0,2.8972025E1,2.2913313E1,6.0587106E0,9.023138E0,1.3890175E1,4.311367E0,1.7473435E0],"tree_param":{"num_deleted":"0","num_feature":"11","num_nodes":"15","size_leaf_vector":"1"}},{"base_weights":[-3.0731785E-3,3.0861102E-2,-2.1691734E-1,-1.695783E-2,3.7999955E-1,-1.6935611E-1,1.7358588E-1,2.48828E-2,-1.7618802E-1,1.5910581E-1,-3.2856076E-3,-3.2245822E-2,1.077311E-1,2.5357944E-1,-4.235701E-2,5.1005137E-1,-8.051973E-2,5.3916432E-2,-3.7333846E-1,2.9798748E-2,2.0769979E-1,-9.933152E-2,7.735047E-2,3.330524E-2,-7.083904E-2,-1.9121304E-1,-1.4120443E-2],"categories":[],"categories_nodes":[],"categories_segments":[],"categories_sizes":[],"default_left":[0,0,0,0,0,0,0,0,0,0,0,0,0,0,0,0,0,0,0,0,0,0,0,0,0,0,0],"id":22,"left_children":[1,3,5,7,9,-1,11,13,-1,-1,-1,-1,-1,15,17,19,21,23,25,-1,-1,-1,-1,-1,-1,-1,-1],"loss_changes":[2.6769716E-1,5.393115E-1,7.835395E-1,7.073484E-1,2.3432201E-1,0E0,2.0250085E-1,4.413835E-1,0E0,0E0,0E0,0E0,0E0,5.985563E-1,7.37041E-1,2.1699661E-1,3.9815754E-1,3.293447E-1,4.176076E-1,0E0,0E0,0E0,0E0,0E0,0E0,0E0,0E0],"parents":[2147483647,0,0,1,1,2,2,3,3,4,4,6,6,7,7,13,13,14,14,15,15,16,16,17,17,18,18],"right_children":[2,4,6,8,10,-1,12,14,-1,-1,-1,-1,-1,16,18,20,22,24,26,-1,-1,-1,-1,-1,-1,-1,-1],"split_conditions":[9.515269E-1,2.212245E1,2.03E3,2.6085957E3,9.4E2,-1.6935611E-1,1.0682727E3,1.4705882E-2,-1.7618802E-1,1.5910581E-1,-3.2856076E-3,-3.2245822E-2,1.077311E-1,6.577181E-1,9.247E4,9.8E1,8.703704E0,5.147059E0,3.9944024E7,2.9798748E-2,2.0769979E-1,-9.933152E-2,7.735047E-2,3.330524E-2,-7.083904E-2,-1.9121304E-1,-1.4120443E-2],"split_indices":[4,6,2,1,2,0,1,10,0,0,0,0,0,4,7,3,5,6,7,0,0,0,0,0,0,0,0],"split_type":[0,0,0,0,0,0,0,0,0,0,0,0,0,0,0,0,0,0,0,0,0,0,0,0,0,0,0],"sum_hessian":[3.496741E1,3.0916975E1,4.050437E0,2.802942E1,2.887555E0,1.9071666E0,2.1432705E0,2.700469E1,1.0247309E0,1.8279779E0,1.059577E0,1.0194105E0,1.12386E0,5.506083E0,2.1498608E1,2.8169775E0,2.6891053E0,1.73028E1,4.195809E0,1.3407893E0,1.4761883E0,1.5572398E0,1.1318654E0,1.497244E1,2.330359E0,1.792048E0,2.403761E0],"tree_param":{"num_deleted":"0","num_feature":"11","num_nodes":"27","size_leaf_vector":"1"}},{"base_weights":[-6.4292946E-3,-1.08130515E-1,1.5100714E-2,3.064582E-1,-2.386728E-2,-3.9707758E-2,2.124469E-1,-1.3685523E-1,1.54272765E-2,1.6357076E-1,-5.3265702E-2,2.8799438E-1,-8.338864E-2,-1.9762227E-1,1.5898728E-1,2.969016E-2,1.9080491E-1,-9.0805985E-2,4.5076534E-2,1.3372578E-1,4.6045952E-3],"categories":[],"categories_nodes":[],"categories_segments":[],"categories_sizes":[],"default_left":[0,0,0,0,0,0,0,0,0,0,0,0,0,0,0,0,0,0,0,0,0],"id":23,"left_children":[1,-1,3,5,7,-1,-1,-1,9,11,13,15,-1,17,19,-1,-1,-1,-1,-1,-1],"loss_changes":[2.7261344E-1,0E0,3.9338085E-1,8.1356204E-1,5.3230065E-1,0E0,0E0,0E0,3.06996E-1,6.036755E-1,6.681175E-1,4.5854062E-1,0E0,5.1382416E-1,3.6247003E-1,0E0,0E0,0E0,0E0,0E0,0E0],"parents":[2147483647,0,0,2,2,3,3,4,4,8,8,9,9,10,10,11,11,13,13,14,14],"right_children":[2,-1,4,6,8,-1,-1,-1,10,12,14,16,-1,18,20,-1,-1,-1,-1,-1,-1],"split_conditions":[8.666667E0,-1.08130515E-1,2.18E2,1.225E2,4.0425E2,-3.9707758E-2,2.124469E-1,-1.3685523E-1,5.545238E2,8.258064E0,2.5170156E3,4.0625E0,-8.338864E-2,1.148654E1,3.2028538E3,2.969016E-2,1.9080491E-1,-9.0805985E-2,4.5076534E-2,1.3372578E-1,4.6045952E-3],"split_indices":[1,0,0,0,0,0,0,0,1,6,0,6,0,5,0,0,0,0,0,0,0],"split_type":[0,0,0,0,0,0,0,0,0,0,0,0,0,0,0,0,0,0,0,0,0],"sum_hessian":[3.4053726E1,1.0498921E0,3.3003834E1,3.0836346E0,2.99202E1,1.7941717E0,1.2894629E0,1.6089764E0,2.8311224E1,8.531335E0,1.977989E1,6.9270406E0,1.6042948E0,1.1813961E1,7.9659286E0,5.3212104E0,1.60583E0,9.173367E0,2.640594E0,1.956537E0,6.009392E0],"tree_param":{"num_deleted":"0","num_feature":"11","num_nodes":"21","size_leaf_vector":"1"}},{"base_weights":[5.851525E-4,-1.2288912E-1,6.028617E-2,-3.208272E-2,-1.6004843E-1,4.3020666E-1,-1.2907739E-2,1.6889296E-1,-1.8007262E-1,2.1589819E-1,2.0124635E-2,-2.3908575E-1,7.6185286E-2,-1.23593554E-1,1.6598347E-1,2.9315231E-2,-1.4359573E-1,4.2320862E-2,-3.5240003E-1,1.8896715E-1,-1.7142653E-1,-9.3458705E-2,2.5273701E-2,-2.2290947E-1,1.2870826E-1,-5.351191E-1,9.162612E-3,-2.9715111E-2,2.839238E-1,-3.983127E-1,9.8616146E-2,-1.6983306E-1,4.325799E-2,-5.7452664E-2,-1.9525726E-1,8.452079E-2,-9.366393E-2,-2.7790563E-3,1.4300795E-1,-1.8702997E-1,-6.1297542E-3],"categories":[],"categories_nodes":[],"categories_segments":[],"categories_sizes":[],"default_left":[0,0,0,0,0,0,0,0,0,0,0,0,0,0,0,0,0,0,0,0,0,0,0,0,0,0,0,0,0,0,0,0,0,0,0,0,0,0,0,0,0],"id":24,"left_children":[1,3,5,7,-1,9,11,13,15,-1,-1,17,19,21,-1,23,-1,-1,25,27,29,-1,-1,31,-1,33,-1,35,37,39,-1,-1,-1,-1,-1,-1,-1,-1,-1,-1,-1],"loss_changes":[2.6151776E-1,4.1406304E-1,6.5286905E-1,3.4371644E-1,0E0,3.6986095E-1,4.3995798E-1,6.2863666E-1,4.23572E-1,0E0,0E0,3.1489897E-1,4.728776E-1,1.6871063E-1,0E0,5.7882303E-1,0E0,0E0,3.6818165E-1,2.4335033E-1,7.5056076E-1,0E0,0E0,5.3476053E-1,0E0,1.287961E-2,0E0,4.689589E-1,4.555661E-1,3.452736E-1,0E0,0E0,0E0,0E0,0E0,0E0,0E0,0E0,0E0,0E0,0E0],"parents":[2147483647,0,0,1,1,2,2,3,3,5,5,6,6,7,7,8,8,11,11,12,12,13,13,15,15,18,18,19,19,20,20,23,23,25,25,27,27,28,28,29,29],"right_children":[2,4,6,8,-1,10,12,14,16,-1,-1,18,20,22,-1,24,-1,-1,26,28,30,-1,-1,32,-1,34,-1,36,38,40,-1,-1,-1,-1,-1,-1,-1,-1,-1,-1,-1],"split_conditions":[4.3341666E2,2.563598E3,5.545238E2,3.125E-1,-1.6004843E-1,4E0,7.8789856E2,1.1320755E-1,1.5470909E2,2.1589819E-1,2.0124635E-2,1.9465E4,1.6057778E3,5.4E1,1.6598347E-1,8.4E1,-1.4359573E-1,4.2320862E-2,1.3333333E1,1.424E3,6.966892E3,-9.3458705E-2,2.5273701E-2,1.92E2,1.2870826E-1,5.555556E-1,9.162612E-3,1.0535E3,6.849315E-3,2.0971008E3,9.8616146E-2,-1.6983306E-1,4.325799E-2,-5.7452664E-2,-1.9525726E-1,8.452079E-2,-9.366393E-2,-2.7790563E-3,1.4300795E-1,-1.8702997E-1,-6.1297542E-3],"split_indices":[1,0,1,10,0,3,1,10,1,0,0,7,1,3,0,1,0,0,6,0,0,0,0,0,0,4,0,1,10,1,0,0,0,0,0,0,0,0,0,0,0],"split_type":[0,0,0,0,0,0,0,0,0,0,0,0,0,0,0,0,0,0,0,0,0,0,0,0,0,0,0,0,0,0,0,0,0,0,0,0,0,0,0,0,0],"sum_hessian":[3.347166E1,1.056422E1,2.290744E1,9.53391E0,1.0303113E0,2.9781754E0,1.9929266E1,3.9832559E0,5.5506535E0,1.1108435E0,1.8673319E0,5.15609E0,1.4773175E1,2.6473205E0,1.3359354E0,3.792717E0,1.7579366E0,1.127736E0,4.0283537E0,1.0312771E1,4.460405E0,1.1282359E0,1.5190846E0,2.5965674E0,1.1961495E0,2.4580956E0,1.5702583E0,3.3302872E0,6.9824834E0,3.208509E0,1.2518958E0,1.0617992E0,1.5347682E0,1.2882229E0,1.1698728E0,1.5852561E0,1.745031E0,3.14743E0,3.8350537E0,1.6034455E0,1.6050634E0],"tree_param":{"num_deleted":"0","num_feature":"11","num_nodes":"41","size_leaf_vector":"1"}},{"base_weights":[-3.8420476E-3,-6.073703E-2,9.045445E-2,-4.7694338E-3,-1.21606E-1,2.3900034E-1,-4.546385E-2,-7.0665196E-2,1.3748369E-1,1.6244812E-1,5.1720865E-2,2.3006319E-1,-3.146633E-1,4.0752795E-2,-3.2719082E-1,3.252426E-1,-7.046247E-2,2.867717E-1,-7.391004E-2,-3.849872E-2,3.804595E-1,-7.764358E-2,-1.5517163E-1,-9.28424E-2,1.3766448E-1,-1.588813E-1,2.7536022E-2,1.4453124E-1,9.852303E-3,1.2916079E-1,-3.306397E-3,-1.1637257E-2,1.8728869E-1,6.908176E-2,-1.0878319E-1,-5.8794644E-2,5.9249286E-2],"categories":[],"categories_nodes":[],"categories_segments":[],"categories_sizes":[],"default_left":[0,0,0,0,0,0,0,0,0,0,0,0,0,0,0,0,0,0,0,0,0,0,0,0,0,0,0,0,0,0,0,0,0,0,0,0,0],"id":25,"left_children":[1,3,5,7,-1,9,11,13,15,-1,17,19,21,23,25,27,-1,29,-1,-1,31,33,-1,35,-1,-1,-1,-1,-1,-1,-1,-1,-1,-1,-1,-1,-1],"loss_changes":[1.8456663E-1,4.1111973E-1,2.7257422E-1,1.9190183E-1,0E0,3.3190882E-1,6.367638E-1,4.118512E-1,5.302987E-1,0E0,4.2304537E-1,2.8264338E-1,1.6491058E-1,6.3529116E-1,4.1607162E-1,2.0091265E-1,0E0,1.4491928E-1,0E0,0E0,3.6237732E-1,3.594439E-1,0E0,3.0440664E-1,0E0,0E0,0E0,0E0,0E0,0E0,0E0,0E0,0E0,0E0,0E0,0E0,0E0],"parents":[2147483647,0,0,1,1,2,2,3,3,5,5,6,6,7,7,8,8,10,10,11,11,12,12,13,13,14,14,15,15,17,17,20,20,21,21,23,23],"right_children":[2,4,6,8,-1,10,12,14,16,-1,18,20,22,24,26,28,-1,30,-1,-1,32,34,-1,36,-1,-1,-1,-1,-1,-1,-1,-1,-1,-1,-1,-1,-1],"split_conditions":[4.7E1,2E0,6.535948E-3,9.5672095E2,-1.21606E-1,2.72066E5,5E1,6.273022E2,4.2927E4,1.6244812E-1,9.8E1,1.33E0,2.34498E5,4.3341666E2,8.135922E0,1.625562E3,-7.046247E-2,8.1958765E-1,-7.391004E-2,-3.849872E-2,4.7058824E-1,2.88E2,-1.5517163E-1,4E0,1.3766448E-1,-1.588813E-1,2.7536022E-2,1.4453124E-1,9.852303E-3,1.2916079E-1,-3.306397E-3,-1.1637257E-2,1.8728869E-1,6.908176E-2,-1.0878319E-1,-5.8794644E-2,5.9249286E-2],"split_indices":[3,8,10,1,0,7,2,1,7,0,3,6,7,1,6,1,0,4,0,0,5,2,0,3,0,0,0,0,0,0,0,0,0,0,0,0,0],"split_type":[0,0,0,0,0,0,0,0,0,0,0,0,0,0,0,0,0,0,0,0,0,0,0,0,0,0,0,0,0,0,0,0,0,0,0,0,0],"sum_hessian":[3.2377964E1,2.0415752E1,1.1962209E1,1.8435556E1,1.9801968E0,5.353226E0,6.6089826E0,1.2943155E1,5.492401E0,1.3237466E0,4.0294795E0,3.3379517E0,3.2710311E0,9.610233E0,3.3329227E0,3.7353923E0,1.7570086E0,2.274182E0,1.7552975E0,1.0300603E0,2.3078914E0,2.1448135E0,1.1262175E0,7.87278E0,1.7374531E0,2.069217E0,1.2637056E0,2.011151E0,1.7242413E0,1.2331191E0,1.041063E0,1.1579071E0,1.1499844E0,1.1231484E0,1.0216652E0,6.048954E0,1.823826E0],"tree_param":{"num_deleted":"0","num_feature":"11","num_nodes":"37","size_leaf_vector":"1"}},{"base_weights":[1.6413184E-3,2.98022E-2,-1.7592546E-1,-2.7760005E-2,2.5094673E-1,4.1175485E-2,-1.2869208E-1,1.8362069E-1,-7.67713E-2,3.6469585E-1,-2.5884844E-2,-7.1431965E-2,1.361534E-1,2.4337525E-2,-3.7870154E-1,4.7558564E-1,1.3836357E-2,5.9970792E-2,-8.456337E-2,1.9251543E-1,-7.690897E-2,5.518214E-3,-4.843343E-1,1.5646832E-2,2.0469576E-1,1.561657E-1,-1.7013313E-2,1.673472E-2,-1.5894224E-1,-5.7361487E-2,-1.872287E-1],"categories":[],"categories_nodes":[],"categories_segments":[],"categories_sizes":[],"default_left":[0,0,0,0,0,0,0,0,0,0,0,0,0,0,0,0,0,0,0,0,0,0,0,0,0,0,0,0,0,0,0],"id":26,"left_children":[1,3,5,7,9,-1,-1,11,13,15,-1,17,-1,19,21,23,-1,-1,-1,25,27,-1,29,-1,-1,-1,-1,-1,-1,-1,-1],"loss_changes":[1.6711274E-1,3.735163E-1,4.21517E-1,2.6013124E-1,2.6341817E-1,0E0,0E0,3.608143E-1,6.192728E-1,1.4455742E-1,0E0,2.4565092E-1,0E0,2.8571287E-1,2.2172755E-1,2.6104403E-1,0E0,0E0,0E0,5.416583E-1,6.6931903E-1,0E0,4.635018E-2,0E0,0E0,0E0,0E0,0E0,0E0,0E0,0E0],"parents":[2147483647,0,0,1,1,2,2,3,3,4,4,7,7,8,8,9,9,11,11,13,13,14,14,15,15,19,19,20,20,22,22],"right_children":[2,4,6,8,10,-1,-1,12,14,16,-1,18,-1,20,22,24,-1,-1,-1,26,28,-1,30,-1,-1,-1,-1,-1,-1,-1,-1],"split_conditions":[9.515269E-1,1.25703125E1,5.8754405E-4,1.4705882E-2,7.3E2,4.1175485E-2,-1.2869208E-1,7.1599046E-3,7.4759E4,3.3741E3,-2.5884844E-2,1.7089314E3,1.361534E-1,5E-1,6.246667E2,1.8018018E-2,1.3836357E-2,5.9970792E-2,-8.456337E-2,1.6666667E-1,2.6E2,5.518214E-3,6.25E-2,1.5646832E-2,2.0469576E-1,1.561657E-1,-1.7013313E-2,1.673472E-2,-1.5894224E-1,-5.7361487E-2,-1.872287E-1],"split_indices":[4,6,10,10,2,0,0,10,7,0,0,0,0,10,0,10,0,0,0,4,7,0,10,0,0,0,0,0,0,0,0],"split_type":[0,0,0,0,0,0,0,0,0,0,0,0,0,0,0,0,0,0,0,0,0,0,0,0,0,0,0,0,0,0,0],"sum_hessian":[3.1371128E1,2.7795166E1,3.5759604E0,2.2748405E1,5.0467615E0,1.802616E0,1.7733444E0,3.7647834E0,1.8983622E1,3.712927E0,1.3338345E0,2.315212E0,1.4495714E0,1.4910024E1,4.073598E0,2.3886342E0,1.3242929E0,1.0331887E0,1.2820232E0,5.264255E0,9.645769E0,1.0294707E0,3.044127E0,1.1944532E0,1.194181E0,1.8027574E0,3.4614978E0,8.138239E0,1.50753E0,1.7473639E0,1.2967632E0],"tree_param":{"num_deleted":"0","num_feature":"11","num_nodes":"31","size_leaf_vector":"1"}},{"base_weights":[8.004869E-4,1.9980801E-2,-7.363008E-2,-1.6570019E-2,1.3950981E-1,2.4801806E-2,-1.1565849E-1,-1.2114904E-2,1.22182034E-1,4.041675E-2,-1.8573095E-1,8.871028E-2,-1.4793638E-2,-1.4511546E-1,-1.6473817E-4],"categories":[],"categories_nodes":[],"categories_segments":[],"categories_sizes":[],"default_left":[0,0,0,0,0,0,0,0,0,0,0,0,0,0,0],"id":27,"left_children":[1,3,-1,5,-1,7,-1,9,-1,11,13,-1,-1,-1,-1],"loss_changes":[1.5411557E-1,4.9954143E-1,0E0,4.5079818E-1,0E0,3.8519126E-1,0E0,2.4036406E-1,0E0,4.8238036E-1,3.368648E-1,0E0,0E0,0E0,0E0],"parents":[2147483647,0,0,1,1,3,3,5,5,7,7,9,9,10,10],"right_children":[2,4,-1,6,-1,8,-1,10,-1,12,14,-1,-1,-1,-1],"split_conditions":[4.50298E1,1.424E3,-7.363008E-2,4.14E2,1.3950981E-1,9.69697E0,-1.1565849E-1,6.086956E-1,1.22182034E-1,6.25E-2,1.411839E3,8.871028E-2,-1.4793638E-2,-1.4511546E-1,-1.6473817E-4],"split_indices":[5,2,0,2,0,5,0,4,0,10,0,0,0,0,0],"split_type":[0,0,0,0,0,0,0,0,0,0,0,0,0,0,0],"sum_hessian":[3.0593578E1,2.9235168E1,1.3584085E0,2.7906092E1,1.3290778E0,2.5931171E1,1.9749206E0,2.4531664E1,1.3995066E0,1.9422216E1,5.1094465E0,4.454213E0,1.4968004E1,1.3404008E0,3.7690458E0],"tree_param":{"num_deleted":"0","num_feature":"11","num_nodes":"15","size_leaf_vector":"1"}},{"base_weights":[6.285804E-4,7.8546554E-2,-5.3171925E-2,-8.416741E-2,2.2278911E-1,-2.5949952E-1,2.9989254E-2,7.720899E-2,-1.4519916E-1,3.8026243E-1,-1.0773236E-1,2.6056293E-2,-4.2731068E-1,1.0495597E-1,-3.8514838E-2,-1.0929015E-1,1.3723917E-1,5.1265466E-1,-1.4320937E-2,-6.4206466E-2,1.6037317E-2,-1.6681656E-1,-2.7307685E-2,-1.1277103E-1,9.210615E-2,-9.3596034E-2,8.423205E-2,1.8658389E-1,4.43812E-2,-1.8957515E-1,6.656274E-2,5.393463E-2,-1.3401108E-2,-1.00988775E-1,2.3674587E-2],"categories":[],"categories_nodes":[],"categories_segments":[],"categories_sizes":[],"default_left":[0,0,0,0,0,0,0,0,0,0,0,0,0,0,0,0,0,0,0,0,0,0,0,0,0,0,0,0,0,0,0,0,0,0,0],"id":28,"left_children":[1,3,5,7,9,11,13,15,-1,17,19,-1,21,-1,23,25,-1,27,-1,-1,-1,-1,-1,29,-1,-1,31,-1,-1,33,-1,-1,-1,-1,-1],"loss_changes":[1.3478525E-1,3.2690609E-1,3.342544E-1,4.822905E-1,4.174852E-1,3.6082086E-1,3.3026657E-1,4.5955244E-1,0E0,3.1461376E-1,6.4785935E-2,0E0,1.1912781E-1,0E0,3.632564E-1,2.0993288E-1,0E0,6.726956E-2,0E0,0E0,0E0,0E0,0E0,3.3182696E-1,0E0,0E0,4.722941E-2,0E0,0E0,4.0989E-1,0E0,0E0,0E0,0E0,0E0],"parents":[2147483647,0,0,1,1,2,2,3,3,4,4,5,5,6,6,7,7,9,9,10,10,12,12,14,14,15,15,17,17,23,23,26,26,29,29],"right_children":[2,4,6,8,10,12,14,16,-1,18,20,-1,22,-1,24,26,-1,28,-1,-1,-1,-1,-1,30,-1,-1,32,-1,-1,34,-1,-1,-1,-1,-1],"split_conditions":[1.1425E3,3.449709E2,1.5964192E3,4.23E2,5E-1,7E0,1.755583E3,2.52E2,-1.4519916E-1,2.855785E6,8.4455E2,2.6056293E-2,7.732394E0,1.0495597E-1,1.7355488E8,2.7E1,1.3723917E-1,1.67E2,-1.4320937E-2,-6.4206466E-2,1.6037317E-2,-1.6681656E-1,-2.7307685E-2,2.5E1,9.210615E-2,-9.3596034E-2,2E0,1.8658389E-1,4.43812E-2,1.3007097E3,6.656274E-2,5.393463E-2,-1.3401108E-2,-1.00988775E-1,2.3674587E-2],"split_indices":[0,1,0,0,10,3,0,0,0,7,1,0,6,0,7,1,0,2,0,0,0,0,0,8,0,0,3,0,0,1,0,0,0,0,0],"split_type":[0,0,0,0,0,0,0,0,0,0,0,0,0,0,0,0,0,0,0,0,0,0,0,0,0,0,0,0,0,0,0,0,0,0,0],"sum_hessian":[3.0156473E1,1.2129562E1,1.802691E1,5.8955393E0,6.234023E0,4.569438E0,1.3457474E1,4.7751307E0,1.1204083E0,4.120408E0,2.1136153E0,1.6488084E0,2.9206295E0,1.6493193E0,1.1808154E1,3.6818998E0,1.093231E0,2.995897E0,1.1245109E0,1.0762044E0,1.0374109E0,1.6394525E0,1.2811769E0,1.0273907E1,1.5342479E0,1.4993352E0,2.1825647E0,1.7624706E0,1.2334265E0,8.708697E0,1.5652089E0,1.0267571E0,1.1558076E0,5.462864E0,3.2458336E0],"tree_param":{"num_deleted":"0","num_feature":"11","num_nodes":"35","size_leaf_vector":"1"}},{"base_weights":[4.6090875E-3,4.8975173E-2,-1.12093754E-1,1.4317615E-3,2.8687918E-1,-1.1020243E-1,1.3009283E-2,6.694685E-2,-1.3546285E-1,1.2950884E-1,-7.400668E-3,1.3067229E-1,-1.4419594E-1,-8.213358E-2,1.7462644E-1,5.2919567E-2,-2.4953814E-1,1.2669164E-1,-3.7130198E-1,1.6610718E-1,6.0246814E-2,-2.551028E-2,-1.5209466E-1,-3.4442402E-2,1.24196015E-1,-2.5256367E-2,-1.66927E-1,-3.3812974E-2,9.646178E-2,3.996687E-2,-4.8702262E-2],"categories":[],"categories_nodes":[],"categories_segments":[],"categories_sizes":[],"default_left":[0,0,0,0,0,0,0,0,0,0,0,0,0,0,0,0,0,0,0,0,0,0,0,0,0,0,0,0,0,0,0],"id":29,"left_children":[1,3,5,7,9,-1,11,13,-1,-1,-1,-1,15,17,19,-1,21,23,25,-1,27,29,-1,-1,-1,-1,-1,-1,-1,-1,-1],"loss_changes":[1.6363592E-1,2.5777638E-1,2.8314334E-1,6.24645E-1,1.8195748E-1,0E0,5.155827E-1,3.0923003E-1,0E0,0E0,0E0,0E0,2.3716205E-1,5.533123E-1,4.429525E-1,0E0,2.59219E-1,4.3702996E-1,1.5353918E-1,0E0,4.683398E-1,9.929903E-2,0E0,0E0,0E0,0E0,0E0,0E0,0E0,0E0,0E0],"parents":[2147483647,0,0,1,1,2,2,3,3,4,4,6,6,7,7,12,12,13,13,14,14,16,16,17,17,18,18,20,20,21,21],"right_children":[2,4,6,8,10,-1,12,14,-1,-1,-1,-1,16,18,20,-1,22,24,26,-1,28,30,-1,-1,-1,-1,-1,-1,-1,-1,-1],"split_conditions":[6.31688E5,1.0016E1,3.101852E0,6.4347825E0,6.9444445E-3,-1.1020243E-1,3.773585E-1,4.60375E2,-1.3546285E-1,1.2950884E-1,-7.400668E-3,1.3067229E-1,1.1425E3,1.7266667E2,5.740238E2,5.2919567E-2,2E0,8.4E1,2.7636364E0,1.6610718E-1,1.2E1,1.0958526E1,-1.5209466E-1,-3.4442402E-2,1.24196015E-1,-2.5256367E-2,-1.66927E-1,-3.3812974E-2,9.646178E-2,3.996687E-2,-4.8702262E-2],"split_indices":[7,5,6,5,10,0,4,1,0,0,0,0,0,1,1,0,8,1,6,0,2,5,0,0,0,0,0,0,0,0,0],"split_type":[0,0,0,0,0,0,0,0,0,0,0,0,0,0,0,0,0,0,0,0,0,0,0,0,0,0,0,0,0,0,0],"sum_hessian":[2.9544008E1,2.1826664E1,7.717344E0,1.9029728E1,2.7969365E0,1.901468E0,5.815876E0,1.7369701E1,1.6600263E0,1.6461214E0,1.1508151E0,1.0968431E0,4.719033E0,7.38397E0,9.985731E0,1.0002823E0,3.7187505E0,4.613889E0,2.7700806E0,1.4243839E0,8.561347E0,2.57611E0,1.1426406E0,2.832923E0,1.7809662E0,1.656187E0,1.1138934E0,5.4936156E0,3.0677319E0,1.2048105E0,1.3712994E0],"tree_param":{"num_deleted":"0","num_feature":"11","num_nodes":"31","size_leaf_vector":"1"}},{"base_weights":[4.168435E-3,3.7027843E-2,-1.840755E-1,-1.11572705E-2,3.6218718E-1,-3.7719017E-1,7.103665E-2,-1.8286663E-1,6.888032E-2,1.6015452E-1,1.3154652E-3,-1.2734713E-2,-1.6463313E-1,6.780755E-2,-5.2980804E-1,2.800936E-1,-3.781446E-2,-6.844223E-2,2.3410018E-1,-3.8293563E-2,-2.0656176E-1,2.9022698E-3,4.2319936E-1,-2.4686535E-1,1.05919994E-1,1.1241175E-1,-1.2745471E-2,3.396417E-2,1.562526E-1,4.7035646E-2,-1.14050806E-1,-3.1324375E-2,9.203305E-2],"categories":[],"categories_nodes":[],"categories_segments":[],"categories_sizes":[],"default_left":[0,0,0,0,0,0,0,0,0,0,0,0,0,0,0,0,0,0,0,0,0,0,0,0,0,0,0,0,0,0,0,0,0],"id":30,"left_children":[1,3,5,7,9,11,-1,13,15,-1,-1,-1,-1,17,19,21,23,-1,25,-1,-1,-1,27,29,31,-1,-1,-1,-1,-1,-1,-1,-1],"loss_changes":[1.9055538E-1,4.133233E-1,4.6171808E-1,3.3859995E-1,2.06572E-1,1.792571E-1,0E0,7.1560985E-1,3.9157158E-1,0E0,0E0,0E0,0E0,3.2032564E-1,1.2861788E-1,2.2007954E-1,3.9011896E-1,0E0,1.7015494E-1,0E0,0E0,0E0,5.4983974E-2,3.4131455E-1,3.6483917E-1,0E0,0E0,0E0,0E0,0E0,0E0,0E0,0E0],"parents":[2147483647,0,0,1,1,2,2,3,3,4,4,5,5,7,7,8,8,13,13,14,14,15,15,16,16,18,18,22,22,23,23,24,24],"right_children":[2,4,6,8,10,12,-1,14,16,-1,-1,-1,-1,18,20,22,24,-1,26,-1,-1,-1,28,30,32,-1,-1,-1,-1,-1,-1,-1,-1],"split_conditions":[1.662862E3,1.3437693E3,6.490975E3,7.762238E-1,7.5E-1,3.448276E-2,7.103665E-2,6.279537E2,2.2222222E-1,1.6015452E-1,1.3154652E-3,-1.2734713E-2,-1.6463313E-1,1.92E2,4.7980328E2,6.6015E2,3.127451E0,-6.844223E-2,2.738909E2,-3.8293563E-2,-2.0656176E-1,2.9022698E-3,4.93E2,2.5E0,7.8789856E2,1.1241175E-1,-1.2745471E-2,3.396417E-2,1.562526E-1,4.7035646E-2,-1.14050806E-1,-3.1324375E-2,9.203305E-2],"split_indices":[1,1,0,6,5,10,0,0,4,0,0,0,0,0,1,0,5,0,0,0,0,0,1,6,1,0,0,0,0,0,0,0,0],"split_type":[0,0,0,0,0,0,0,0,0,0,0,0,0,0,0,0,0,0,0,0,0,0,0,0,0,0,0,0,0,0,0,0,0],"sum_hessian":[2.8704462E1,2.5122446E1,3.5820155E0,2.272111E1,2.4013371E0,2.5264978E0,1.0555176E0,6.815232E0,1.5905877E1,1.2902831E0,1.1110541E0,1.2789137E0,1.2475841E0,4.423613E0,2.391619E0,4.792817E0,1.111306E1,1.457608E0,2.966005E0,1.1873912E0,1.2042277E0,2.0280743E0,2.764743E0,4.235433E0,6.877627E0,1.7311795E0,1.2348256E0,1.1795388E0,1.5852041E0,1.0077544E0,3.2276788E0,3.594094E0,3.283533E0],"tree_param":{"num_deleted":"0","num_feature":"11","num_nodes":"33","size_leaf_vector":"1"}},{"base_weights":[3.5564543E-3,2.3296965E-2,-7.462842E-2,8.443768E-2,-9.777252E-2,1.16949625E-1,2.6192734E-2,-2.7408028E-1,7.0221476E-2,-1.106963E-1,7.8052446E-2,-1.4828582E-1,-5.9334454E-3,9.908185E-2,-1.1303904E-1,1.4118728E-1,1.20166605E-2,-9.8096594E-2,9.3263775E-2,4.467797E-2,-1.1071212E-1,-1.3527988E-1,2.8542323E-2],"categories":[],"categories_nodes":[],"categories_segments":[],"categories_sizes":[],"default_left":[0,0,0,0,0,0,0,0,0,0,0,0,0,0,0,0,0,0,0,0,0,0,0],"id":31,"left_children":[1,3,-1,5,7,-1,9,11,13,-1,15,-1,17,-1,19,-1,21,-1,-1,-1,-1,-1,-1],"loss_changes":[1.5029709E-1,2.1419123E-1,0E0,3.2814574E-1,3.0946803E-1,0E0,3.7816465E-1,2.9141638E-1,3.14396E-1,0E0,4.0640342E-1,0E0,4.332371E-1,0E0,3.3363333E-1,0E0,6.0599446E-1,0E0,0E0,0E0,0E0,0E0,0E0],"parents":[2147483647,0,0,1,1,3,3,4,4,6,6,7,7,8,8,10,10,12,12,14,14,16,16],"right_children":[2,4,-1,6,8,-1,10,12,14,-1,16,-1,18,-1,20,-1,22,-1,-1,-1,-1,-1,-1],"split_conditions":[2.6085957E3,6.5882355E-1,-7.462842E-2,1.4705882E-2,1.0016E1,1.16949625E-1,2.4390243E-2,8.27E2,1.886718E1,-1.106963E-1,6.25E-2,-1.4828582E-1,8.496176E-3,9.908185E-2,6.510417E-4,1.4118728E-1,1.1320755E-1,-9.8096594E-2,9.3263775E-2,4.467797E-2,-1.1071212E-1,-1.3527988E-1,2.8542323E-2],"split_indices":[1,4,0,10,5,0,10,1,5,0,10,0,10,0,10,0,10,0,0,0,0,0,0],"split_type":[0,0,0,0,0,0,0,0,0,0,0,0,0,0,0,0,0,0,0,0,0,0,0],"sum_hessian":[2.8011257E1,2.6820572E1,1.1906843E0,1.8021957E1,8.7986145E0,1.9747614E0,1.6047197E1,3.984958E0,4.813657E0,1.1521899E0,1.4895007E1,1.7250133E0,2.2599447E0,1.6582928E0,3.1553638E0,1.2625501E0,1.3632457E1,1.1065037E0,1.1534408E0,1.7662365E0,1.3891273E0,1.4016079E0,1.2230849E1],"tree_param":{"num_deleted":"0","num_feature":"11","num_nodes":"23","size_leaf_vector":"1"}},{"base_weights":[-3.1949873E-3,-4.548349E-2,1.0884689E-1,4.392974E-2,-1.9865885E-1,9.323183E-2,-9.250198E-3,2.9239994E-1,-3.845067E-2,-1.8139675E-1,-2.4228144E-2,1.7667271E-1,-2.0649855E-1,1.2031311E-1,3.981774E-3,1.0642723E-1,-2.0637964E-1,9.360419E-2,-1.74209E-1,8.687298E-2,-2.2045183E-3,-8.252529E-2,-9.7598145E-3,-1.23130545E-1,1.29906E-1,-3.4934053E-1,5.7109986E-2,-3.4009284E-1,3.0731233E-2,-9.252764E-2,4.3534465E-2,-2.0569883E-2,-1.7246732E-1,-6.1252934E-4,-1.4289013E-1],"categories":[],"categories_nodes":[],"categories_segments":[],"categories_sizes":[],"default_left":[0,0,0,0,0,0,0,0,0,0,0,0,0,0,0,0,0,0,0,0,0,0,0,0,0,0,0,0,0,0,0,0,0,0,0],"id":32,"left_children":[1,3,5,7,9,-1,11,13,15,-1,17,19,21,-1,-1,23,25,-1,27,-1,-1,-1,-1,29,-1,31,-1,33,-1,-1,-1,-1,-1,-1,-1],"loss_changes":[1.3930066E-1,3.003251E-1,1.9518626E-1,3.0318147E-1,5.5391395E-1,0E0,2.5870407E-1,1.0589567E-1,3.0405942E-1,0E0,3.9009225E-1,7.8134075E-2,3.1633615E-2,0E0,0E0,5.6945807E-1,3.90396E-1,0E0,2.7556616E-1,0E0,0E0,0E0,0E0,2.84403E-1,0E0,2.4876392E-1,0E0,1.6068125E-1,0E0,0E0,0E0,0E0,0E0,0E0,0E0],"parents":[2147483647,0,0,1,1,2,2,3,3,4,4,6,6,7,7,8,8,10,10,11,11,12,12,15,15,16,16,18,18,23,23,25,25,27,27],"right_children":[2,4,6,8,10,-1,12,14,16,-1,18,20,22,-1,-1,24,26,-1,28,-1,-1,-1,-1,30,-1,32,-1,34,-1,-1,-1,-1,-1,-1,-1],"split_conditions":[9.7E1,8E0,1.4444444E0,1.9298245E-1,1.1E1,9.323183E-2,5.6497175E-3,6.1206E4,6.04E2,-1.8139675E-1,7.2314E4,7.89327E5,7.533784E0,1.2031311E-1,3.981774E-3,2.5881818E2,1.287825E3,9.360419E-2,2.4448271E3,8.687298E-2,-2.2045183E-3,-8.252529E-2,-9.7598145E-3,8.4E1,1.29906E-1,5.545238E2,5.7109986E-2,5.5784296E2,3.0731233E-2,-9.252764E-2,4.3534465E-2,-2.0569883E-2,-1.7246732E-1,-6.1252934E-4,-1.4289013E-1],"split_indices":[3,3,5,10,3,0,10,7,0,0,7,7,5,0,0,0,1,0,0,0,0,0,0,1,0,1,0,1,0,0,0,0,0,0,0],"split_type":[0,0,0,0,0,0,0,0,0,0,0,0,0,0,0,0,0,0,0,0,0,0,0,0,0,0,0,0,0,0,0,0,0,0,0],"sum_hessian":[2.7355335E1,2.0290895E1,7.0644403E0,1.3262416E1,7.028479E0,2.0049007E0,5.05954E0,2.6674993E0,1.0594917E1,1.3709848E0,5.6574945E0,2.658241E0,2.401299E0,1.6057302E0,1.0617692E0,5.884446E0,4.7104707E0,1.4118681E0,4.2456264E0,1.2919658E0,1.3662751E0,1.3053946E0,1.0959042E0,3.821411E0,2.0630352E0,3.5505688E0,1.1599019E0,2.5107682E0,1.734858E0,2.1715732E0,1.6498379E0,2.1625438E0,1.388025E0,1.0126014E0,1.4981668E0],"tree_param":{"num_deleted":"0","num_feature":"11","num_nodes":"35","size_leaf_vector":"1"}},{"base_weights":[-4.8163445E-3,2.9062193E-2,-1.9335897E-1,-7.1248165E-3,1.1037633E-1,-3.8728157E-1,5.914661E-2,2.1268625E-2,-7.5962335E-2,-1.5143186E-1,-2.9530158E-2,-1.2559846E-2,1.06334805E-1,2.5015995E-2,-9.876313E-2,6.9701985E-2,-1.3728453E-2],"categories":[],"categories_nodes":[],"categories_segments":[],"categories_sizes":[],"default_left":[0,0,0,0,0,0,0,0,0,0,0,0,0,0,0,0,0],"id":33,"left_children":[1,3,5,7,-1,9,-1,11,-1,-1,-1,13,-1,15,-1,-1,-1],"loss_changes":[1.816462E-1,2.9973185E-1,4.0412614E-1,1.6520071E-1,0E0,5.9909254E-2,0E0,2.4598011E-1,0E0,0E0,0E0,2.5119838E-1,0E0,2.921218E-1,0E0,0E0,0E0],"parents":[2147483647,0,0,1,1,2,2,3,3,5,5,7,7,11,11,13,13],"right_children":[2,4,6,8,-1,10,-1,12,-1,-1,-1,14,-1,16,-1,-1,-1],"split_conditions":[1.662862E3,1.404E3,5.4786235E3,1.2491532E3,1.1037633E-1,2.0971008E3,5.914661E-2,1.1374747E3,-7.5962335E-2,-1.5143186E-1,-2.9530158E-2,9.5566505E-1,1.06334805E-1,1.4705882E-2,-9.876313E-2,6.9701985E-2,-1.3728453E-2],"split_indices":[1,1,0,1,0,1,0,1,0,0,0,4,0,10,0,0,0],"split_type":[0,0,0,0,0,0,0,0,0,0,0,0,0,0,0,0,0],"sum_hessian":[2.6557795E1,2.322961E1,3.3281853E0,2.1872772E1,1.3568368E0,2.2293882E0,1.0987971E0,2.0429192E1,1.4435811E0,1.053378E0,1.1760101E0,1.941977E1,1.0094229E0,1.8183046E1,1.2367219E0,4.0466824E0,1.4136365E1],"tree_param":{"num_deleted":"0","num_feature":"11","num_nodes":"17","size_leaf_vector":"1"}},{"base_weights":[-4.4333446E-3,4.1761626E-2,-1.252417E-1,-3.197397E-2,1.6421144E-1,-1.0040475E-1,-1.2930596E-2,5.7286214E-2,-1.6376603E-1,3.071341E-1,1.6542437E-2,1.016147E-1,-1.6811979E-1,2.797013E-1,-2.1895671E-2,1.2489882E-1,5.1928726E-3,-1.7292146E-1,6.962858E-2,-1.3246365E-1,2.0958116E-2,1.0742741E-1,2.1361709E-2,-1.3042939E-1,1.10043414E-1,-7.7496186E-2,-2.9757915E-3,7.92065E-2,-6.627982E-2,1.9040303E-2,-1.4517424E-1,1.3567933E-1,-3.0964026E-2],"categories":[],"categories_nodes":[],"categories_segments":[],"categories_sizes":[],"default_left":[0,0,0,0,0,0,0,0,0,0,0,0,0,0,0,0,0,0,0,0,0,0,0,0,0,0,0,0,0,0,0,0,0],"id":34,"left_children":[1,3,5,7,9,-1,11,13,-1,15,17,-1,19,21,23,-1,-1,25,-1,-1,27,-1,-1,29,31,-1,-1,-1,-1,-1,-1,-1,-1],"loss_changes":[1.5715095E-1,1.8982182E-1,1.7867899E-1,6.549528E-1,1.6051377E-1,0E0,3.9007938E-1,2.2607358E-1,0E0,1.17174864E-1,2.4089769E-1,0E0,2.6276731E-1,2.9279083E-2,1.5952192E-1,0E0,0E0,4.1833997E-2,0E0,0E0,2.8490657E-1,0E0,0E0,4.4330597E-1,4.201851E-1,0E0,0E0,0E0,0E0,0E0,0E0,0E0,0E0],"parents":[2147483647,0,0,1,1,2,2,3,3,4,4,6,6,7,7,9,9,10,10,12,12,13,13,14,14,17,17,20,20,23,23,24,24],"right_children":[2,4,6,8,10,-1,12,14,-1,16,18,-1,20,22,24,-1,-1,26,-1,-1,28,-1,-1,30,32,-1,-1,-1,-1,-1,-1,-1,-1],"split_conditions":[6.31688E5,1.1E1,3.101852E0,8E0,2.1E1,-1.0040475E-1,1.1425E3,2.2222222E-1,-1.6376603E-1,1.9718625E3,6.831667E2,1.016147E-1,2.80456E6,8E0,4.3341666E2,1.2489882E-1,5.1928726E-3,2.4390243E-2,6.962858E-2,-1.3246365E-1,1.0958526E1,1.0742741E-1,2.1361709E-2,1.5470909E2,6.454E2,-7.7496186E-2,-2.9757915E-3,7.92065E-2,-6.627982E-2,1.9040303E-2,-1.4517424E-1,1.3567933E-1,-3.0964026E-2],"split_indices":[7,3,6,3,8,0,0,10,0,0,1,0,7,2,1,0,0,10,0,0,5,0,0,1,1,0,0,0,0,0,0,0,0],"split_type":[0,0,0,0,0,0,0,0,0,0,0,0,0,0,0,0,0,0,0,0,0,0,0,0,0,0,0,0,0,0,0,0,0],"sum_hessian":[2.622232E1,1.944226E1,6.78006E0,1.259613E1,6.8461304E0,1.6755292E0,5.104531E0,1.14891405E1,1.10699E0,2.9302151E0,3.915915E0,1.2008662E0,3.9036646E0,2.3515236E0,9.137617E0,1.8112968E0,1.1189184E0,2.1893365E0,1.7265785E0,1.0500007E0,2.853664E0,1.1875343E0,1.1639894E0,5.0197716E0,4.117845E0,1.0529258E0,1.1364107E0,1.3777469E0,1.475917E0,3.771462E0,1.2483096E0,1.1506327E0,2.9672124E0],"tree_param":{"num_deleted":"0","num_feature":"11","num_nodes":"33","size_leaf_vector":"1"}},{"base_weights":[-5.712181E-3,2.5431408E-2,-1.7026497E-1,-1.7183082E-2,9.988677E-2,-3.4375593E-1,5.5379674E-2,-1.650413E-1,5.7235226E-2,-1.6436227E-2,-1.4496423E-1,4.2321157E-2,-4.6123326E-1,2.4781942E-1,-4.0517103E-2,-5.812664E-2,1.7740372E-1,-3.454125E-2,-1.7865315E-1,4.7822064E-3,1.1378918E-1,-2.067658E-1,7.633174E-2,9.1948204E-2,-1.9876212E-2,9.785106E-3,-1.16127774E-1,-1.4288783E-2,9.268013E-2],"categories":[],"categories_nodes":[],"categories_segments":[],"categories_sizes":[],"default_left":[0,0,0,0,0,0,0,0,0,0,0,0,0,0,0,0,0,0,0,0,0,0,0,0,0,0,0,0,0],"id":35,"left_children":[1,3,5,7,-1,9,-1,11,13,-1,-1,15,17,19,21,-1,23,-1,-1,-1,-1,25,27,-1,-1,-1,-1,-1,-1],"loss_changes":[1.3999224E-1,3.0882835E-1,3.308214E-1,2.4343333E-1,0E0,1.05148435E-1,0E0,4.7261173E-1,2.8740537E-1,0E0,0E0,2.0195897E-1,7.65177E-2,1.5211618E-1,2.2364326E-1,0E0,1.4186239E-1,0E0,0E0,0E0,0E0,2.1491233E-1,2.1695332E-1,0E0,0E0,0E0,0E0,0E0,0E0],"parents":[2147483647,0,0,1,1,2,2,3,3,5,5,7,7,8,8,11,11,12,12,13,13,14,14,16,16,21,21,22,22],"right_children":[2,4,6,8,-1,10,-1,12,14,-1,-1,16,18,20,22,-1,24,-1,-1,-1,-1,26,28,-1,-1,-1,-1,-1,-1],"split_conditions":[1.6057778E3,1.3437693E3,6.490975E3,7.762238E-1,9.988677E-2,3.448276E-2,5.5379674E-2,6.279537E2,2.2222222E-1,-1.6436227E-2,-1.4496423E-1,1.92E2,4.7980328E2,6.6015E2,3.127451E0,-5.812664E-2,2.738909E2,-3.454125E-2,-1.7865315E-1,4.7822064E-3,1.1378918E-1,9.8039216E-1,2.5939827E3,9.1948204E-2,-1.9876212E-2,9.785106E-3,-1.16127774E-1,-1.4288783E-2,9.268013E-2],"split_indices":[1,1,0,6,0,10,0,0,4,0,0,0,1,0,5,0,0,0,0,0,0,5,0,0,0,0,0,0,0],"split_type":[0,0,0,0,0,0,0,0,0,0,0,0,0,0,0,0,0,0,0,0,0,0,0,0,0,0,0,0,0],"sum_hessian":[2.5471878E1,2.2129128E1,3.342751E0,2.0265066E1,1.8640602E0,2.2661467E0,1.0766045E0,6.3770523E0,1.3888015E1,1.1910515E0,1.0750953E0,4.2551556E0,2.1218967E0,4.1878796E0,9.700135E0,1.3905743E0,2.8645813E0,1.112338E0,1.0095588E0,1.9210657E0,2.266814E0,3.6861238E0,6.0140114E0,1.7039424E0,1.1606388E0,1.9356636E0,1.7504603E0,4.441974E0,1.5720369E0],"tree_param":{"num_deleted":"0","num_feature":"11","num_nodes":"29","size_leaf_vector":"1"}},{"base_weights":[-9.010849E-3,1.0118573E-2,-7.083552E-2,7.315194E-2,-1.15041025E-1,1.4057652E-2,1.0353618E-1,-2.7635553E-1,4.0406927E-2,-1.4716654E-1,1.4293402E-1,-1.3014346E-1,-1.4001294E-2,2.1090515E-1,-5.3157087E-2,3.234008E-2,-1.236077E-1,2.8826776E-1,4.319738E-2,1.1264258E-1,-5.217891E-3,-4.8474323E-2,4.288481E-2,-7.956529E-3,1.3153093E-1,6.0405824E-2,-4.847101E-2],"categories":[],"categories_nodes":[],"categories_segments":[],"categories_sizes":[],"default_left":[0,0,0,0,0,0,0,0,0,0,0,0,0,0,0,0,0,0,0,0,0,0,0,0,0,0,0],"id":36,"left_children":[1,3,-1,5,7,9,-1,11,13,15,17,-1,-1,19,-1,21,-1,23,25,-1,-1,-1,-1,-1,-1,-1,-1],"loss_changes":[1.1518543E-1,2.048989E-1,0E0,2.7117807E-1,2.3009224E-1,3.3585432E-1,0E0,1.3931295E-1,2.3468727E-1,3.567707E-1,1.1695728E-1,0E0,0E0,1.3572061E-1,0E0,1.3533996E-1,0E0,1.750507E-1,2.4208723E-1,0E0,0E0,0E0,0E0,0E0,0E0,0E0,0E0],"parents":[2147483647,0,0,1,1,3,3,4,4,5,5,7,7,8,8,9,9,10,10,13,13,15,15,17,17,18,18],"right_children":[2,4,-1,6,8,10,-1,12,14,16,18,-1,-1,20,-1,22,-1,24,26,-1,-1,-1,-1,-1,-1,-1,-1],"split_conditions":[2.6085957E3,6.5882355E-1,-7.083552E-2,1.2928889E3,1.0016E1,7.762238E-1,1.0353618E-1,8.27E2,2.227971E6,6.279537E2,1.5742574E0,-1.3014346E-1,-1.4001294E-2,8E2,-5.3157087E-2,1.92E2,-1.236077E-1,2.3747058E2,6.25E-2,1.1264258E-1,-5.217891E-3,-4.8474323E-2,4.288481E-2,-7.956529E-3,1.3153093E-1,6.0405824E-2,-4.847101E-2],"split_indices":[1,4,0,1,5,6,0,1,7,0,6,0,0,2,0,0,0,1,10,0,0,0,0,0,0,0,0],"split_type":[0,0,0,0,0,0,0,0,0,0,0,0,0,0,0,0,0,0,0,0,0,0,0,0,0,0,0],"sum_hessian":[2.4963379E1,2.3905268E1,1.0581111E0,1.6174788E1,7.7304797E0,1.4151573E1,2.0232146E0,3.4119563E0,4.3185234E0,6.22375E0,7.9278235E0,1.4969928E0,1.9149634E0,2.4385514E0,1.879972E0,4.2328553E0,1.9908944E0,2.4571042E0,5.4707193E0,1.042435E0,1.3961165E0,1.3700482E0,2.8628073E0,1.0595082E0,1.3975961E0,3.0960848E0,2.3746345E0],"tree_param":{"num_deleted":"0","num_feature":"11","num_nodes":"27","size_leaf_vector":"1"}},{"base_weights":[-8.586355E-3,4.1057497E-2,-9.721799E-2,-2.214967E-2,2.4907097E-1,1.05845824E-1,-1.8022685E-1,6.0414456E-2,-3.2035404E-1,1.3428345E-1,-4.717144E-3,-2.744228E-2,8.155591E-2,-1.1840918E-1,-1.6009636E-2,2.3865709E-1,-2.6032032E-2,-1.6393572E-2,-1.3474211E-1,6.651901E-2,-2.1013038E-1,1.21002354E-1,1.2377208E-2,4.035549E-2,-7.9747684E-2,1.639803E-2,-1.1609882E-1,-5.1802438E-2,4.3588445E-2],"categories":[],"categories_nodes":[],"categories_segments":[],"categories_sizes":[],"default_left":[0,0,0,0,0,0,0,0,0,0,0,0,0,0,0,0,0,0,0,0,0,0,0,0,0,0,0,0,0],"id":37,"left_children":[1,3,5,7,9,11,13,15,17,-1,-1,-1,-1,-1,19,21,23,-1,-1,-1,25,-1,-1,27,-1,-1,-1,-1,-1],"loss_changes":[1.1607178E-1,2.2943327E-1,1.782343E-1,3.635541E-1,2.1998724E-1,1.3525087E-1,2.4276754E-1,1.8787733E-1,8.461779E-2,0E0,0E0,0E0,0E0,0E0,2.7954543E-1,1.1173232E-1,1.5147063E-1,0E0,0E0,0E0,1.753349E-1,0E0,0E0,1.9928718E-1,0E0,0E0,0E0,0E0,0E0],"parents":[2147483647,0,0,1,1,2,2,3,3,4,4,5,5,6,6,7,7,8,8,14,14,15,15,16,16,20,20,23,23],"right_children":[2,4,6,8,10,12,14,16,18,-1,-1,-1,-1,-1,20,22,24,-1,-1,-1,26,-1,-1,28,-1,-1,-1,-1,-1],"split_conditions":[9.247E4,3.1E1,9.488158E2,8E0,4.8473097E-2,6.979508E2,7.732394E0,4E-1,3.8476E4,1.3428345E-1,-4.717144E-3,-2.744228E-2,8.155591E-2,-1.1840918E-1,1.5223602E1,1.7438937E3,2E0,-1.6393572E-2,-1.3474211E-1,6.651901E-2,6.510417E-4,1.21002354E-1,1.2377208E-2,4.7E1,-7.9747684E-2,1.639803E-2,-1.1609882E-1,-5.1802438E-2,4.3588445E-2],"split_indices":[7,3,0,3,10,0,6,10,7,0,0,0,0,0,6,0,3,0,0,0,10,0,0,1,0,0,0,0,0],"split_type":[0,0,0,0,0,0,0,0,0,0,0,0,0,0,0,0,0,0,0,0,0,0,0,0,0,0,0,0,0],"sum_hessian":[2.4472692E1,1.6030527E1,8.442165E0,1.2979947E1,3.0505805E0,2.369809E0,6.0723567E0,1.0789934E1,2.1900134E0,1.3488312E0,1.7017492E0,1.2879249E0,1.0818839E0,2.0246384E0,4.0477185E0,2.9488983E0,7.8410354E0,1.1799266E0,1.0100867E0,1.7555138E0,2.2922049E0,1.0389038E0,1.9099945E0,6.792281E0,1.0487546E0,1.194635E0,1.0975698E0,2.0286276E0,4.7636533E0],"tree_param":{"num_deleted":"0","num_feature":"11","num_nodes":"29","size_leaf_vector":"1"}},{"base_weights":[-9.201858E-3,1.4908543E-1,-3.720015E-2,-3.063227E-2,1.1035115E-1,-7.864457E-2,-5.80277E-3,1.3809022E-1,-7.4571565E-2,2.3625927E-1,-5.9306376E-2,-1.8893872E-1,9.559988E-2,-1.9537631E-2,3.574773E-1,-3.48825E-1,2.113197E-2,1.0199172E-1,-3.186778E-2,1.5329131E-1,-7.8119235E-3,-1.4170972E-1,1.086955E-2,6.5412655E-2,-8.9995466E-2,-1.0959216E-1,4.1418444E-2],"categories":[],"categories_nodes":[],"categories_segments":[],"categories_sizes":[],"default_left":[0,0,0,0,0,0,0,0,0,0,0,0,0,0,0,0,0,0,0,0,0,0,0,0,0,0,0],"id":38,"left_children":[1,3,5,-1,-1,-1,7,9,11,13,-1,15,17,-1,19,21,23,-1,25,-1,-1,-1,-1,-1,-1,-1,-1],"loss_changes":[1.1591174E-1,2.5420052E-1,1.5358254E-1,0E0,0E0,0E0,2.111095E-1,2.745797E-1,2.9793704E-1,2.3534513E-1,0E0,3.0752283E-1,2.1156584E-1,0E0,2.6607054E-1,2.6121825E-1,3.6923409E-1,0E0,3.4220314E-1,0E0,0E0,0E0,0E0,0E0,0E0,0E0,0E0],"parents":[2147483647,0,0,1,1,2,2,6,6,7,7,8,8,9,9,11,11,12,12,14,14,15,15,16,16,18,18],"right_children":[2,4,6,-1,-1,-1,8,10,12,14,-1,16,18,-1,20,22,24,-1,26,-1,-1,-1,-1,-1,-1,-1,-1],"split_conditions":[2.18E2,1.225E2,4.0425E2,-3.063227E-2,1.1035115E-1,-7.864457E-2,5.545238E2,8.258064E0,2.5170156E3,2.6102E2,-5.9306376E-2,9.61485E2,3.2028538E3,-1.9537631E-2,1.4536053E3,1.1471698E1,1.5026364E3,1.0199172E-1,4.1343345E3,1.5329131E-1,-7.8119235E-3,-1.4170972E-1,1.086955E-2,6.5412655E-2,-8.9995466E-2,-1.0959216E-1,4.1418444E-2],"split_indices":[0,0,0,0,0,0,1,6,0,1,0,1,0,0,0,5,1,0,0,0,0,0,0,0,0,0,0],"split_type":[0,0,0,0,0,0,0,0,0,0,0,0,0,0,0,0,0,0,0,0,0,0,0,0,0,0,0],"sum_hessian":[2.3903288E1,2.9426007E0,2.0960688E1,1.6179417E0,1.324659E0,1.6671209E0,1.9293566E1,5.9130225E0,1.3380545E1,4.804692E0,1.1083305E0,7.936425E0,5.444119E0,1.510894E0,3.293798E0,4.1314425E0,3.804983E0,1.2947618E0,4.1493573E0,2.1149924E0,1.1788056E0,2.9562304E0,1.175212E0,2.5576248E0,1.2473581E0,1.0126163E0,3.136741E0],"tree_param":{"num_deleted":"0","num_feature":"11","num_nodes":"27","size_leaf_vector":"1"}},{"base_weights":[-8.731503E-3,1.858941E-2,-1.5050846E-1,-1.4124662E-2,7.593363E-2,-8.999596E-2,4.4802167E-2,-1.2745062E-1,4.3212626E-2,1.0413119E-1,-3.3403856E-1,2.0772307E-1,-2.6986152E-2,-1.7290875E-2,8.3307646E-2,-2.8035382E-2,-1.3341726E-1,-5.1474096E-3,1.1485524E-1,-1.6517733E-1,8.284069E-2,3.324358E-2,-8.124589E-2,7.444366E-2,-2.2216424E-2],"categories":[],"categories_nodes":[],"categories_segments":[],"categories_sizes":[],"default_left":[0,0,0,0,0,0,0,0,0,0,0,0,0,0,0,0,0,0,0,0,0,0,0,0,0],"id":39,"left_children":[1,3,5,7,-1,-1,-1,9,11,13,15,17,19,-1,-1,-1,-1,-1,-1,21,23,-1,-1,-1,-1],"loss_changes":[9.715254E-2,1.6709684E-1,2.2612786E-1,1.3319957E-1,0E0,0E0,0E0,3.6276448E-1,1.6492882E-1,1.2815881E-1,6.125462E-2,1.7360073E-1,1.7387562E-1,0E0,0E0,0E0,0E0,0E0,0E0,1.760209E-1,1.8817574E-1,0E0,0E0,0E0,0E0],"parents":[2147483647,0,0,1,1,2,2,3,3,7,7,8,8,9,9,10,10,11,11,12,12,19,19,20,20],"right_children":[2,4,6,8,-1,-1,-1,10,12,14,16,18,20,-1,-1,-1,-1,-1,-1,22,24,-1,-1,-1,-1],"split_conditions":[1.6057778E3,1.3437693E3,6.490975E3,