{"learner":{"attributes":{"scikit_learn":"{\"_estimator_type\": \"classifier\"}"},"feature_names":["average_followers","average_follows","repost_total","post_total","repost_percentage","average_repost","average_favorite","news_lifetime","nb_users_10_hours","average_time_difference","retweet_percentage_1_hour"],"feature_types":["float","float","int","int","float","float","float","int","int","float","float"],"gradient_booster":{"model":{"gbtree_model_param":{"num_parallel_tree":"1","num_trees":"100"},"iteration_indptr":[0,1,2,3,4,5,6,7,8,9,10,11,12,13,14,15,16,17,18,19,20,21,22,23,24,25,26,27,28,29,30,31,32,33,34,35,36,37,38,39,40,41,42,43,44,45,46,47,48,49,50,51,52,53,54,55,56,57,58,59,60,61,62,63,64,65,66,67,68,69,70,71,72,73,74,75,76,77,78,79,80,81,82,83,84,85,86,87,88,89,90,91,92,93,94,95,96,97,98,99,100],"tree_info":[0,0,0,0,0,0,0,0,0,0,0,0,0,0,0,0,0,0,0,0,0,0,0,0,0,0,0,0,0,0,0,0,0,0,0,0,0,0,0,0,0,0,0,0,0,0,0,0,0,0,0,0,0,0,0,0,0,0,0,0,0,0,0,0,0,0,0,0,0,0,0,0,0,0,0,0,0,0,0,0,0,0,0,0,0,0,0,0,0,0,0,0,0,0,0,0,0,0,0,0],"trees":[{"base_weights":[2.5909764E-4,7.932795E-1,-5.76935E-1,-4.2294115E-2,1.4801419E0,-8.469926E-1,4.4090834E-1,5.024028E-1,2.9362938E-1,7.092835E-2,-4.2361495E-1,-5.1953727E-1,1.1117548E0,-9.137771E-2,2.1429789E-1,-3.7572017E-1,2.1429789E-1,3.8647085E-1,9.390963E-2],"categories":[],"categories_nodes":[],"categories_segments":[],"categories_sizes":[],"default_left":[0,0,0,0,0,0,0,0,0,0,0,0,0,0,0,0,0,0,0],"id":0,"left_children":[1,3,-1,5,7,9,11,-1,13,-1,-1,15,17,-1,-1,-1,-1,-1,-1],"loss_changes":[7.018155E1,1.876067E1,0E0,6.466727E0,3.64188E0,4.142788E0,7.30997E0,0E0,1.1576209E0,0E0,0E0,5.396447E0,5.08811E-1,0E0,0E0,0E0,0E0,0E0,0E0],"parents":[2147483647,0,0,1,1,3,3,4,4,5,5,6,6,8,8,11,11,12,12],"right_children":[2,4,-1,6,8,10,12,-1,14,-1,-1,16,18,-1,-1,-1,-1,-1,-1],"split_conditions":[3.2E1,8E0,-5.76935E-1,5.364545E2,1.2E1,1.664E2,2.2222222E-1,5.024028E-1,2.0340084E3,7.092835E-2,-4.2361495E-1,9.4609463E-1,1.2928889E3,-9.137771E-2,2.1429789E-1,-3.7572017E-1,2.1429789E-1,3.8647085E-1,9.390963E-2],"split_indices":[3,3,0,0,3,0,10,0,0,0,0,4,1,0,0,0,0,0,0],"split_type":[0,0,0,0,0,0,0,0,0,0,0,0,0,0,0,0,0,0,0],"sum_hessian":[4.4012154E1,3.1579344E1,1.2432812E1,1.4670718E1,1.6908625E1,5.2217813E0,9.448937E0,1.4173406E1,2.7352188E0,1.98925E0,3.232531E0,3.9785E0,5.4704375E0,1.2432812E0,1.4919374E0,2.4865625E0,1.4919374E0,3.9785E0,1.4919374E0],"tree_param":{"num_deleted":"0","num_feature":"11","num_nodes":"19","size_leaf_vector":"1"}},{"base_weights":[6.963336E-3,6.161934E-1,-1.445644E0,-2.9454386E-2,1.1755586E0,-1.3271736E-1,-4.5298836E-1,-6.5535367E-1,3.5449794E-1,4.0207782E-1,2.4172221E-1,5.7054825E-2,-3.2992288E-1,-3.9969796E-1,8.951667E-1,2.0485558E-1,-1.0725767E-1,-2.9678658E-1,1.7911363E-1,3.118793E-1,7.753171E-2],"categories":[],"categories_nodes":[],"categories_segments":[],"categories_sizes":[],"default_left":[0,0,0,0,0,0,0,0,0,0,0,0,0,0,0,0,0,0,0,0,0],"id":1,"left_children":[1,3,5,7,9,-1,-1,11,13,-1,15,-1,-1,17,19,-1,-1,-1,-1,-1,-1],"loss_changes":[3.8749825E1,1.1172756E1,1.6694069E-1,3.9071448E0,2.2212944E0,0E0,0E0,2.5256457E0,4.487134E0,0E0,1.2225237E0,0E0,0E0,3.4818008E0,3.0213833E-1,0E0,0E0,0E0,0E0,0E0,0E0],"parents":[2147483647,0,0,1,1,2,2,3,3,4,4,7,7,8,8,10,10,13,13,14,14],"right_children":[2,4,6,8,10,-1,-1,12,14,-1,16,-1,-1,18,20,-1,-1,-1,-1,-1,-1],"split_conditions":[3.2E1,8E0,6.6204425E2,5.364545E2,1.2E1,-1.3271736E-1,-4.5298836E-1,1.664E2,2.2222222E-1,4.0207782E-1,9E1,5.7054825E-2,-3.2992288E-1,9.4609463E-1,1.2928889E3,2.0485558E-1,-1.0725767E-1,-2.9678658E-1,1.7911363E-1,3.118793E-1,7.753171E-2],"split_indices":[3,3,0,0,3,0,0,0,10,0,2,0,0,4,1,0,0,0,0,0,0],"split_type":[0,0,0,0,0,0,0,0,0,0,0,0,0,0,0,0,0,0,0,0,0],"sum_hessian":[4.1779915E1,2.9840483E1,1.1939431E1,1.4291662E1,1.55488205E1,1.1939431E0,1.0745488E1,5.1650314E0,9.126631E0,1.2847661E1,2.7011597E0,1.9764633E0,3.188568E0,3.9196796E0,5.2069507E0,1.4754837E0,1.2256762E0,2.4675572E0,1.4521224E0,3.728487E0,1.4784638E0],"tree_param":{"num_deleted":"0","num_feature":"11","num_nodes":"21","size_leaf_vector":"1"}},{"base_weights":[5.2863737E-3,5.048543E-1,-1.218831E0,-2.114598E-2,9.919935E-1,-7.767263E-2,-3.8748455E-1,-5.860683E-1,2.703068E-1,-3.9583024E-2,1.0907229E0,4.5939688E-2,-3.2237208E-1,-3.7498328E-1,7.3665977E-1,2.6583916E-1,3.8042596E-1,-2.5831768E-1,1.5136255E-1,8.509824E-1,6.413758E-2,2.6047564E-1,-1.8464966E-1,2.8650865E-1,7.345573E-2],"categories":[],"categories_nodes":[],"categories_segments":[],"categories_sizes":[],"default_left":[0,0,0,0,0,0,0,0,0,0,0,0,0,0,0,0,0,0,0,0,0,0,0,0,0],"id":2,"left_children":[1,3,5,7,9,-1,-1,11,13,-1,15,-1,-1,17,19,21,-1,-1,-1,23,-1,-1,-1,-1,-1],"loss_changes":[2.4197758E1,7.219544E0,4.6692657E-1,2.543696E0,1.7647305E0,0E0,0E0,2.0589314E0,3.3580987E0,0E0,1.6431046E0,0E0,0E0,2.5544739E0,1.9358206E-1,2.4778526E0,0E0,0E0,0E0,7.009983E-2,0E0,0E0,0E0,0E0,0E0],"parents":[2147483647,0,0,1,1,2,2,3,3,4,4,7,7,8,8,10,10,13,13,14,14,15,15,19,19],"right_children":[2,4,6,8,10,-1,-1,12,14,-1,16,-1,-1,18,20,22,-1,-1,-1,24,-1,-1,-1,-1,-1],"split_conditions":[3.2E1,8E0,2.6086956E-1,4.6666666E2,1.5140045E-3,-7.767263E-2,-3.8748455E-1,1.664E2,2.2222222E-1,-3.9583024E-2,1.05E3,4.5939688E-2,-3.2237208E-1,9.4609463E-1,1.2928889E3,6.86E2,3.8042596E-1,-2.5831768E-1,1.5136255E-1,5.4786235E3,6.413758E-2,2.6047564E-1,-1.8464966E-1,2.8650865E-1,7.345573E-2],"split_indices":[3,3,5,0,10,0,0,0,10,0,0,0,0,4,1,0,0,0,0,0,0,0,0,0,0],"split_type":[0,0,0,0,0,0,0,0,0,0,0,0,0,0,0,0,0,0,0,0,0,0,0,0,0],"sum_hessian":[3.7563007E1,2.7093573E1,1.0469436E1,1.348712E1,1.3606452E1,1.0590643E0,9.410371E0,4.246087E0,9.241033E0,1.0715469E0,1.2534905E1,1.9626924E0,2.2833948E0,3.9589617E0,5.2820706E0,2.6604578E0,9.874448E0,2.5633206E0,1.3956411E0,3.819439E0,1.4626315E0,1.5891135E0,1.0713445E0,2.7685766E0,1.0508626E0],"tree_param":{"num_deleted":"0","num_feature":"11","num_nodes":"25","size_leaf_vector":"1"}},{"base_weights":[4.8541753E-3,4.221189E-1,-1.071683E0,-1.4372066E-2,8.56838E-1,-3.452586E-1,-7.086179E-2,-4.590357E-1,2.6823434E-1,1.0417421E0,7.376227E-2,6.371042E-2,-7.424496E-1,7.032883E-1,-2.0542277E-1,8.47932E-2,3.345293E-1,-1.22835755E-1,1.4720492E-1,-2.8098094E-1,-5.656471E-2,2.3400765E-2,2.8371117E-1,3.6349067E-1,-2.4971433E-1,2.2787017E-1,-4.4419058E-2],"categories":[],"categories_nodes":[],"categories_segments":[],"categories_sizes":[],"default_left":[0,0,0,0,0,0,0,0,0,0,0,0,0,0,0,0,0,0,0,0,0,0,0,0,0,0,0],"id":3,"left_children":[1,3,5,7,9,-1,-1,11,13,15,17,-1,19,21,23,-1,-1,-1,-1,-1,-1,-1,-1,25,-1,-1,-1],"loss_changes":[1.5834004E1,4.830987E0,3.795929E-1,1.8390865E0,1.767787E0,0E0,0E0,1.2375354E0,1.9949617E0,2.5446796E-1,9.079924E-1,0E0,2.7646828E-1,6.700058E-1,2.1121085E0,0E0,0E0,0E0,0E0,0E0,0E0,0E0,0E0,7.923949E-1,0E0,0E0,0E0],"parents":[2147483647,0,0,1,1,2,2,3,3,4,4,7,7,8,8,9,9,10,10,12,12,13,13,14,14,23,23],"right_children":[2,4,6,8,10,-1,-1,12,14,16,18,-1,20,22,24,-1,-1,-1,-1,-1,-1,-1,-1,26,-1,-1,-1],"split_conditions":[3.2E1,8E0,5.882353E-2,5.364545E2,1.2E1,-3.452586E-1,-7.086179E-2,8.45E1,1.3333334E0,1E0,3.8476E4,6.371042E-2,2E0,1.2138462E3,1.9247E4,8.47932E-2,3.345293E-1,-1.22835755E-1,1.4720492E-1,-2.8098094E-1,-5.656471E-2,2.3400765E-2,2.8371117E-1,1.6470589E1,-2.4971433E-1,2.2787017E-1,-4.4419058E-2],"split_indices":[3,3,10,0,3,0,0,0,6,6,7,0,3,0,7,0,0,0,0,0,0,0,0,6,0,0,0],"split_type":[0,0,0,0,0,0,0,0,0,0,0,0,0,0,0,0,0,0,0,0,0,0,0,0,0,0,0],"sum_hessian":[3.324219E1,2.4394716E1,8.847475E0,1.2655038E1,1.1739679E1,7.736764E0,1.1107109E0,4.67497E0,7.9800677E0,9.229935E0,2.5097442E0,1.4620566E0,3.2129135E0,3.9068356E0,4.073232E0,1.2409889E0,7.9889464E0,1.1707491E0,1.3389952E0,1.8674214E0,1.3454921E0,1.4607509E0,2.4460845E0,2.355783E0,1.7174492E0,1.0545013E0,1.3012818E0],"tree_param":{"num_deleted":"0","num_feature":"11","num_nodes":"27","size_leaf_vector":"1"}},{"base_weights":[4.187385E-3,3.5434863E-1,-9.626427E-1,-1.328605E-2,7.533228E-1,-5.2326944E-2,-3.1500298E-1,-1.6778152E-1,1.785406E-1,9.4447976E-1,6.080683E-2,2.7446125E-3,-2.0785683E-1,7.8685485E-2,3.0897596E-1,1.3471094E-1,-1.1325142E-1,-3.924527E-1,4.3176132E-1,-2.1381254E-1,4.7286578E-2,2.655899E-1,-1.2683379E-2],"categories":[],"categories_nodes":[],"categories_segments":[],"categories_sizes":[],"default_left":[0,0,0,0,0,0,0,0,0,0,0,0,0,0,0,0,0,0,0,0,0,0,0],"id":4,"left_children":[1,3,5,7,9,-1,-1,11,-1,13,15,17,-1,-1,-1,-1,-1,19,21,-1,-1,-1,-1],"loss_changes":[1.0652479E1,3.3968632E0,3.930545E-1,1.3218266E0,1.4107418E0,0E0,0E0,1.0000333E0,0E0,2.3245764E-1,7.5963926E-1,1.7649978E0,0E0,0E0,0E0,0E0,0E0,1.0675516E0,1.1099186E0,0E0,0E0,0E0,0E0],"parents":[2147483647,0,0,1,1,2,2,3,3,4,4,7,7,9,9,10,10,11,11,17,17,18,18],"right_children":[2,4,6,8,10,-1,-1,12,-1,14,16,18,-1,-1,-1,-1,-1,20,22,-1,-1,-1,-1],"split_conditions":[3.2E1,8E0,6.6722363E2,8.811E3,1.2E1,-5.2326944E-2,-3.1500298E-1,3.3368E3,1.785406E-1,2E0,9E1,5.364545E2,-2.0785683E-1,7.8685485E-2,3.0897596E-1,1.3471094E-1,-1.1325142E-1,2E0,8.423043E2,-2.1381254E-1,4.7286578E-2,2.655899E-1,-1.2683379E-2],"split_indices":[3,3,0,0,3,0,0,0,0,2,2,0,0,0,0,0,0,3,0,0,0,0,0],"split_type":[0,0,0,0,0,0,0,0,0,0,0,0,0,0,0,0,0,0,0,0,0,0,0],"sum_hessian":[2.9457767E1,2.2090607E1,7.3671603E0,1.1999952E1,1.0090654E1,1.0340927E0,6.333068E0,1.0147459E1,1.8524934E0,7.622702E0,2.4679527E0,8.41072E0,1.7367393E0,1.3014122E0,6.3212895E0,1.2957702E0,1.1721826E0,4.4222775E0,3.988442E0,2.6081462E0,1.8141316E0,1.594926E0,2.3935158E0],"tree_param":{"num_deleted":"0","num_feature":"11","num_nodes":"23","size_leaf_vector":"1"}},{"base_weights":[7.6120268E-3,3.0023798E-1,-8.7343264E-1,-3.9115297E-3,6.6446334E-1,-2.9202655E-1,-4.3155324E-2,2.3324148E-1,-3.6674088E-1,-5.804561E-2,7.852797E-1,-1.1607426E-1,2.4239872E-1,-7.7632076E-1,1.044212E-1,4.8781782E-2,3.0449364E-1,-4.7100207E-1,1.6718554E-1,-2.7816514E-2,-3.105406E-1,1.9681449E-1,-1.8614279E-1,-2.3118958E-3,-1.8362133E-1],"categories":[],"categories_nodes":[],"categories_segments":[],"categories_sizes":[],"default_left":[0,0,0,0,0,0,0,0,0,0,0,0,0,0,0,0,0,0,0,0,0,0,0,0,0],"id":5,"left_children":[1,3,5,7,9,-1,-1,11,13,-1,15,17,-1,19,-1,21,-1,23,-1,-1,-1,-1,-1,-1,-1],"loss_changes":[7.342635E0,2.3688278E0,3.7813902E-1,1.1726499E0,1.1600657E0,0E0,0E0,1.7504444E0,1.8460816E0,0E0,1.4261842E0,1.6980376E0,0E0,5.6420565E-1,0E0,1.6768147E0,0E0,2.8777605E-1,0E0,0E0,0E0,0E0,0E0,0E0,0E0],"parents":[2147483647,0,0,1,1,2,2,3,3,4,4,7,7,8,8,10,10,11,11,13,13,15,15,17,17],"right_children":[2,4,6,8,10,-1,-1,12,14,-1,16,18,-1,20,-1,22,-1,24,-1,-1,-1,-1,-1,-1,-1],"split_conditions":[3.2E1,8E0,3.846154E-2,1.3333334E0,1.7699115E-3,-2.9202655E-1,-4.3155324E-2,1.2138462E3,4.075949E0,-5.804561E-2,1.05E3,2E0,2.4239872E-1,1.9247E4,1.044212E-1,6.86E2,3.0449364E-1,3.95E1,1.6718554E-1,-2.7816514E-2,-3.105406E-1,1.9681449E-1,-1.8614279E-1,-2.3118958E-3,-1.8362133E-1],"split_indices":[3,3,10,6,10,0,0,0,5,0,0,3,0,7,0,0,0,1,0,0,0,0,0,0,0],"split_type":[0,0,0,0,0,0,0,0,0,0,0,0,0,0,0,0,0,0,0,0,0,0,0,0,0],"sum_hessian":[2.646293E1,2.0359911E1,6.1030183E0,1.1634055E1,8.725857E0,5.0734787E0,1.0295396E0,7.2514873E0,4.3825674E0,1.0028529E0,7.723004E0,5.006659E0,2.2448285E0,2.7314339E0,1.6511338E0,2.1242542E0,5.5987496E0,3.4753306E0,1.5313283E0,1.123149E0,1.6082848E0,1.1240547E0,1.0001996E0,1.0573695E0,2.4179611E0],"tree_param":{"num_deleted":"0","num_feature":"11","num_nodes":"25","size_leaf_vector":"1"}},{"base_weights":[4.008509E-3,2.4965782E-1,-7.943444E-1,8.32614E-2,2.5067386E-1,-2.7072185E-1,-3.716475E-2,-4.729182E-2,5.87816E-1,6.821478E-2,-2.0547853E-1,2.4630712E-1,4.724177E-3,-1.4269064E-1,4.359091E-1,4.6740524E-2,-2.8272822E-1,-7.668339E-2,2.3132949E-1],"categories":[],"categories_nodes":[],"categories_segments":[],"categories_sizes":[],"default_left":[0,0,0,0,0,0,0,0,0,0,0,0,0,0,0,0,0,0,0],"id":6,"left_children":[1,3,5,7,-1,-1,-1,9,11,13,-1,-1,-1,15,17,-1,-1,-1,-1],"loss_changes":[5.064537E0,1.8545531E0,3.285346E-1,1.1134331E0,0E0,0E0,0E0,1.0792255E0,4.4898522E-1,1.0531359E0,0E0,0E0,0E0,2.26515E0,1.333895E0,0E0,0E0,0E0,0E0],"parents":[2147483647,0,0,1,1,2,2,3,3,7,7,8,8,9,9,13,13,14,14],"right_children":[2,4,6,8,-1,-1,-1,10,12,14,-1,-1,-1,16,18,-1,-1,-1,-1],"split_conditions":[3.2E1,2E0,3.846154E-2,7.45156E3,2.5067386E-1,-2.7072185E-1,-3.716475E-2,4.7853E3,8.913044E-1,1.2138462E3,-2.0547853E-1,2.4630712E-1,4.724177E-3,1.1312E3,9.33E2,4.6740524E-2,-2.8272822E-1,-7.668339E-2,2.3132949E-1],"split_indices":[3,8,10,0,0,0,0,0,4,0,0,0,0,1,1,0,0,0,0],"split_type":[0,0,0,0,0,0,0,0,0,0,0,0,0,0,0,0,0,0,0],"sum_hessian":[2.3813128E1,1.8735567E1,5.0775595E0,1.5481162E1,3.254406E0,4.074849E0,1.0027103E0,1.301882E1,2.462342E0,1.1778235E1,1.2405846E0,1.4400942E0,1.0222478E0,7.873826E0,3.904409E0,6.3201046E0,1.5537215E0,1.3521774E0,2.5522316E0],"tree_param":{"num_deleted":"0","num_feature":"11","num_nodes":"19","size_leaf_vector":"1"}},{"base_weights":[-4.0557364E-4,2.0182839E-1,-7.2262883E-1,-4.4920202E-2,5.4973525E-1,-3.062055E-2,-2.537073E-1,-4.2749736E-1,1.8111652E-1,7.699431E-1,-4.962543E-2,-2.3116872E-1,9.580281E-2,-2.5562233E-1,4.9643937E-1,4.0061172E-2,2.6371944E-1,8.307101E-2,-1.0371146E-1,6.3707165E-2,-1.7713125E-1,1.8138176E-1,3.143722E-2],"categories":[],"categories_nodes":[],"categories_segments":[],"categories_sizes":[],"default_left":[0,0,0,0,0,0,0,0,0,0,0,0,0,0,0,0,0,0,0,0,0,0,0],"id":7,"left_children":[1,3,5,7,9,-1,-1,11,13,15,17,-1,-1,19,21,-1,-1,-1,-1,-1,-1,-1,-1],"loss_changes":[3.5097308E0,1.636404E0,3.151157E-1,1.1072421E0,1.0763831E0,0E0,0E0,1.4555093E0,1.254531E0,2.8629923E-1,3.9087868E-1,0E0,0E0,7.6674E-1,1.5248263E-1,0E0,0E0,0E0,0E0,0E0,0E0,0E0,0E0],"parents":[2147483647,0,0,1,1,2,2,3,3,4,4,7,7,8,8,9,9,10,10,13,13,14,14],"right_children":[2,4,6,8,10,-1,-1,12,14,16,18,-1,-1,20,22,-1,-1,-1,-1,-1,-1,-1,-1],"split_conditions":[3.2E1,8E0,5.4386664E2,2.2222222E-1,1.2E1,-3.062055E-2,-2.537073E-1,9.4609463E-1,4.6666666E2,2E0,9E1,-2.3116872E-1,9.580281E-2,8.45E1,1.2928889E3,4.0061172E-2,2.6371944E-1,8.307101E-2,-1.0371146E-1,6.3707165E-2,-1.7713125E-1,1.8138176E-1,3.143722E-2],"split_indices":[3,3,1,10,3,0,0,4,0,2,2,0,0,0,1,0,0,0,0,0,0,0,0],"split_type":[0,0,0,0,0,0,0,0,0,0,0,0,0,0,0,0,0,0,0,0,0,0,0],"sum_hessian":[2.203114E1,1.7774532E1,4.2566056E0,1.0908617E1,6.865916E0,1.0071745E0,3.249431E0,3.7204006E0,7.1882167E0,4.812993E0,2.0529227E0,2.5275798E0,1.1928209E0,3.093243E0,4.094974E0,1.0299565E0,3.7830367E0,1.0070606E0,1.0458621E0,1.4426135E0,1.6506294E0,2.782696E0,1.3122778E0],"tree_param":{"num_deleted":"0","num_feature":"11","num_nodes":"23","size_leaf_vector":"1"}},{"base_weights":[-1.7691839E-3,1.7252743E-1,-6.5484244E-1,3.5110738E-2,2.1493967E-1,-3.227004E-2,-2.3454021E-1,-7.1853906E-2,1.7982186E-1,1.07652605E-1,-4.371254E-1,-2.1886067E-1,3.7981212E-1,-2.3678625E-1,-1.078797E-2,-1.5918326E-1,5.64E-2,2.066518E-1,-4.002604E-2,1.2975048E-1,-1.3696748E-1],"categories":[],"categories_nodes":[],"categories_segments":[],"categories_sizes":[],"default_left":[0,0,0,0,0,0,0,0,0,0,0,0,0,0,0,0,0,0,0,0,0],"id":8,"left_children":[1,3,5,7,-1,-1,-1,9,-1,11,13,15,17,-1,19,-1,-1,-1,-1,-1,-1],"loss_changes":[2.4956179E0,1.2689807E0,2.3677504E-1,9.408238E-1,0E0,0E0,0E0,9.2543477E-1,0E0,9.526183E-1,6.8389183E-1,7.444175E-1,9.962624E-1,0E0,8.1004375E-1,0E0,0E0,0E0,0E0,0E0,0E0],"parents":[2147483647,0,0,1,1,2,2,3,3,7,7,9,9,10,10,11,11,12,12,14,14],"right_children":[2,4,6,8,-1,-1,-1,10,-1,12,14,16,18,-1,20,-1,-1,-1,-1,-1,-1],"split_conditions":[3.2E1,2E0,6.099291E-1,2.977E3,2.1493967E-1,-3.227004E-2,-2.3454021E-1,1.1527529E3,1.7982186E-1,5.364545E2,1.2138462E3,2E0,6.0359E4,-2.3678625E-1,3.3368E3,-1.5918326E-1,5.64E-2,2.066518E-1,-4.002604E-2,1.2975048E-1,-1.3696748E-1],"split_indices":[3,8,5,1,0,0,0,1,0,0,0,3,7,0,0,0,0,0,0,0,0],"split_type":[0,0,0,0,0,0,0,0,0,0,0,0,0,0,0,0,0,0,0,0,0],"sum_hessian":[1.9931847E1,1.6313745E1,3.6181006E0,1.3873413E1,2.4403322E0,1.0291277E0,2.588973E0,1.2396305E1,1.4771073E0,8.784562E0,3.611744E0,4.082532E0,4.7020297E0,1.5117178E0,2.100026E0,2.139227E0,1.9433053E0,2.721314E0,1.9807155E0,1.0678673E0,1.0321587E0],"tree_param":{"num_deleted":"0","num_feature":"11","num_nodes":"21","size_leaf_vector":"1"}},{"base_weights":[-3.3265706E-3,1.2539771E-1,-2.2160792E-1,-3.82428E-2,2.0540996E-1,1.859471E-1,-5.435921E-1,-7.09147E-4,6.3957846E-1,-5.0482694E-2,-2.140718E-1,-2.2936466E-1,1.4198081E-1,2.4774392E-1,3.9704956E-2,9.547416E-3,-2.2392042E-1],"categories":[],"categories_nodes":[],"categories_segments":[],"categories_sizes":[],"default_left":[0,0,0,0,0,0,0,0,0,0,0,0,0,0,0,0,0],"id":9,"left_children":[1,3,-1,5,-1,7,9,11,13,-1,-1,15,-1,-1,-1,-1,-1],"loss_changes":[1.942615E0,1.6266757E0,0E0,1.7411125E0,0E0,9.125955E-1,1.7998159E-1,1.0439608E0,1.8746102E-1,0E0,0E0,9.0097797E-1,0E0,0E0,0E0,0E0,0E0],"parents":[2147483647,0,0,1,1,3,3,5,5,6,6,7,7,8,8,11,11],"right_children":[2,4,-1,6,-1,8,10,12,14,-1,-1,16,-1,-1,-1,-1,-1],"split_conditions":[1.0677647E1,4.4333334E0,-2.2160792E-1,6E0,2.0540996E-1,8E0,4.4210525E0,1.0366387E3,5.856E2,-5.0482694E-2,-2.140718E-1,1.3333334E0,1.4198081E-1,2.4774392E-1,3.9704956E-2,9.547416E-3,-2.2392042E-1],"split_indices":[5,5,0,2,0,3,6,1,1,0,0,6,0,0,0,0,0],"split_type":[0,0,0,0,0,0,0,0,0,0,0,0,0,0,0,0,0],"sum_hessian":[1.8543566E1,1.6487024E1,2.0565417E0,1.3475879E1,3.011146E0,9.772508E0,3.70337E0,7.631006E0,2.1415024E0,1.7747338E0,1.9286363E0,5.495815E0,2.1351907E0,1.1069757E0,1.0345266E0,4.274786E0,1.2210289E0],"tree_param":{"num_deleted":"0","num_feature":"11","num_nodes":"17","size_leaf_vector":"1"}},{"base_weights":[-5.57667E-3,1.3120301E-1,-5.614804E-1,-7.145336E-2,4.5444325E-1,-2.8256027E-2,-2.0783852E-1,-4.2296222E-1,1.4073189E-1,7.748218E-3,2.0767936E-1,-1.9060652E-1,2.4020363E-2,4.4268185E-1,-1.0475569E-1,1.15079075E-1,-1.08218975E-1,2.4900036E-1,-6.2358018E-2,-4.3367088E-1,8.495873E-2,1.4334508E-2,-2.0986815E-1],"categories":[],"categories_nodes":[],"categories_segments":[],"categories_sizes":[],"default_left":[0,0,0,0,0,0,0,0,0,0,0,0,0,0,0,0,0,0,0,0,0,0,0],"id":10,"left_children":[1,3,5,7,9,-1,-1,11,13,15,-1,-1,-1,17,19,-1,-1,-1,-1,21,-1,-1,-1],"loss_changes":[1.4813467E0,1.0588393E0,1.7069292E-1,8.4225565E-1,6.5048516E-1,0E0,0E0,4.995981E-1,5.8707815E-1,5.754873E-1,0E0,0E0,0E0,1.0449445E0,7.3940104E-1,0E0,0E0,0E0,0E0,4.1875225E-1,0E0,0E0,0E0],"parents":[2147483647,0,0,1,1,2,2,3,3,4,4,7,7,8,8,9,9,13,13,14,14,19,19],"right_children":[2,4,6,8,10,-1,-1,12,14,16,-1,-1,-1,18,20,-1,-1,-1,-1,22,-1,-1,-1],"split_conditions":[3.2E1,8E0,1.0330737E3,2.2222222E-1,3.8476E4,-2.8256027E-2,-2.0783852E-1,2.1E1,8.333333E-1,2.4991E4,2.0767936E-1,-1.9060652E-1,2.4020363E-2,7E-1,5.2E2,1.15079075E-1,-1.08218975E-1,2.4900036E-1,-6.2358018E-2,3.95E1,8.495873E-2,1.4334508E-2,-2.0986815E-1],"split_indices":[3,3,0,10,7,0,0,2,10,7,0,0,0,6,0,0,0,0,0,1,0,0,0],"split_type":[0,0,0,0,0,0,0,0,0,0,0,0,0,0,0,0,0,0,0,0,0,0,0],"sum_hessian":[1.7513239E1,1.46681385E1,2.845101E0,9.494489E0,5.17365E0,1.0008293E0,1.8442719E0,3.1999862E0,6.2945023E0,2.1562283E0,3.0174212E0,2.0650225E0,1.1349639E0,2.4624324E0,3.83207E0,1.0471264E0,1.109102E0,1.3705648E0,1.0918674E0,2.0100498E0,1.8220202E0,1.0069807E0,1.0030692E0],"tree_param":{"num_deleted":"0","num_feature":"11","num_nodes":"23","size_leaf_vector":"1"}},{"base_weights":[-1.011879E-2,1.00906044E-1,-1.9376116E-1,-1.2812278E-1,3.6772612E-1,1.4170209E-1,-2.6592013E-1,-7.50838E-2,6.433722E-1,-6.2453035E-2,2.9193404E-1,8.8488646E-2,-1.0819243E-1,2.2727123E-1,4.3932997E-2,-7.2782815E-2,4.789908E-1,3.455897E-2,2.2432286E-1],"categories":[],"categories_nodes":[],"categories_segments":[],"categories_sizes":[],"default_left":[0,0,0,0,0,0,0,0,0,0,0,0,0,0,0,0,0,0,0],"id":11,"left_children":[1,3,-1,5,7,9,-1,11,13,-1,15,-1,-1,-1,-1,-1,17,-1,-1],"loss_changes":[1.2807374E0,9.959005E-1,0E0,1.9867218E0,9.551716E-1,4.587353E-1,0E0,5.022152E-1,1.548531E-1,0E0,6.8745494E-1,0E0,0E0,0E0,0E0,0E0,3.6050653E-1,0E0,0E0],"parents":[2147483647,0,0,1,1,3,3,4,4,5,5,7,7,8,8,10,10,16,16],"right_children":[2,4,-1,6,8,10,-1,12,14,-1,16,-1,-1,-1,-1,-1,18,-1,-1],"split_conditions":[1.0677647E1,1.2138462E3,-1.9376116E-1,1.0305778E3,1.0535E3,1.56E2,-2.6592013E-1,4.0868E4,2.3872341E1,-6.2453035E-2,3.448276E-2,8.8488646E-2,-1.0819243E-1,2.2727123E-1,4.3932997E-2,-7.2782815E-2,5.364545E2,3.455897E-2,2.2432286E-1],"split_indices":[5,0,0,0,1,1,0,7,6,0,10,0,0,0,0,0,0,0,0],"split_type":[0,0,0,0,0,0,0,0,0,0,0,0,0,0,0,0,0,0,0],"sum_hessian":[1.6221485E1,1.4526009E1,1.6954764E0,8.096272E0,6.4297357E0,6.571133E0,1.5251399E0,2.7460186E0,3.683717E0,1.858087E0,4.713046E0,1.1817234E0,1.5642953E0,2.5688643E0,1.1148527E0,1.1447538E0,3.5682921E0,2.1230612E0,1.4452311E0],"tree_param":{"num_deleted":"0","num_feature":"11","num_nodes":"19","size_leaf_vector":"1"}},{"base_weights":[-1.0660934E-2,8.457259E-2,-1.6610299E-1,-4.959431E-2,1.6798967E-1,1.01285376E-1,-1.662227E-1,-1.17763765E-1,5.036909E-1,1.2600964E-1,-2.4802956E-1,3.6530837E-2,2.0311362E-1,-1.4392307E-2,1.3428737E-1],"categories":[],"categories_nodes":[],"categories_segments":[],"categories_sizes":[],"default_left":[0,0,0,0,0,0,0,0,0,0,0,0,0,0,0],"id":12,"left_children":[1,3,-1,5,-1,7,-1,9,11,13,-1,-1,-1,-1,-1],"loss_changes":[8.925788E-1,9.705876E-1,0E0,1.0035309E0,0E0,9.784043E-1,0E0,1.4111797E0,1.7343092E-1,3.8490927E-1,0E0,0E0,0E0,0E0,0E0],"parents":[2147483647,0,0,1,1,3,3,5,5,7,7,8,8,9,9],"right_children":[2,4,-1,6,-1,8,-1,10,12,14,-1,-1,-1,-1,-1],"split_conditions":[1.0677647E1,4.4333334E0,-1.6610299E-1,4.4210525E0,1.6798967E-1,1.2138462E3,-1.662227E-1,1.0305778E3,1.0535E3,5.977143E2,-2.4802956E-1,3.6530837E-2,2.0311362E-1,-1.4392307E-2,1.3428737E-1],"split_indices":[5,5,0,6,0,0,0,0,1,0,0,0,0,0,0],"split_type":[0,0,0,0,0,0,0,0,0,0,0,0,0,0,0],"sum_hessian":[1.535465E1,1.3781856E1,1.5727938E0,1.1446941E1,2.3349144E0,9.42681E0,2.0201309E0,6.5620914E0,2.8647192E0,5.4950275E0,1.0670638E0,1.4258422E0,1.438877E0,4.1180954E0,1.3769325E0],"tree_param":{"num_deleted":"0","num_feature":"11","num_nodes":"15","size_leaf_vector":"1"}},{"base_weights":[-1.03951935E-2,9.262986E-2,-4.442455E-1,-8.250447E-2,3.9770806E-1,-2.8737614E-2,-1.6939676E-1,1.1679478E-1,-3.8340992E-1,6.3691675E-3,1.8556152E-1,4.3889666E-1,-1.4492762E-1,-1.7850788E-1,2.494369E-2,2.1686755E-1,-2.0658469E-2,-1.0656225E-1,5.124372E-2],"categories":[],"categories_nodes":[],"categories_segments":[],"categories_sizes":[],"default_left":[0,0,0,0,0,0,0,0,0,0,0,0,0,0,0,0,0,0,0],"id":13,"left_children":[1,3,5,7,9,-1,-1,11,13,-1,-1,15,17,-1,-1,-1,-1,-1,-1],"loss_changes":[7.386089E-1,7.5075173E-1,7.878542E-2,6.063864E-1,4.0857017E-1,0E0,0E0,6.0313714E-1,4.4091588E-1,0E0,0E0,4.9929625E-1,3.4501916E-1,0E0,0E0,0E0,0E0,0E0,0E0],"parents":[2147483647,0,0,1,1,2,2,3,3,4,4,7,7,8,8,11,11,12,12],"right_children":[2,4,6,8,10,-1,-1,12,14,-1,-1,16,18,-1,-1,-1,-1,-1,-1],"split_conditions":[3.2E1,8E0,4.0471E4,1.3333334E0,1.7438937E3,-2.8737614E-2,-1.6939676E-1,8.333333E-1,4.075949E0,6.3691675E-3,1.8556152E-1,3E0,5.2E2,-1.7850788E-1,2.494369E-2,2.1686755E-1,-2.0658469E-2,-1.0656225E-1,5.124372E-2],"split_indices":[3,3,7,6,0,0,0,10,5,0,0,3,0,0,0,0,0,0,0],"split_type":[0,0,0,0,0,0,0,0,0,0,0,0,0,0,0,0,0,0,0],"sum_hessian":[1.4603988E1,1.2437086E1,2.1669018E0,8.36475E0,4.0723367E0,1.0176088E0,1.1492932E0,5.4000077E0,2.9647417E0,1.9108342E0,2.1615024E0,2.117296E0,3.282712E0,1.8501886E0,1.114553E0,1.086122E0,1.031174E0,1.8953961E0,1.3873158E0],"tree_param":{"num_deleted":"0","num_feature":"11","num_nodes":"19","size_leaf_vector":"1"}},{"base_weights":[-8.211312E-3,8.083048E-2,-1.5014637E-1,-7.0998664E-3,1.715075E-1,1.5377839E-1,-3.3428E-1,7.089944E-3,1.5872824E-1,-3.2190487E-2,-1.8035382E-1,-1.8197009E-1,2.650993E-1,-9.057939E-2,7.375744E-2,7.6636985E-2,-1.2554912E-1,1.2610664E-2,1.1478681E-1],"categories":[],"categories_nodes":[],"categories_segments":[],"categories_sizes":[],"default_left":[0,0,0,0,0,0,0,0,0,0,0,0,0,0,0,0,0,0,0],"id":14,"left_children":[1,3,-1,5,-1,7,9,11,-1,13,-1,15,17,-1,-1,-1,-1,-1,-1],"loss_changes":[6.901651E-1,5.8298206E-1,0E0,7.0214385E-1,0E0,4.902353E-1,3.3462447E-1,4.1237012E-1,0E0,3.0793178E-1,0E0,6.1398417E-1,7.734257E-2,0E0,0E0,0E0,0E0,0E0,0E0],"parents":[2147483647,0,0,1,1,3,3,5,5,6,6,7,7,9,9,11,11,12,12],"right_children":[2,4,-1,6,-1,8,10,12,-1,14,-1,16,18,-1,-1,-1,-1,-1,-1],"split_conditions":[1.0677647E1,9.4609463E-1,-1.5014637E-1,6E0,1.715075E-1,8E0,3.2E1,6.7E2,1.5872824E-1,2.1E1,-1.8035382E-1,8.45E1,1.0851418E3,-9.057939E-2,7.375744E-2,7.6636985E-2,-1.2554912E-1,1.2610664E-2,1.1478681E-1],"split_indices":[5,4,0,2,0,3,3,1,0,2,0,0,0,0,0,0,0,0,0],"split_type":[0,0,0,0,0,0,0,0,0,0,0,0,0,0,0,0,0,0,0],"sum_hessian":[1.3822342E1,1.2412925E1,1.4094172E0,1.1362959E1,1.0499662E0,7.972686E0,3.390273E0,6.4648523E0,1.5078334E0,2.1159494E0,1.2743239E0,3.9010313E0,2.563821E0,1.0304216E0,1.0855277E0,1.3409965E0,2.5600348E0,1.3531572E0,1.210664E0],"tree_param":{"num_deleted":"0","num_feature":"11","num_nodes":"19","size_leaf_vector":"1"}},{"base_weights":[-1.6983356E-3,1.12346366E-1,-9.648686E-2,3.9729867E-2,-1.894146E-1,-9.401275E-2,1.6415896E-1,-2.267998E-1,1.2096121E-1,4.465408E-2,-3.7585297E-1,-1.3408644E-1,1.91042E-1,8.748812E-3,-1.4855437E-1],"categories":[],"categories_nodes":[],"categories_segments":[],"categories_sizes":[],"default_left":[0,0,0,0,0,0,0,0,0,0,0,0,0,0,0],"id":15,"left_children":[1,-1,3,5,-1,7,-1,9,-1,11,13,-1,-1,-1,-1],"loss_changes":[5.394333E-1,0E0,9.0445364E-1,7.6816E-1,0E0,6.995872E-1,0E0,3.368107E-1,0E0,1.3609703E0,2.663402E-1,0E0,0E0,0E0,0E0],"parents":[2147483647,0,0,2,2,3,3,5,5,7,7,9,9,10,10],"right_children":[2,-1,4,6,-1,8,-1,10,-1,12,14,-1,-1,-1,-1],"split_conditions":[1.74E2,1.12346366E-1,3.2E1,2E0,-1.894146E-1,7.45156E3,1.6415896E-1,8.127895E2,1.2096121E-1,5.364545E2,8.1863635E2,-1.3408644E-1,1.91042E-1,8.748812E-3,-1.4855437E-1],"split_indices":[0,0,3,8,0,0,0,0,0,0,1,0,0,0,0],"split_type":[0,0,0,0,0,0,0,0,0,0,0,0,0,0,0],"sum_hessian":[1.3114594E1,2.0455742E0,1.106902E1,9.56015E0,1.50887E0,8.21091E0,1.3492408E0,6.909512E0,1.3013976E0,2.6974194E0,4.2120924E0,1.6078093E0,1.0896101E0,1.1305312E0,3.0815613E0],"tree_param":{"num_deleted":"0","num_feature":"11","num_nodes":"15","size_leaf_vector":"1"}},{"base_weights":[8.133175E-3,8.004261E-2,-1.1749842E-1,-1.7416684E-2,1.2962985E-1,1.1692859E-1,-3.6500657E-1,-1.3733919E-2,1.3648312E-1,-1.5287694E-1,-1.4343771E-2,-2.2036017E-1,2.4491528E-1,4.513582E-2,-1.2758134E-1,1.7727815E-2,1.0258433E-1],"categories":[],"categories_nodes":[],"categories_segments":[],"categories_sizes":[],"default_left":[0,0,0,0,0,0,0,0,0,0,0,0,0,0,0,0,0],"id":16,"left_children":[1,3,-1,5,-1,7,9,11,-1,-1,-1,13,15,-1,-1,-1,-1],"loss_changes":[4.17152E-1,4.262672E-1,0E0,5.339086E-1,0E0,3.7478727E-1,1.2124616E-1,4.2747605E-1,0E0,0E0,0E0,3.9918423E-1,4.4294894E-2,0E0,0E0,0E0,0E0],"parents":[2147483647,0,0,1,1,3,3,5,5,6,6,7,7,11,11,12,12],"right_children":[2,4,-1,6,-1,8,10,12,-1,-1,-1,14,16,-1,-1,-1,-1],"split_conditions":[1.0677647E1,4.4333334E0,-1.1749842E-1,6E0,1.2962985E-1,8E0,2.6533E4,5.5632404E2,1.3648312E-1,-1.5287694E-1,-1.4343771E-2,8.45E1,1.0851418E3,4.513582E-2,-1.2758134E-1,1.7727815E-2,1.0258433E-1],"split_indices":[5,5,0,2,0,3,7,1,0,0,0,0,0,0,0,0,0],"split_type":[0,0,0,0,0,0,0,0,0,0,0,0,0,0,0,0,0],"sum_hessian":[1.2419682E1,1.1204215E1,1.2154663E0,9.519482E0,1.6847327E0,7.3444257E0,2.1750562E0,5.988782E0,1.3556439E0,1.0774006E0,1.0976557E0,3.4114902E0,2.5772917E0,1.3088045E0,2.1026857E0,1.4360932E0,1.1411984E0],"tree_param":{"num_deleted":"0","num_feature":"11","num_nodes":"17","size_leaf_vector":"1"}},{"base_weights":[7.626246E-3,-7.037615E-2,9.9334486E-2,1.6549166E-1,-2.8764388E-1,-4.637912E-2,3.1586295E-1,-2.0763205E-1,-6.18151E-2,9.780729E-3,4.0324008E-1,8.323676E-2,-2.2969313E-1,1.7145406E-2,1.6569638E-1,-1.3101368E-1,4.7096526E-3],"categories":[],"categories_nodes":[],"categories_segments":[],"categories_sizes":[],"default_left":[0,0,0,0,0,0,0,0,0,0,0,0,0,0,0,0,0],"id":17,"left_children":[1,3,-1,5,7,-1,9,-1,11,-1,13,-1,15,-1,-1,-1,-1],"loss_changes":[3.4964302E-1,6.238782E-1,0E0,3.3890387E-1,5.2522004E-1,0E0,9.647173E-2,0E0,3.5355633E-1,0E0,1.3853663E-1,0E0,2.075822E-1,0E0,0E0,0E0,0E0],"parents":[2147483647,0,0,1,1,3,3,4,4,6,6,8,8,10,10,12,12],"right_children":[2,4,-1,6,8,-1,10,-1,12,-1,14,-1,16,-1,-1,-1,-1],"split_conditions":[1.973E3,1.0305778E3,9.9334486E-2,1.56E2,1.2138462E3,-4.637912E-2,2E-1,-2.0763205E-1,2.1960785E0,9.780729E-3,2E0,8.323676E-2,8E0,1.7145406E-2,1.6569638E-1,-1.3101368E-1,4.7096526E-3],"split_indices":[1,0,0,1,0,0,10,0,6,0,3,0,3,0,0,0,0],"split_type":[0,0,0,0,0,0,0,0,0,0,0,0,0,0,0,0,0],"sum_hessian":[1.1933136E1,1.0245177E1,1.6879593E0,5.026581E0,5.218596E0,1.5976444E0,3.4289365E0,1.1300025E0,4.0885935E0,1.1320764E0,2.2968602E0,1.1373523E0,2.951241E0,1.1080059E0,1.1888543E0,1.1778902E0,1.7733508E0],"tree_param":{"num_deleted":"0","num_feature":"11","num_nodes":"17","size_leaf_vector":"1"}},{"base_weights":[4.9266624E-3,6.692584E-2,-9.80949E-2,-7.7054486E-2,2.4866459E-1,1.1333863E-1,-1.8158785E-1,4.0003073E-1,-5.511188E-2,-6.894614E-2,1.1012987E-1,1.7082167E-1,3.6836203E-2,-9.189134E-2,7.309545E-2],"categories":[],"categories_nodes":[],"categories_segments":[],"categories_sizes":[],"default_left":[0,0,0,0,0,0,0,0,0,0,0,0,0,0,0],"id":18,"left_children":[1,3,-1,5,7,9,-1,11,-1,13,-1,-1,-1,-1,-1],"loss_changes":[2.824494E-1,3.2006317E-1,0E0,7.9068196E-1,4.2164558E-1,3.0839092E-1,0E0,1.2989116E-1,0E0,4.013492E-1,0E0,0E0,0E0,0E0,0E0],"parents":[2147483647,0,0,1,1,3,3,4,4,5,5,7,7,9,9],"right_children":[2,4,-1,6,8,10,-1,12,-1,14,-1,-1,-1,-1,-1],"split_conditions":[1.0677647E1,1.2138462E3,-9.80949E-2,1.0305778E3,6.7714E4,2.6533E4,-1.8158785E-1,6E0,-5.511188E-2,4.6666666E2,1.1012987E-1,1.7082167E-1,3.6836203E-2,-9.189134E-2,7.309545E-2],"split_indices":[5,0,0,0,7,7,0,2,0,0,0,0,0,0,0],"split_type":[0,0,0,0,0,0,0,0,0,0,0,0,0,0,0],"sum_hessian":[1.16622715E1,1.0499395E1,1.1628765E0,6.179654E0,4.319741E0,5.119773E0,1.0598811E0,3.2550108E0,1.0647303E0,3.403343E0,1.71643E0,1.3664199E0,1.8885908E0,1.9459198E0,1.4574233E0],"tree_param":{"num_deleted":"0","num_feature":"11","num_nodes":"15","size_leaf_vector":"1"}},{"base_weights":[1.1140301E-3,8.4534146E-2,-8.025029E-2,4.30277E-2,-1.6880785E-1,-1.4746019E-1,3.2515496E-1,-3.7379417E-1,7.270873E-2,-8.776428E-3,1.6117841E-1,-1.3596271E-1,-3.161545E-2,-4.014267E-2,9.915779E-2],"categories":[],"categories_nodes":[],"categories_segments":[],"categories_sizes":[],"default_left":[0,0,0,0,0,0,0,0,0,0,0,0,0,0,0],"id":19,"left_children":[1,-1,3,5,-1,7,9,11,13,-1,-1,-1,-1,-1,-1],"loss_changes":[3.0387583E-1,0E0,6.383921E-1,5.3990066E-1,0E0,3.3376628E-1,3.1652346E-1,2.0376414E-2,2.5485283E-1,0E0,0E0,0E0,0E0,0E0,0E0],"parents":[2147483647,0,0,2,2,3,3,5,5,6,6,7,7,8,8],"right_children":[2,-1,4,6,-1,8,10,12,14,-1,-1,-1,-1,-1,-1],"split_conditions":[1.74E2,8.4534146E-2,3.2E1,8E0,-1.6880785E-1,2.2222222E-1,1.7438937E3,1.0093688E3,1.2138462E3,-8.776428E-3,1.6117841E-1,-1.3596271E-1,-3.161545E-2,-4.014267E-2,9.915779E-2],"split_indices":[0,0,3,3,0,10,0,1,0,0,0,0,0,0,0],"split_type":[0,0,0,0,0,0,0,0,0,0,0,0,0,0,0],"sum_hessian":[1.1316516E1,1.989733E0,9.326783E0,8.154011E0,1.1727724E0,5.152471E0,3.0015397E0,2.196601E0,2.9558702E0,1.4465561E0,1.5549836E0,1.1637734E0,1.0328275E0,1.9082835E0,1.0475867E0],"tree_param":{"num_deleted":"0","num_feature":"11","num_nodes":"15","size_leaf_vector":"1"}},{"base_weights":[-2.789109E-3,-1.3443099E-1,1.245002E-1,2.2581896E-2,-1.4157656E-1,3.32852E-1,-9.350982E-2,-1.02834985E-1,2.7976662E-1,1.6938709E-1,-2.4608344E-2,-8.123915E-2,4.537284E-2,-2.7925588E-2,1.4602719E-1],"categories":[],"categories_nodes":[],"categories_segments":[],"categories_sizes":[],"default_left":[0,0,0,0,0,0,0,0,0,0,0,0,0,0,0],"id":20,"left_children":[1,3,5,7,-1,9,11,-1,13,-1,-1,-1,-1,-1,-1],"loss_changes":[2.148747E-1,3.4416145E-1,3.277719E-1,5.8919144E-1,0E0,3.8850892E-1,2.1331203E-1,0E0,3.2558262E-1,0E0,0E0,0E0,0E0,0E0,0E0],"parents":[2147483647,0,0,1,1,2,2,3,3,5,5,6,6,8,8],"right_children":[2,4,6,8,-1,10,12,-1,14,-1,-1,-1,-1,-1,-1],"split_conditions":[2E-1,2.5E1,8.77193E-1,8E0,-1.4157656E-1,1.4E0,5.2E2,-1.02834985E-1,3.8476E4,1.6938709E-1,-2.4608344E-2,-8.123915E-2,4.537284E-2,-2.7925588E-2,1.4602719E-1],"split_indices":[10,3,10,3,0,6,0,0,7,0,0,0,0,0,0],"split_type":[0,0,0,0,0,0,0,0,0,0,0,0,0,0,0],"sum_hessian":[1.0824474E1,5.2936773E0,5.530797E0,4.249668E0,1.0440094E0,2.5586884E0,2.9721084E0,1.6181049E0,2.631563E0,1.4100403E0,1.1486483E0,1.6618965E0,1.3102119E0,1.1358504E0,1.4957125E0],"tree_param":{"num_deleted":"0","num_feature":"11","num_nodes":"15","size_leaf_vector":"1"}},{"base_weights":[-2.7660243E-3,2.0971222E-1,-9.123978E-2,-1.8003656E-2,1.2236661E-1,-1.8162821E-1,6.5786704E-2,-3.3642596E-1,5.1472567E-2,-1.3613775E-1,-1.3291562E-2,-5.317043E-2,9.997578E-2],"categories":[],"categories_nodes":[],"categories_segments":[],"categories_sizes":[],"default_left":[0,0,0,0,0,0,0,0,0,0,0,0,0],"id":21,"left_children":[1,3,5,-1,-1,7,-1,9,11,-1,-1,-1,-1],"loss_changes":[2.3279694E-1,2.1928704E-1,2.846208E-1,0E0,0E0,2.8079927E-1,0E0,1.3488847E-1,3.027509E-1,0E0,0E0,0E0,0E0],"parents":[2147483647,0,0,1,1,2,2,5,5,7,7,8,8],"right_children":[2,4,6,-1,-1,8,-1,10,12,-1,-1,-1,-1],"split_conditions":[2.42E2,1.04583336E2,1.973E3,-1.8003656E-2,1.2236661E-1,5E-1,6.5786704E-2,5E0,1.0869565E-2,-1.3613775E-1,-1.3291562E-2,-5.317043E-2,9.997578E-2],"split_indices":[1,1,1,0,0,4,0,3,10,0,0,0,0],"split_type":[0,0,0,0,0,0,0,0,0,0,0,0,0],"sum_hessian":[1.0365801E1,2.6444845E0,7.721317E0,1.41534E0,1.2291445E0,6.3020287E0,1.4192883E0,3.5207212E0,2.7813072E0,2.116803E0,1.4039181E0,1.7400275E0,1.0412798E0],"tree_param":{"num_deleted":"0","num_feature":"11","num_nodes":"13","size_leaf_vector":"1"}},{"base_weights":[4.094972E-3,-1.2904923E-1,1.308145E-1,-2.966546E-1,9.546494E-2,1.0777675E-1,-2.6450788E-3,-1.7191623E-1,1.1172975E-2,1.1436187E-1,-8.333599E-2,5.996639E-2,-1.8260422E-1,-7.44747E-2,-6.396816E-3],"categories":[],"categories_nodes":[],"categories_segments":[],"categories_sizes":[],"default_left":[0,0,0,0,0,0,0,0,0,0,0,0,0,0,0],"id":22,"left_children":[1,3,5,7,9,-1,11,-1,-1,-1,-1,-1,13,-1,-1],"loss_changes":[2.0589976E-1,2.5283653E-1,1.9109091E-1,3.5908815E-1,4.5857635E-1,0E0,2.161663E-1,0E0,0E0,0E0,0E0,0E0,2.7874142E-2,0E0,0E0],"parents":[2147483647,0,0,1,1,2,2,3,3,4,4,6,6,12,12],"right_children":[2,4,6,8,10,-1,12,-1,-1,-1,-1,-1,14,-1,-1],"split_conditions":[2E-1,4.4333334E0,4.1843972E-1,2.9254E4,1.0677647E1,1.0777675E-1,2.42E2,-1.7191623E-1,1.1172975E-2,1.1436187E-1,-8.333599E-2,5.996639E-2,1.0366387E3,-7.44747E-2,-6.396816E-3],"split_indices":[10,5,10,7,5,0,1,0,0,0,0,0,1,0,0],"split_type":[0,0,0,0,0,0,0,0,0,0,0,0,0,0,0],"sum_hessian":[1.0203094E1,4.966455E0,5.2366385E0,2.6596456E0,2.3068094E0,1.307218E0,3.9294205E0,1.0632421E0,1.5964035E0,1.2944988E0,1.0123105E0,1.7966546E0,2.132766E0,1.1325626E0,1.0002034E0],"tree_param":{"num_deleted":"0","num_feature":"11","num_nodes":"15","size_leaf_vector":"1"}},{"base_weights":[-1.2587303E-3,-1.1669003E-1,1.0651093E-1,-2.8627953E-1,9.314517E-2,9.047398E-2,-6.077953E-3,-2.6860862E-4,-1.4323922E-1,1.0138308E-1,-5.431486E-2,4.875519E-2,-1.5408213E-1,-4.627237E-3,-6.7080855E-2],"categories":[],"categories_nodes":[],"categories_segments":[],"categories_sizes":[],"default_left":[0,0,0,0,0,0,0,0,0,0,0,0,0,0,0],"id":23,"left_children":[1,3,5,7,9,-1,11,-1,-1,-1,-1,-1,13,-1,-1],"loss_changes":[1.4876692E-1,2.3195775E-1,1.3779767E-1,1.870394E-1,2.8490472E-1,0E0,1.4744578E-1,0E0,0E0,0E0,0E0,0E0,2.6680358E-2,0E0,0E0],"parents":[2147483647,0,0,1,1,2,2,3,3,4,4,6,6,12,12],"right_children":[2,4,6,8,10,-1,12,-1,-1,-1,-1,-1,14,-1,-1],"split_conditions":[2E-1,2.0265807E3,4.1843972E-1,1.2E1,4.7853E3,9.047398E-2,2.42E2,-2.6860862E-4,-1.4323922E-1,1.0138308E-1,-5.431486E-2,4.875519E-2,8.423043E2,-4.627237E-3,-6.7080855E-2],"split_indices":[10,0,10,3,0,0,1,0,0,0,0,0,0,0,0],"split_type":[0,0,0,0,0,0,0,0,0,0,0,0,0,0,0],"sum_hessian":[9.959665E0,4.7689285E0,5.1907372E0,2.435911E0,2.3330176E0,1.2852857E0,3.9054515E0,1.3802593E0,1.0556515E0,1.1097491E0,1.2232684E0,1.7798834E0,2.1255682E0,1.1178656E0,1.0077026E0],"tree_param":{"num_deleted":"0","num_feature":"11","num_nodes":"15","size_leaf_vector":"1"}},{"base_weights":[-3.9302246E-3,-5.6364525E-2,6.484845E-2,1.2469486E-1,-2.3818867E-1,-8.219418E-2,1.2928747E-1,-1.3049866E-1,-3.4389038E-2,5.0307352E-2,-1.0813966E-1,6.1463017E-2,-8.785018E-2],"categories":[],"categories_nodes":[],"categories_segments":[],"categories_sizes":[],"default_left":[0,0,0,0,0,0,0,0,0,0,0,0,0],"id":24,"left_children":[1,3,-1,5,7,9,-1,-1,11,-1,-1,-1,-1],"loss_changes":[1.3659789E-1,3.42441E-1,0E0,3.7860948E-1,1.8893483E-1,3.4362435E-1,0E0,0E0,2.8157E-1,0E0,0E0,0E0,0E0],"parents":[2147483647,0,0,1,1,3,3,4,4,5,5,8,8],"right_children":[2,4,-1,6,8,10,-1,-1,12,-1,-1,-1,-1],"split_conditions":[1.973E3,1.0305778E3,6.484845E-2,5.364545E2,4E0,1.74E2,1.2928747E-1,-1.3049866E-1,1.2E1,5.0307352E-2,-1.0813966E-1,6.1463017E-2,-8.785018E-2],"split_indices":[1,0,0,0,3,0,0,0,3,0,0,0,0],"split_type":[0,0,0,0,0,0,0,0,0,0,0,0,0],"sum_hessian":[9.78078E0,8.499723E0,1.2810563E0,4.4162498E0,4.083474E0,3.0723906E0,1.3438591E0,1.5002617E0,2.5832124E0,1.8281287E0,1.244262E0,1.4490068E0,1.1342055E0],"tree_param":{"num_deleted":"0","num_feature":"11","num_nodes":"13","size_leaf_vector":"1"}},{"base_weights":[-4.9372804E-3,-1.11965105E-1,9.433211E-2,-2.4312836E-1,4.281666E-2,-3.6405947E-2,1.8800114E-1,-1.3724135E-1,-6.261927E-4,9.361532E-2,-1.15544675E-2],"categories":[],"categories_nodes":[],"categories_segments":[],"categories_sizes":[],"default_left":[0,0,0,0,0,0,0,0,0,0,0],"id":25,"left_children":[1,3,5,7,-1,-1,9,-1,-1,-1,-1],"loss_changes":[1.21892564E-1,2.1841457E-1,1.4360988E-1,2.0570375E-1,0E0,0E0,1.4017816E-1,0E0,0E0,0E0,0E0],"parents":[2147483647,0,0,1,1,2,2,3,3,6,6],"right_children":[2,4,6,8,-1,-1,10,-1,-1,-1,-1],"split_conditions":[2E-1,9.5454544E-1,1.04583336E2,2.9254E4,4.281666E-2,-3.6405947E-2,9.035828E2,-1.3724135E-1,-6.261927E-4,9.361532E-2,-1.15544675E-2],"split_indices":[10,4,1,7,0,0,0,0,0,0,0],"split_type":[0,0,0,0,0,0,0,0,0,0,0],"sum_hessian":[9.478588E0,4.4995174E0,4.97907E0,2.999941E0,1.4995763E0,1.4181169E0,3.5609534E0,1.1126412E0,1.8872999E0,2.056897E0,1.5040565E0],"tree_param":{"num_deleted":"0","num_feature":"11","num_nodes":"11","size_leaf_vector":"1"}},{"base_weights":[-8.478322E-3,-9.373597E-2,1.2710963E-1,-9.778678E-2,5.511717E-2,1.1933831E-1,-4.2556636E-2,-5.4860197E-2,8.110657E-2],"categories":[],"categories_nodes":[],"categories_segments":[],"categories_sizes":[],"default_left":[0,0,0,0,0,0,0,0,0],"id":26,"left_children":[1,3,5,-1,7,-1,-1,-1,-1],"loss_changes":[1.3177483E-1,2.5790513E-1,3.7875396E-1,0E0,3.0992573E-1,0E0,0E0,0E0,0E0],"parents":[2147483647,0,0,1,1,2,2,4,4],"right_children":[2,4,6,-1,8,-1,-1,-1,-1],"split_conditions":[8E0,2.2222222E-1,1.2E1,-9.778678E-2,4.6666666E2,1.1933831E-1,-4.2556636E-2,-5.4860197E-2,8.110657E-2],"split_indices":[3,10,3,0,0,0,0,0,0],"split_type":[0,0,0,0,0,0,0,0,0],"sum_hessian":[9.368599E0,5.941351E0,3.4272482E0,1.8560376E0,4.0853133E0,1.469436E0,1.9578123E0,2.0115628E0,2.0737505E0],"tree_param":{"num_deleted":"0","num_feature":"11","num_nodes":"9","size_leaf_vector":"1"}},{"base_weights":[-4.928237E-3,-6.0072042E-2,6.6550404E-2,9.584874E-2,-2.1475053E-1,-6.976678E-2,1.0561308E-1,-1.2280206E-1,7.2698467E-3,4.6745613E-2,-9.965593E-2,5.780398E-2,-5.338752E-2],"categories":[],"categories_nodes":[],"categories_segments":[],"categories_sizes":[],"default_left":[0,0,0,0,0,0,0,0,0,0,0,0,0],"id":27,"left_children":[1,3,-1,5,7,9,-1,-1,11,-1,-1,-1,-1],"loss_changes":[1.3967223E-1,2.3557897E-1,0E0,2.4226049E-1,2.096433E-1,2.8564656E-1,0E0,0E0,1.447673E-1,0E0,0E0,0E0,0E0],"parents":[2147483647,0,0,1,1,3,3,4,4,5,5,8,8],"right_children":[2,4,-1,6,8,10,-1,-1,12,-1,-1,-1,-1],"split_conditions":[1.973E3,1.0305778E3,6.6550404E-2,5.364545E2,2.0565264E3,1.74E2,1.0561308E-1,-1.2280206E-1,4.6175835E3,4.6745613E-2,-9.965593E-2,5.780398E-2,-5.338752E-2],"split_indices":[1,0,0,0,0,0,0,0,0,0,0,0,0],"split_type":[0,0,0,0,0,0,0,0,0,0,0,0,0],"sum_hessian":[9.104001E0,7.914464E0,1.1895367E0,4.1308117E0,3.7836525E0,2.9509013E0,1.1799104E0,1.5667605E0,2.216892E0,1.8052584E0,1.1456428E0,1.087797E0,1.1290948E0],"tree_param":{"num_deleted":"0","num_feature":"11","num_nodes":"13","size_leaf_vector":"1"}},{"base_weights":[-3.5797658E-3,-7.986636E-2,1.1689521E-1,5.8829E-2,-8.2072146E-2,1.0968261E-1,-3.7747286E-2,7.511367E-2,-8.379509E-2,-5.3567555E-2,1.8230718E-2],"categories":[],"categories_nodes":[],"categories_segments":[],"categories_sizes":[],"default_left":[0,0,0,0,0,0,0,0,0,0,0],"id":28,"left_children":[1,3,5,7,-1,-1,-1,-1,9,-1,-1],"loss_changes":[1.0035944E-1,1.9497472E-1,3.0230948E-1,1.4946648E-1,0E0,0E0,0E0,0E0,5.8046095E-2,0E0,0E0],"parents":[2147483647,0,0,1,1,2,2,3,3,8,8],"right_children":[2,4,6,8,-1,-1,-1,-1,10,-1,-1],"split_conditions":[8E0,1.3333334E0,1.2E1,8.333333E-1,-8.2072146E-2,1.0968261E-1,-3.7747286E-2,7.511367E-2,4.6666666E2,-5.3567555E-2,1.8230718E-2],"split_indices":[3,6,3,10,0,0,0,0,0,0,0],"split_type":[0,0,0,0,0,0,0,0,0,0,0],"sum_hessian":[8.903944E0,5.6581736E0,3.2457707E0,3.703064E0,1.9551095E0,1.353028E0,1.8927425E0,1.2580016E0,2.4450624E0,1.3348818E0,1.1101807E0],"tree_param":{"num_deleted":"0","num_feature":"11","num_nodes":"11","size_leaf_vector":"1"}},{"base_weights":[1.0175727E-3,-4.793187E-2,5.9090976E-2,9.122831E-2,-1.873655E-1,-5.3899772E-2,9.310215E-2,-1.0987193E-1,1.3802642E-2,4.4208992E-2,-8.9268066E-2,5.4046262E-2,-4.8289135E-2],"categories":[],"categories_nodes":[],"categories_segments":[],"categories_sizes":[],"default_left":[0,0,0,0,0,0,0,0,0,0,0,0,0],"id":29,"left_children":[1,3,-1,5,7,9,-1,-1,11,-1,-1,-1,-1],"loss_changes":[1.0259934E-1,1.83486E-1,0E0,1.7459285E-1,1.7097397E-1,2.3208508E-1,0E0,0E0,1.2010928E-1,0E0,0E0,0E0,0E0],"parents":[2147483647,0,0,1,1,3,3,4,4,5,5,8,8],"right_children":[2,4,-1,6,8,10,-1,-1,12,-1,-1,-1,-1],"split_conditions":[1.973E3,1.0305778E3,5.9090976E-2,5.364545E2,2.0565264E3,1.74E2,9.310215E-2,-1.0987193E-1,4.7551E4,4.4208992E-2,-8.9268066E-2,5.4046262E-2,-4.8289135E-2],"split_indices":[1,0,0,0,0,0,0,0,7,0,0,0,0],"split_type":[0,0,0,0,0,0,0,0,0,0,0,0,0],"sum_hessian":[8.712318E0,7.575362E0,1.1369565E0,3.9644299E0,3.6109324E0,2.8384213E0,1.1260085E0,1.477027E0,2.1339052E0,1.7708843E0,1.067537E0,1.0774782E0,1.0564271E0],"tree_param":{"num_deleted":"0","num_feature":"11","num_nodes":"13","size_leaf_vector":"1"}},{"base_weights":[9.428446E-4,-8.5883774E-2,1.0516506E-1,7.1337774E-2,-1.21697515E-1,-1.1108968E-1,9.603671E-2,-5.8552563E-2,7.667014E-2,3.861393E-2,-8.532668E-2,2.0057283E-2,-4.403675E-2],"categories":[],"categories_nodes":[],"categories_segments":[],"categories_sizes":[],"default_left":[0,0,0,0,0,0,0,0,0,0,0,0,0],"id":30,"left_children":[1,3,5,7,-1,9,-1,11,-1,-1,-1,-1,-1],"loss_changes":[9.537018E-2,3.182882E-1,2.580248E-1,1.2764247E-1,0E0,1.6662586E-1,0E0,4.937682E-2,0E0,0E0,0E0,0E0,0E0],"parents":[2147483647,0,0,1,1,2,2,3,3,5,5,7,7],"right_children":[2,4,6,8,-1,10,-1,12,-1,-1,-1,-1,-1],"split_conditions":[1.2138462E3,8.127895E2,1.273E3,3.5735443E2,-1.21697515E-1,4.7551E4,9.603671E-2,8.45E1,7.667014E-2,3.861393E-2,-8.532668E-2,2.0057283E-2,-4.403675E-2],"split_indices":[0,0,1,1,0,7,0,0,0,0,0,0,0],"split_type":[0,0,0,0,0,0,0,0,0,0,0,0,0],"sum_hessian":[8.540911E0,4.755282E0,3.7856288E0,3.708741E0,1.046541E0,2.1279929E0,1.6576358E0,2.5752468E0,1.133494E0,1.0008099E0,1.127183E0,1.1636499E0,1.4115969E0],"tree_param":{"num_deleted":"0","num_feature":"11","num_nodes":"13","size_leaf_vector":"1"}},{"base_weights":[-1.416152E-3,-5.8550622E-2,4.97095E-2,7.535246E-2,-2.0655121E-1,-4.3595973E-2,2.1276358E-1,-1.166856E-1,-2.6372923E-3,1.226638E-1,-1.6193537E-2],"categories":[],"categories_nodes":[],"categories_segments":[],"categories_sizes":[],"default_left":[0,0,0,0,0,0,0,0,0,0,0],"id":31,"left_children":[1,3,-1,5,7,-1,9,-1,-1,-1,-1],"loss_changes":[9.915761E-2,1.6857508E-1,0E0,1.7605028E-1,1.3851173E-1,0E0,1.9759811E-1,0E0,0E0,0E0,0E0],"parents":[2147483647,0,0,1,1,3,3,4,4,6,6],"right_children":[2,4,-1,6,8,-1,10,-1,-1,-1,-1],"split_conditions":[2E0,2.0481E4,4.97095E-2,4.6666666E2,3.8476E4,-4.3595973E-2,1.2928889E3,-1.166856E-1,-2.6372923E-3,1.226638E-1,-1.6193537E-2],"split_indices":[8,7,0,0,7,0,1,0,0,0,0],"split_type":[0,0,0,0,0,0,0,0,0,0,0],"sum_hessian":[8.369072E0,6.72091E0,1.6481622E0,3.786211E0,2.934699E0,1.430836E0,2.355375E0,1.023711E0,1.910988E0,1.0503014E0,1.3050736E0],"tree_param":{"num_deleted":"0","num_feature":"11","num_nodes":"11","size_leaf_vector":"1"}},{"base_weights":[-1.4271174E-3,-7.743981E-2,1.1720242E-1,-8.385533E-2,5.4933682E-2,1.0731434E-1,-3.504394E-2,-1.06034346E-1,7.230791E-2,2.3342824E-2,-7.55644E-2],"categories":[],"categories_nodes":[],"categories_segments":[],"categories_sizes":[],"default_left":[0,0,0,0,0,0,0,0,0,0,0],"id":32,"left_children":[1,3,5,-1,7,-1,-1,9,-1,-1,-1],"loss_changes":[9.2556834E-2,1.8239467E-1,2.6766607E-1,0E0,1.6361175E-1,0E0,0E0,1.04480006E-1,0E0,0E0,0E0],"parents":[2147483647,0,0,1,1,2,2,4,4,7,7],"right_children":[2,4,6,-1,8,-1,-1,10,-1,-1,-1],"split_conditions":[8E0,2.2222222E-1,1.2E1,-8.385533E-2,5.2E2,1.0731434E-1,-3.504394E-2,8.45E1,7.230791E-2,2.3342824E-2,-7.55644E-2],"split_indices":[3,10,3,0,0,0,0,0,0,0,0],"split_type":[0,0,0,0,0,0,0,0,0,0,0],"sum_hessian":[8.257787E0,5.2445307E0,3.0132558E0,1.6357905E0,3.60874E0,1.2253236E0,1.7879324E0,2.1656685E0,1.4430716E0,1.1644058E0,1.0012627E0],"tree_param":{"num_deleted":"0","num_feature":"11","num_nodes":"11","size_leaf_vector":"1"}},{"base_weights":[3.2221715E-4,1.4034833E-1,-6.554067E-2,8.056115E-2,-1.2150156E-2,-2.0281617E-1,6.373806E-2,-3.7088373E-3,-1.030815E-1,-4.9903963E-2,8.502386E-2],"categories":[],"categories_nodes":[],"categories_segments":[],"categories_sizes":[],"default_left":[0,0,0,0,0,0,0,0,0,0,0],"id":33,"left_children":[1,3,5,-1,-1,7,9,-1,-1,-1,-1],"loss_changes":[9.265514E-2,8.536526E-2,1.3424578E-1,0E0,0E0,9.106457E-2,2.635463E-1,0E0,0E0,0E0,0E0],"parents":[2147483647,0,0,1,1,2,2,5,5,6,6],"right_children":[2,4,6,-1,-1,8,10,-1,-1,-1,-1],"split_conditions":[2.3834952E2,8.77193E-1,1.2138462E3,8.056115E-2,-1.2150156E-2,8.05E2,1.273E3,-3.7088373E-3,-1.030815E-1,-4.9903963E-2,8.502386E-2],"split_indices":[1,10,0,0,0,0,1,0,0,0,0],"split_type":[0,0,0,0,0,0,0,0,0,0,0],"sum_hessian":[8.049215E0,2.2131302E0,5.8360853E0,1.0113775E0,1.2017527E0,2.5546184E0,3.2814672E0,1.5481521E0,1.0064662E0,1.7213289E0,1.5601382E0],"tree_param":{"num_deleted":"0","num_feature":"11","num_nodes":"11","size_leaf_vector":"1"}},{"base_weights":[-5.59892E-5,-7.126056E-2,1.127608E-1,5.6934115E-2,-7.42816E-2,9.854899E-2,-2.9549317E-2,7.087715E-2,-7.999552E-2,-3.3799756E-2,-1.3947778E-3],"categories":[],"categories_nodes":[],"categories_segments":[],"categories_sizes":[],"default_left":[0,0,0,0,0,0,0,0,0,0,0],"id":34,"left_children":[1,3,5,7,-1,-1,-1,-1,9,-1,-1],"loss_changes":[7.997723E-2,1.5206844E-1,2.0793924E-1,1.2564142E-1,0E0,0E0,0E0,0E0,7.3827393E-3,0E0,0E0],"parents":[2147483647,0,0,1,1,2,2,3,3,8,8],"right_children":[2,4,6,8,-1,-1,-1,-1,10,-1,-1],"split_conditions":[8E0,1.3333334E0,1.2E1,8.333333E-1,-7.42816E-2,9.854899E-2,-2.9549317E-2,7.087715E-2,4.12E2,-3.3799756E-2,-1.3947778E-3],"split_indices":[3,6,3,10,0,0,0,0,0,0,0],"split_type":[0,0,0,0,0,0,0,0,0,0,0],"sum_hessian":[7.955708E0,5.1031775E0,2.8525307E0,3.3471177E0,1.7560598E0,1.136744E0,1.7157867E0,1.1351432E0,2.2119744E0,1.1974496E0,1.0145249E0],"tree_param":{"num_deleted":"0","num_feature":"11","num_nodes":"11","size_leaf_vector":"1"}},{"base_weights":[3.8069168E-3,4.6230696E-2,-5.4204807E-2,-1.4863557E-1,3.9052725E-2,-2.859455E-1,2.3229009E-2,-1.1505056E-1,-2.2855973E-2],"categories":[],"categories_nodes":[],"categories_segments":[],"categories_sizes":[],"default_left":[0,0,0,0,0,0,0,0,0],"id":35,"left_children":[1,-1,3,5,-1,7,-1,-1,-1],"loss_changes":[8.524439E-2,0E0,1.4301553E-1,1.8243642E-1,0E0,4.0884316E-2,0E0,0E0,0E0],"parents":[2147483647,0,0,2,2,3,3,5,5],"right_children":[2,-1,4,6,-1,8,-1,-1,-1],"split_conditions":[1.74E2,4.6230696E-2,3.1666667E0,1.2138462E3,3.9052725E-2,2.2222222E-1,2.3229009E-2,-1.1505056E-1,-2.2855973E-2],"split_indices":[0,0,5,0,0,10,0,0,0],"split_type":[0,0,0,0,0,0,0,0,0],"sum_hessian":[7.8189273E0,1.7162105E0,6.102717E0,4.163989E0,1.9387277E0,2.4257405E0,1.7382486E0,1.090339E0,1.3354015E0],"tree_param":{"num_deleted":"0","num_feature":"11","num_nodes":"9","size_leaf_vector":"1"}},{"base_weights":[-9.5853343E-4,-6.822765E-2,1.0791808E-1,-7.2684415E-2,4.7897834E-2,-3.0594604E-2,8.911396E-2,-3.759115E-2,6.3030906E-2],"categories":[],"categories_nodes":[],"categories_segments":[],"categories_sizes":[],"default_left":[0,0,0,0,0,0,0,0,0],"id":36,"left_children":[1,3,5,-1,7,-1,-1,-1,-1],"loss_changes":[7.135905E-2,1.3315114E-1,1.7813943E-1,0E0,1.511199E-1,0E0,0E0,0E0,0E0],"parents":[2147483647,0,0,1,1,2,2,4,4],"right_children":[2,4,6,-1,8,-1,-1,-1,-1],"split_conditions":[8E0,2.2222222E-1,3.448276E-2,-7.2684415E-2,4.6666666E2,-3.0594604E-2,8.911396E-2,-3.759115E-2,6.3030906E-2],"split_indices":[3,10,10,0,0,0,0,0,0],"split_type":[0,0,0,0,0,0,0,0,0],"sum_hessian":[7.737816E0,5.013554E0,2.7242618E0,1.5715995E0,3.4419546E0,1.5096209E0,1.2146409E0,1.774574E0,1.6673806E0],"tree_param":{"num_deleted":"0","num_feature":"11","num_nodes":"9","size_leaf_vector":"1"}},{"base_weights":[8.219668E-4,1.3003862E-1,-6.0916103E-2,1.0177152E-2,4.904686E-2,-1.4067957E-1,4.367183E-2,-2.3546685E-1,9.55133E-3,6.761178E-3,-1.1223544E-1],"categories":[],"categories_nodes":[],"categories_segments":[],"categories_sizes":[],"default_left":[0,0,0,0,0,0,0,0,0,0,0],"id":37,"left_children":[1,3,5,-1,-1,7,-1,9,-1,-1,-1],"loss_changes":[7.6744586E-2,4.4472143E-3,1.2784575E-1,0E0,0E0,9.270793E-2,0E0,1.3299923E-1,0E0,0E0,0E0],"parents":[2147483647,0,0,1,1,2,2,5,5,7,7],"right_children":[2,4,6,-1,-1,8,-1,10,-1,-1,-1],"split_conditions":[2.3834952E2,7.75E1,9.5454544E-1,1.0177152E-2,4.904686E-2,2.9254E4,4.367183E-2,7E-1,9.55133E-3,6.761178E-3,-1.1223544E-1],"split_indices":[1,0,4,0,0,7,0,6,0,0,0],"split_type":[0,0,0,0,0,0,0,0,0,0,0],"sum_hessian":[7.6270623E0,2.108246E0,5.518816E0,1.0643057E0,1.0439405E0,4.210912E0,1.3079041E0,2.4822085E0,1.7287035E0,1.1603912E0,1.3218173E0],"tree_param":{"num_deleted":"0","num_feature":"11","num_nodes":"11","size_leaf_vector":"1"}},{"base_weights":[1.1522581E-3,4.0778305E-2,-5.1517643E-2,3.605546E-2,-6.8725824E-2,-8.371664E-2,8.568043E-2,-7.9423204E-2,5.6472726E-2,3.8587384E-2,-1.5862405E-2],"categories":[],"categories_nodes":[],"categories_segments":[],"categories_sizes":[],"default_left":[0,0,0,0,0,0,0,0,0,0,0],"id":38,"left_children":[1,-1,3,5,-1,7,-1,-1,9,-1,-1],"loss_changes":[6.784758E-2,0E0,1.1537106E-1,1.8761113E-1,0E0,1.2849577E-1,0E0,0E0,3.3197016E-2,0E0,0E0],"parents":[2147483647,0,0,2,2,3,3,5,5,8,8],"right_children":[2,-1,4,6,-1,8,-1,-1,10,-1,-1],"split_conditions":[1.74E2,4.0778305E-2,1.2E1,8E0,-6.8725824E-2,5.5632404E2,8.568043E-2,-7.9423204E-2,8.333333E-1,3.8587384E-2,-1.5862405E-2],"split_indices":[0,0,3,3,0,1,0,0,10,0,0],"split_type":[0,0,0,0,0,0,0,0,0,0,0],"sum_hessian":[7.5713854E0,1.6832981E0,5.8880873E0,4.477048E0,1.4110394E0,3.4741292E0,1.002919E0,1.1284633E0,2.345666E0,1.3069764E0,1.0386895E0],"tree_param":{"num_deleted":"0","num_feature":"11","num_nodes":"11","size_leaf_vector":"1"}},{"base_weights":[9.9424E-4,-4.9415614E-2,4.3926705E-2,6.7294955E-2,-1.9107637E-1,-3.2470178E-2,6.053034E-2,-8.8257186E-2,5.622655E-3],"categories":[],"categories_nodes":[],"categories_segments":[],"categories_sizes":[],"default_left":[0,0,0,0,0,0,0,0,0],"id":39,"left_children":[1,3,-1,5,7,-1,-1,-1,-1],"loss_changes":[6.909499E-2,1.2881845E-1,0E0,1.3006298E-1,7.969402E-2,0E0,0E0,0E0,0E0],"parents":[2147483647,0,0,1,1,3,3,4,4],"right_children":[2,4,-1,6,8,-1,-1,-1,-1],"split_conditions":[2E0,2.1199E4,4.3926705E-2,5.2E2,6.5836E4,-3.2470178E-2,6.053034E-2,-8.8257186E-2,5.622655E-3],"split_indices":[8,7,0,0,7,0,0,0,0],"split_type":[0,0,0,0,0,0,0,0,0],"sum_hessian":[7.4380527E0,6.0137186E0,1.424334E0,3.5850484E0,2.4286702E0,1.6397668E0,1.9452816E0,1.3587838E0,1.0698863E0],"tree_param":{"num_deleted":"0","num_feature":"11","num_nodes":"9","size_leaf_vector":"1"}},{"base_weights":[-5.699548E-4,8.9997806E-2,-7.852328E-2,-2.6805582E-2,5.8842707E-2,-7.5006716E-2,3.6982153E-2,6.9543384E-2,-5.7397645E-2],"categories":[],"categories_nodes":[],"categories_segments":[],"categories_sizes":[],"default_left":[0,0,0,0,0,0,0,0,0],"id":40,"left_children":[1,3,5,-1,-1,-1,7,-1,-1],"loss_changes":[6.6191986E-2,1.0014269E-1,1.0898056E-1,0E0,0E0,0E0,2.1692263E-1,0E0,0E0],"parents":[2147483647,0,0,1,1,2,2,6,6],"right_children":[2,4,6,-1,-1,-1,8,-1,-1],"split_conditions":[8.127895E2,1.56E2,1.469E3,-2.6805582E-2,5.8842707E-2,-7.5006716E-2,1.792638E1,6.9543384E-2,-5.7397645E-2],"split_indices":[0,1,0,0,0,0,6,0,0],"split_type":[0,0,0,0,0,0,0,0,0],"sum_hessian":[7.3745856E0,3.3398132E0,4.0347724E0,1.3005358E0,2.0392776E0,1.1551077E0,2.8796644E0,1.5454714E0,1.3341931E0],"tree_param":{"num_deleted":"0","num_feature":"11","num_nodes":"9","size_leaf_vector":"1"}},{"base_weights":[-4.0316894E-3,5.0225753E-2,-5.096913E-2,-6.972489E-2,7.02255E-2,-5.8399867E-2,6.9070525E-2,-7.642659E-2,3.3878773E-2],"categories":[],"categories_nodes":[],"categories_segments":[],"categories_sizes":[],"default_left":[0,0,0,0,0,0,0,0,0],"id":41,"left_children":[1,-1,3,-1,5,7,-1,-1,-1],"loss_changes":[7.5211145E-2,0E0,1.7622276E-1,0E0,1.1897597E-1,1.5122995E-1,0E0,0E0,0E0],"parents":[2147483647,0,0,2,2,4,4,5,5],"right_children":[2,-1,4,-1,6,8,-1,-1,-1],"split_conditions":[8.4E1,5.0225753E-2,2.482E3,-6.972489E-2,2E-1,1.1425E3,6.9070525E-2,-7.642659E-2,3.3878773E-2],"split_indices":[1,0,7,0,10,0,0,0,0],"split_type":[0,0,0,0,0,0,0,0,0],"sum_hessian":[7.285583E0,1.0141795E0,6.2714033E0,2.1439168E0,4.1274867E0,2.640176E0,1.4873105E0,1.0033407E0,1.6368355E0],"tree_param":{"num_deleted":"0","num_feature":"11","num_nodes":"9","size_leaf_vector":"1"}},{"base_weights":[-1.9889404E-3,-6.1671972E-2,3.962814E-2,-6.862933E-2,3.4933183E-2,4.2264838E-2,-2.1972604E-2],"categories":[],"categories_nodes":[],"categories_segments":[],"categories_sizes":[],"default_left":[0,0,0,0,0,0,0],"id":42,"left_children":[1,3,-1,-1,5,-1,-1],"loss_changes":[7.395657E-2,1.1085476E-1,0E0,0E0,6.654003E-2,0E0,0E0],"parents":[2147483647,0,0,1,1,4,4],"right_children":[2,4,-1,-1,6,-1,-1],"split_conditions":[3.1666667E0,2E-1,3.962814E-2,-6.862933E-2,2.42E2,4.2264838E-2,-2.1972604E-2],"split_indices":[5,10,0,0,1,0,0],"split_type":[0,0,0,0,0,0,0],"sum_hessian":[7.223727E0,5.3724036E0,1.8513237E0,1.4669931E0,3.9054103E0,1.8202511E0,2.0851593E0],"tree_param":{"num_deleted":"0","num_feature":"11","num_nodes":"7","size_leaf_vector":"1"}},{"base_weights":[-2.5003175E-3,-7.108254E-2,1.12283714E-1,4.0544488E-2,-7.092941E-2,-2.7116578E-2,7.539044E-2,-3.3458635E-2,5.2090164E-2],"categories":[],"categories_nodes":[],"categories_segments":[],"categories_sizes":[],"default_left":[0,0,0,0,0,0,0,0,0],"id":43,"left_children":[1,3,5,7,-1,-1,-1,-1,-1],"loss_changes":[7.243511E-2,1.1548749E-1,1.1991721E-1,1.05966374E-1,0E0,0E0,0E0,0E0,0E0],"parents":[2147483647,0,0,1,1,2,2,3,3],"right_children":[2,4,6,8,-1,-1,-1,-1,-1],"split_conditions":[8E0,1.9247E4,1.923077E-2,5.2E2,-7.092941E-2,-2.7116578E-2,7.539044E-2,-3.3458635E-2,5.2090164E-2],"split_indices":[3,7,10,0,0,0,0,0,0],"split_type":[0,0,0,0,0,0,0,0,0],"sum_hessian":[7.1875663E0,4.7376184E0,2.4499478E0,3.278856E0,1.4587625E0,1.139089E0,1.3108588E0,1.6058959E0,1.67296E0],"tree_param":{"num_deleted":"0","num_feature":"11","num_nodes":"9","size_leaf_vector":"1"}},{"base_weights":[-2.1348263E-3,8.3127245E-2,-7.530347E-2,-2.4707377E-2,5.4914344E-2,-5.4501195E-2,3.290583E-2,-3.4265675E-2,5.4614343E-2],"categories":[],"categories_nodes":[],"categories_segments":[],"categories_sizes":[],"default_left":[0,0,0,0,0,0,0,0,0],"id":44,"left_children":[1,3,5,-1,-1,-1,7,-1,-1],"loss_changes":[5.679308E-2,8.479292E-2,6.2191963E-2,0E0,0E0,0E0,9.249389E-2,0E0,0E0],"parents":[2147483647,0,0,1,1,2,2,6,6],"right_children":[2,4,6,-1,-1,-1,8,-1,-1],"split_conditions":[8.127895E2,1.56E2,2.4045E3,-2.4707377E-2,5.4914344E-2,-5.4501195E-2,4E0,-3.4265675E-2,5.4614343E-2],"split_indices":[0,1,0,0,0,0,3,0,0],"split_type":[0,0,0,0,0,0,0,0,0],"sum_hessian":[7.1002207E0,3.2162638E0,3.8839571E0,1.277039E0,1.9392246E0,1.6162955E0,2.2676616E0,1.259428E0,1.0082337E0],"tree_param":{"num_deleted":"0","num_feature":"11","num_nodes":"9","size_leaf_vector":"1"}},{"base_weights":[-1.9260974E-3,4.4946548E-2,-4.482333E-2,-6.0494367E-2,6.2023986E-2,-5.4257113E-2,6.16374E-2,-6.0561758E-2,2.716435E-2],"categories":[],"categories_nodes":[],"categories_segments":[],"categories_sizes":[],"default_left":[0,0,0,0,0,0,0,0,0],"id":45,"left_children":[1,-1,3,-1,5,7,-1,-1,-1],"loss_changes":[5.915324E-2,0E0,1.3063681E-1,0E0,9.383768E-2,9.371683E-2,0E0,0E0,0E0],"parents":[2147483647,0,0,2,2,4,4,5,5],"right_children":[2,-1,4,-1,6,8,-1,-1,-1],"split_conditions":[8.4E1,4.4946548E-2,2.482E3,-6.0494367E-2,2E-1,1.5384616E0,6.16374E-2,-6.0561758E-2,2.716435E-2],"split_indices":[1,0,7,0,10,5,0,0,0],"split_type":[0,0,0,0,0,0,0,0,0],"sum_hessian":[7.0554876E0,1.0056057E0,6.049882E0,2.0920436E0,3.957838E0,2.529177E0,1.4286611E0,1.0572785E0,1.4718984E0],"tree_param":{"num_deleted":"0","num_feature":"11","num_nodes":"9","size_leaf_vector":"1"}},{"base_weights":[2.6306868E-4,-4.225918E-2,4.9275354E-2,-2.6861586E-2,6.396798E-2,2.7264124E-2,-1.1382826E-1,-7.19022E-2,3.0838875E-2],"categories":[],"categories_nodes":[],"categories_segments":[],"categories_sizes":[],"default_left":[0,0,0,0,0,0,0,0,0],"id":46,"left_children":[1,-1,3,5,-1,-1,7,-1,-1],"loss_changes":[6.2348697E-2,0E0,8.919226E-2,6.619294E-2,0E0,0E0,1.2225992E-1,0E0,0E0],"parents":[2147483647,0,0,2,2,3,3,6,6],"right_children":[2,-1,4,6,-1,-1,8,-1,-1],"split_conditions":[1.0869565E-2,-4.225918E-2,5E-1,2.42E2,6.396798E-2,2.7264124E-2,1.2138462E3,-7.19022E-2,3.0838875E-2],"split_indices":[10,0,4,1,0,0,0,0,0],"split_type":[0,0,0,0,0,0,0,0,0],"sum_hessian":[7.0103984E0,1.323998E0,5.6864004E0,4.454122E0,1.2322785E0,1.8731325E0,2.5809898E0,1.5652633E0,1.0157264E0],"tree_param":{"num_deleted":"0","num_feature":"11","num_nodes":"9","size_leaf_vector":"1"}},{"base_weights":[1.1885852E-3,-5.9525702E-2,1.0255143E-1,5.2082613E-2,-6.8515755E-2,-2.3577435E-2,6.844633E-2,-3.240155E-2,5.6415457E-2],"categories":[],"categories_nodes":[],"categories_segments":[],"categories_sizes":[],"default_left":[0,0,0,0,0,0,0,0,0],"id":47,"left_children":[1,3,5,7,-1,-1,-1,-1,-1],"loss_changes":[5.503467E-2,1.1753005E-1,9.405093E-2,1.114911E-1,0E0,0E0,0E0,0E0,0E0],"parents":[2147483647,0,0,1,1,2,2,3,3],"right_children":[2,4,6,8,-1,-1,-1,-1,-1],"split_conditions":[8E0,1.9247E4,1.923077E-2,5.2E2,-6.8515755E-2,-2.3577435E-2,6.844633E-2,-3.240155E-2,5.6415457E-2],"split_indices":[3,7,10,0,0,0,0,0,0],"split_type":[0,0,0,0,0,0,0,0,0],"sum_hessian":[6.9507394E0,4.6051154E0,2.3456242E0,3.1889431E0,1.416172E0,1.1137199E0,1.2319043E0,1.5590287E0,1.6299144E0],"tree_param":{"num_deleted":"0","num_feature":"11","num_nodes":"9","size_leaf_vector":"1"}},{"base_weights":[1.0094929E-3,7.829755E-2,-7.252315E-2,-2.1909103E-2,1.646852E-1,-5.4748856E-2,1.5934171E-2,7.148192E-2,3.586971E-3],"categories":[],"categories_nodes":[],"categories_segments":[],"categories_sizes":[],"default_left":[0,0,0,0,0,0,0,0,0],"id":48,"left_children":[1,3,5,-1,7,-1,-1,-1,-1],"loss_changes":[5.0407086E-2,6.84762E-2,7.25908E-2,0E0,3.1497933E-2,0E0,0E0,0E0,0E0],"parents":[2147483647,0,0,1,1,2,2,4,4],"right_children":[2,4,6,-1,8,-1,-1,-1,-1],"split_conditions":[1.0305778E3,1.56E2,4E0,-2.1909103E-2,1.3333334E0,-5.4748856E-2,1.5934171E-2,7.148192E-2,3.586971E-3],"split_indices":[0,1,3,0,6,0,0,0,0],"split_type":[0,0,0,0,0,0,0,0,0],"sum_hessian":[6.870344E0,3.3180437E0,3.5523005E0,1.2619929E0,2.0560508E0,1.6529065E0,1.899394E0,1.0095305E0,1.0465202E0],"tree_param":{"num_deleted":"0","num_feature":"11","num_nodes":"9","size_leaf_vector":"1"}},{"base_weights":[2.6099125E-3,-4.6373967E-2,3.4990106E-2,-6.0196206E-2,4.4214286E-2,-5.3710207E-2,4.772683E-2,1.9462034E-2,-4.296364E-2],"categories":[],"categories_nodes":[],"categories_segments":[],"categories_sizes":[],"default_left":[0,0,0,0,0,0,0,0,0],"id":49,"left_children":[1,3,-1,-1,5,7,-1,-1,-1],"loss_changes":[4.9169373E-2,9.546732E-2,0E0,0E0,6.1677188E-2,4.4287004E-2,0E0,0E0,0E0],"parents":[2147483647,0,0,1,1,4,4,5,5],"right_children":[2,4,-1,-1,6,8,-1,-1,-1],"split_conditions":[4.4333334E0,2E-1,3.4990106E-2,-6.0196206E-2,5.5632404E2,8.45E1,4.772683E-2,1.9462034E-2,-4.296364E-2],"split_indices":[5,10,0,0,1,0,0,0,0],"split_type":[0,0,0,0,0,0,0,0,0],"sum_hessian":[6.8349237E0,5.1960354E0,1.638888E0,1.4727674E0,3.7232683E0,2.297353E0,1.4259154E0,1.1064967E0,1.1908562E0],"tree_param":{"num_deleted":"0","num_feature":"11","num_nodes":"9","size_leaf_vector":"1"}},{"base_weights":[1.6932222E-3,-3.8863923E-2,4.801492E-2,-6.469751E-2,1.2885453E-1,2.5664967E-2,-4.982356E-2,-1.4710742E-4,5.4436E-2],"categories":[],"categories_nodes":[],"categories_segments":[],"categories_sizes":[],"default_left":[0,0,0,0,0,0,0,0,0],"id":50,"left_children":[1,-1,3,5,7,-1,-1,-1,-1],"loss_changes":[5.3556822E-2,0E0,6.742407E-2,6.560488E-2,2.8055139E-2,0E0,0E0,0E0,0E0],"parents":[2147483647,0,0,2,2,3,3,4,4],"right_children":[2,-1,4,6,8,-1,-1,-1,-1],"split_conditions":[1.0869565E-2,-3.8863923E-2,5.977143E2,8.333333E-1,1E0,2.5664967E-2,-4.982356E-2,-1.4710742E-4,5.4436E-2],"split_indices":[10,0,0,10,6,0,0,0,0],"split_type":[0,0,0,0,0,0,0,0,0],"sum_hessian":[6.7866054E0,1.3017608E0,5.4848447E0,2.3742182E0,3.1106262E0,1.0194865E0,1.3547317E0,1.1856614E0,1.9249648E0],"tree_param":{"num_deleted":"0","num_feature":"11","num_nodes":"9","size_leaf_vector":"1"}},{"base_weights":[8.5957734E-5,9.325681E-2,-7.013797E-2,-1.3245261E-2,6.624732E-2,-1.6900623E-1,2.2313418E-2,9.549096E-3,-8.320655E-2],"categories":[],"categories_nodes":[],"categories_segments":[],"categories_sizes":[],"default_left":[0,0,0,0,0,0,0,0,0],"id":51,"left_children":[1,3,5,-1,-1,7,-1,-1,-1],"loss_changes":[5.716937E-2,7.55685E-2,8.376935E-2,0E0,0E0,7.986433E-2,0E0,0E0,0E0],"parents":[2147483647,0,0,1,1,2,2,5,5],"right_children":[2,4,6,-1,-1,8,-1,-1,-1],"split_conditions":[4.98E2,2.371E4,1.4438E3,-1.3245261E-2,6.624732E-2,1.4207328E3,2.2313418E-2,9.549096E-3,-8.320655E-2],"split_indices":[1,7,1,0,0,0,0,0,0],"split_type":[0,0,0,0,0,0,0,0,0],"sum_hessian":[6.738024E0,2.7549086E0,3.9831157E0,1.6411108E0,1.1137979E0,2.2644596E0,1.7186562E0,1.0410267E0,1.2234328E0],"tree_param":{"num_deleted":"0","num_feature":"11","num_nodes":"9","size_leaf_vector":"1"}},{"base_weights":[1.9050814E-4,-4.9369577E-2,3.5121936E-2,-5.9805114E-2,4.050245E-2,3.9588146E-2,-1.7539993E-2],"categories":[],"categories_nodes":[],"categories_segments":[],"categories_sizes":[],"default_left":[0,0,0,0,0,0,0],"id":52,"left_children":[1,3,-1,-1,5,-1,-1],"loss_changes":[5.0298724E-2,9.030089E-2,0E0,0E0,4.9765825E-2,0E0,0E0],"parents":[2147483647,0,0,1,1,4,4],"right_children":[2,4,-1,-1,6,-1,-1],"split_conditions":[4.4333334E0,2E-1,3.5121936E-2,-5.9805114E-2,2.42E2,3.9588146E-2,-1.7539993E-2],"split_indices":[5,10,0,0,1,0,0],"split_type":[0,0,0,0,0,0,0],"sum_hessian":[6.6853256E0,5.100322E0,1.5850037E0,1.4546334E0,3.6456885E0,1.7214936E0,1.9241949E0],"tree_param":{"num_deleted":"0","num_feature":"11","num_nodes":"7","size_leaf_vector":"1"}},{"base_weights":[-2.4037044E-4,6.647818E-2,-7.7024125E-2,1.5458797E-1,-3.0889092E-2,-6.337505E-2,2.0050013E-2,-2.4662036E-2,9.611093E-2],"categories":[],"categories_nodes":[],"categories_segments":[],"categories_sizes":[],"default_left":[0,0,0,0,0,0,0,0,0],"id":53,"left_children":[1,3,5,7,-1,-1,-1,-1,-1],"loss_changes":[4.434553E-2,8.509533E-2,9.180306E-2,1.6170192E-1,0E0,0E0,0E0,0E0,0E0],"parents":[2147483647,0,0,1,1,2,2,3,3],"right_children":[2,4,6,8,-1,-1,-1,-1,-1],"split_conditions":[8.4455E2,4.1793E4,1.4438E3,8.55E1,-3.0889092E-2,-6.337505E-2,2.0050013E-2,-2.4662036E-2,9.611093E-2],"split_indices":[1,7,1,0,0,0,0,0,0],"split_type":[0,0,0,0,0,0,0,0,0],"sum_hessian":[6.656816E0,3.6336763E0,3.0231397E0,2.448249E0,1.185427E0,1.3215766E0,1.7015631E0,1.2157938E0,1.2324554E0],"tree_param":{"num_deleted":"0","num_feature":"11","num_nodes":"9","size_leaf_vector":"1"}},{"base_weights":[-3.3775382E-4,-5.6183312E-2,9.188651E-2,6.395211E-2,-6.696383E-2,-1.7909834E-2,5.80859E-2,-1.1978208E-2,5.1412933E-2],"categories":[],"categories_nodes":[],"categories_segments":[],"categories_sizes":[],"default_left":[0,0,0,0,0,0,0,0,0],"id":54,"left_children":[1,3,5,7,-1,-1,-1,-1,-1],"loss_changes":[4.4233665E-2,1.2153969E-1,6.1533526E-2,5.0213233E-2,0E0,0E0,0E0,0E0,0E0],"parents":[2147483647,0,0,1,1,2,2,3,3],"right_children":[2,4,6,8,-1,-1,-1,-1,-1],"split_conditions":[8E0,1.3333334E0,1.923077E-2,5.364545E2,-6.696383E-2,-1.7909834E-2,5.80859E-2,-1.1978208E-2,5.1412933E-2],"split_indices":[3,6,10,0,0,0,0,0,0],"split_type":[0,0,0,0,0,0,0,0,0],"sum_hessian":[6.5861707E0,4.3455563E0,2.2406147E0,2.8865411E0,1.4590151E0,1.0657643E0,1.1748502E0,1.7869139E0,1.0996271E0],"tree_param":{"num_deleted":"0","num_feature":"11","num_nodes":"9","size_leaf_vector":"1"}},{"base_weights":[1.5118067E-3,-4.7798373E-2,3.4913875E-2,-5.32039E-2,3.1068042E-2,-4.95944E-2,3.9912537E-2,2.3934891E-2,-4.542523E-2],"categories":[],"categories_nodes":[],"categories_segments":[],"categories_sizes":[],"default_left":[0,0,0,0,0,0,0,0,0],"id":55,"left_children":[1,3,-1,-1,5,7,-1,-1,-1],"loss_changes":[4.819716E-2,6.655833E-2,0E0,0E0,4.41477E-2,5.5254593E-2,0E0,0E0,0E0],"parents":[2147483647,0,0,1,1,4,4,5,5],"right_children":[2,4,-1,-1,6,8,-1,-1,-1],"split_conditions":[4.4333334E0,2E-1,3.4913875E-2,-5.32039E-2,6.7E2,8.45E1,3.9912537E-2,2.3934891E-2,-4.542523E-2],"split_indices":[5,10,0,0,1,0,0,0,0],"split_type":[0,0,0,0,0,0,0,0,0],"sum_hessian":[6.527062E0,4.975202E0,1.55186E0,1.4101543E0,3.5650475E0,2.2773178E0,1.28773E0,1.0982828E0,1.1790348E0],"tree_param":{"num_deleted":"0","num_feature":"11","num_nodes":"9","size_leaf_vector":"1"}},{"base_weights":[1.0625337E-3,7.090129E-2,-7.868109E-2,-3.2585487E-2,6.0664374E-2,-6.957742E-2,1.6129453E-2,2.0200638E-2,-3.2934662E-2],"categories":[],"categories_nodes":[],"categories_segments":[],"categories_sizes":[],"default_left":[0,0,0,0,0,0,0,0,0],"id":56,"left_children":[1,3,5,7,-1,-1,-1,-1,-1],"loss_changes":[4.7268216E-2,6.796788E-2,9.30268E-2,3.3519816E-2,0E0,0E0,0E0,0E0,0E0],"parents":[2147483647,0,0,1,1,2,2,3,3],"right_children":[2,4,6,8,-1,-1,-1,-1,-1],"split_conditions":[8.4455E2,5E0,1.2856927E3,8.45E1,6.0664374E-2,-6.957742E-2,1.6129453E-2,2.0200638E-2,-3.2934662E-2],"split_indices":[1,3,0,0,0,0,0,0,0],"split_type":[0,0,0,0,0,0,0,0,0],"sum_hessian":[6.4857535E0,3.5167232E0,2.9690301E0,2.3872237E0,1.1294996E0,1.0282391E0,1.9407911E0,1.0961475E0,1.2910762E0],"tree_param":{"num_deleted":"0","num_feature":"11","num_nodes":"9","size_leaf_vector":"1"}},{"base_weights":[-7.2479043E-6,4.834416E-2,-3.7634946E-2,-1.0734442E-1,1.5571241E-1,7.7231145E-3,-5.6091E-2,8.685746E-2,-2.1297496E-2],"categories":[],"categories_nodes":[],"categories_segments":[],"categories_sizes":[],"default_left":[0,0,0,0,0,0,0,0,0],"id":57,"left_children":[1,3,-1,5,7,-1,-1,-1,-1],"loss_changes":[5.1223315E-2,1.18612505E-1,0E0,3.7452493E-2,1.4237748E-1,0E0,0E0,0E0,0E0],"parents":[2147483647,0,0,1,1,3,3,4,4],"right_children":[2,4,-1,6,8,-1,-1,-1,-1],"split_conditions":[1.2E1,5.364545E2,-3.7634946E-2,7.75E1,3.43775E3,7.7231145E-3,-5.6091E-2,8.685746E-2,-2.1297496E-2],"split_indices":[3,0,0,0,0,0,0,0,0],"split_type":[0,0,0,0,0,0,0,0,0],"sum_hessian":[6.4453626E0,5.095811E0,1.3495516E0,2.079977E0,3.015834E0,1.0319092E0,1.0480678E0,1.7221987E0,1.2936352E0],"tree_param":{"num_deleted":"0","num_feature":"11","num_nodes":"9","size_leaf_vector":"1"}},{"base_weights":[-2.4921915E-3,7.509824E-2,-6.9046505E-2,-1.8001037E-2,4.8311364E-2,-5.3004805E-2,4.1889757E-2,4.9667407E-2,-3.0891469E-2],"categories":[],"categories_nodes":[],"categories_segments":[],"categories_sizes":[],"default_left":[0,0,0,0,0,0,0,0,0],"id":58,"left_children":[1,3,5,-1,-1,-1,7,-1,-1],"loss_changes":[4.3154936E-2,5.4641448E-2,6.088221E-2,0E0,0E0,0E0,7.1042255E-2,0E0,0E0],"parents":[2147483647,0,0,1,1,2,2,6,6],"right_children":[2,4,6,-1,-1,-1,8,-1,-1],"split_conditions":[8.127895E2,1.56E2,2.4045E3,-1.8001037E-2,4.8311364E-2,-5.3004805E-2,1.792638E1,4.9667407E-2,-3.0891469E-2],"split_indices":[0,1,0,0,0,0,6,0,0],"split_type":[0,0,0,0,0,0,0,0,0],"sum_hessian":[6.3527946E0,2.8739302E0,3.4788642E0,1.2347044E0,1.6392258E0,1.4648954E0,2.013969E0,1.009384E0,1.0045848E0],"tree_param":{"num_deleted":"0","num_feature":"11","num_nodes":"9","size_leaf_vector":"1"}},{"base_weights":[-2.2389004E-3,-4.6548117E-2,3.0506706E-2,2.5322681E-2,-1.12163335E-1,-5.9616026E-2,1.2181143E-2],"categories":[],"categories_nodes":[],"categories_segments":[],"categories_sizes":[],"default_left":[0,0,0,0,0,0,0],"id":59,"left_children":[1,3,-1,-1,5,-1,-1],"loss_changes":[3.8385294E-2,5.9386335E-2,0E0,0E0,6.492297E-2,0E0,0E0],"parents":[2147483647,0,0,1,1,4,4],"right_children":[2,4,-1,-1,6,-1,-1],"split_conditions":[4.4333334E0,1.7026315E2,3.0506706E-2,2.5322681E-2,1.2138462E3,-5.9616026E-2,1.2181143E-2],"split_indices":[5,0,0,0,0,0,0],"split_type":[0,0,0,0,0,0,0],"sum_hessian":[6.307735E0,4.809386E0,1.4983492E0,1.5097511E0,3.2996347E0,1.9142379E0,1.3853968E0],"tree_param":{"num_deleted":"0","num_feature":"11","num_nodes":"7","size_leaf_vector":"1"}},{"base_weights":[-4.899244E-4,3.9346207E-2,-3.651393E-2,-3.939577E-2,6.23535E-2,2.1148175E-2,-1.16424516E-1,-6.878072E-2,1.8285226E-2],"categories":[],"categories_nodes":[],"categories_segments":[],"categories_sizes":[],"default_left":[0,0,0,0,0,0,0,0,0],"id":60,"left_children":[1,3,-1,5,-1,-1,7,-1,-1],"loss_changes":[3.991327E-2,9.0850204E-2,0E0,5.126403E-2,0E0,0E0,8.1379205E-2,0E0,0E0],"parents":[2147483647,0,0,1,1,3,3,6,6],"right_children":[2,4,-1,6,-1,-1,8,-1,-1],"split_conditions":[3.12E1,5E-1,-3.651393E-2,2.3834952E2,6.23535E-2,2.1148175E-2,1.1425E3,-6.878072E-2,1.8285226E-2],"split_indices":[6,4,0,1,0,0,0,0,0],"split_type":[0,0,0,0,0,0,0,0,0],"sum_hessian":[6.2735295E0,5.230211E0,1.0433189E0,4.0866528E0,1.1435579E0,1.7190632E0,2.3675897E0,1.2682046E0,1.0993851E0],"tree_param":{"num_deleted":"0","num_feature":"11","num_nodes":"9","size_leaf_vector":"1"}},{"base_weights":[-8.382603E-4,-5.6361143E-2,9.040124E-2,5.418993E-2,-6.275452E-2,-1.583397E-2,5.577787E-2,-1.0230305E-2,4.3578472E-2],"categories":[],"categories_nodes":[],"categories_segments":[],"categories_sizes":[],"default_left":[0,0,0,0,0,0,0,0,0],"id":61,"left_children":[1,3,5,7,-1,-1,-1,-1,-1],"loss_changes":[4.168887E-2,9.7611144E-2,5.2443348E-2,3.5166167E-2,0E0,0E0,0E0,0E0,0E0],"parents":[2147483647,0,0,1,1,2,2,3,3],"right_children":[2,4,6,8,-1,-1,-1,-1,-1],"split_conditions":[8E0,1.3333334E0,1.923077E-2,5.364545E2,-6.275452E-2,-1.583397E-2,5.577787E-2,-1.0230305E-2,4.3578472E-2],"split_indices":[3,6,10,0,0,0,0,0,0],"split_type":[0,0,0,0,0,0,0,0,0],"sum_hessian":[6.2235727E0,4.106734E0,2.116839E0,2.7574117E0,1.3493221E0,1.0261828E0,1.0906563E0,1.7177085E0,1.0397031E0],"tree_param":{"num_deleted":"0","num_feature":"11","num_nodes":"9","size_leaf_vector":"1"}},{"base_weights":[9.249556E-4,7.493884E-2,-7.012721E-2,-1.1832264E-2,5.790821E-2,-5.4097515E-2,1.6340168E-2],"categories":[],"categories_nodes":[],"categories_segments":[],"categories_sizes":[],"default_left":[0,0,0,0,0,0,0],"id":62,"left_children":[1,3,5,-1,-1,-1,-1],"loss_changes":[4.298292E-2,6.1603718E-2,6.717061E-2,0E0,0E0,0E0,0E0],"parents":[2147483647,0,0,1,1,2,2],"right_children":[2,4,6,-1,-1,-1,-1],"split_conditions":[1.0305778E3,3.315E2,4E0,-1.1832264E-2,5.790821E-2,-5.4097515E-2,1.6340168E-2],"split_indices":[0,1,3,0,0,0,0],"split_type":[0,0,0,0,0,0,0],"sum_hessian":[6.1741333E0,2.9972477E0,3.1768858E0,1.8608484E0,1.1363991E0,1.448479E0,1.7284068E0],"tree_param":{"num_deleted":"0","num_feature":"11","num_nodes":"7","size_leaf_vector":"1"}},{"base_weights":[1.8438983E-3,4.9721546E-2,-3.636724E-2,-9.10698E-2,1.4733239E-1,-3.5692833E-2,-5.2302135E-3,8.0751345E-2,-1.5463843E-2],"categories":[],"categories_nodes":[],"categories_segments":[],"categories_sizes":[],"default_left":[0,0,0,0,0,0,0,0,0],"id":63,"left_children":[1,3,-1,5,7,-1,-1,-1,-1],"loss_changes":[4.8140403E-2,9.3875974E-2,0E0,4.12149E-3,1.0691032E-1,0E0,0E0,0E0,0E0],"parents":[2147483647,0,0,1,1,3,3,4,4],"right_children":[2,4,-1,6,8,-1,-1,-1,-1],"split_conditions":[1.2E1,5.364545E2,-3.636724E-2,1.8181819E-1,1.3943778E3,-3.5692833E-2,-5.2302135E-3,8.0751345E-2,-1.5463843E-2],"split_indices":[3,0,0,6,1,0,0,0,0],"split_type":[0,0,0,0,0,0,0,0,0],"sum_hessian":[6.1472282E0,4.854605E0,1.2926233E0,2.0150952E0,2.83951E0,1.0147787E0,1.0003165E0,1.5416224E0,1.2978874E0],"tree_param":{"num_deleted":"0","num_feature":"11","num_nodes":"9","size_leaf_vector":"1"}},{"base_weights":[-1.4017374E-4,7.768916E-2,-6.785894E-2,-1.3656912E-2,4.638897E-2,-4.8879463E-2,9.721199E-3],"categories":[],"categories_nodes":[],"categories_segments":[],"categories_sizes":[],"default_left":[0,0,0,0,0,0,0],"id":64,"left_children":[1,3,5,-1,-1,-1,-1],"loss_changes":[4.258799E-2,4.2687967E-2,4.6456777E-2,0E0,0E0,0E0,0E0],"parents":[2147483647,0,0,1,1,2,2],"right_children":[2,4,6,-1,-1,-1,-1],"split_conditions":[8.127895E2,1.56E2,2.4045E3,-1.3656912E-2,4.638897E-2,-4.8879463E-2,9.721199E-3],"split_indices":[0,1,0,0,0,0,0],"split_type":[0,0,0,0,0,0,0],"sum_hessian":[6.08017E0,2.7604017E0,3.3197687E0,1.2180935E0,1.5423081E0,1.3831644E0,1.9366043E0],"tree_param":{"num_deleted":"0","num_feature":"11","num_nodes":"7","size_leaf_vector":"1"}},{"base_weights":[-1.0005762E-3,-4.1520637E-2,3.5218842E-2,4.468514E-2,-6.64788E-2,-1.3720051E-2,1.1477617E-1,4.1871555E-2,9.669121E-3],"categories":[],"categories_nodes":[],"categories_segments":[],"categories_sizes":[],"default_left":[0,0,0,0,0,0,0,0,0],"id":65,"left_children":[1,3,-1,5,-1,-1,7,-1,-1],"loss_changes":[3.872901E-2,1.0298453E-1,0E0,3.622187E-2,0E0,0E0,1.7196313E-3,0E0,0E0],"parents":[2147483647,0,0,1,1,3,3,6,6],"right_children":[2,4,-1,6,-1,-1,8,-1,-1],"split_conditions":[9.5454544E-1,6E0,3.5218842E-2,1.8181819E-1,-6.64788E-2,-1.3720051E-2,2.27E2,4.1871555E-2,9.669121E-3],"split_indices":[4,2,0,6,0,0,1,0,0],"split_type":[0,0,0,0,0,0,0,0,0],"sum_hessian":[6.056812E0,4.996217E0,1.0605947E0,3.8871913E0,1.1090256E0,1.8492018E0,2.0379896E0,1.0359591E0,1.0020305E0],"tree_param":{"num_deleted":"0","num_feature":"11","num_nodes":"9","size_leaf_vector":"1"}},{"base_weights":[1.3857168E-4,-4.9724326E-2,8.276993E-2,5.3361762E-2,-5.832998E-2,-7.349246E-3,4.4550832E-2,-6.3473633E-3,2.9469784E-2],"categories":[],"categories_nodes":[],"categories_segments":[],"categories_sizes":[],"default_left":[0,0,0,0,0,0,0,0,0],"id":66,"left_children":[1,3,5,7,-1,-1,-1,-1,-1],"loss_changes":[3.304893E-2,8.502514E-2,2.4918113E-2,1.4473815E-2,0E0,0E0,0E0,0E0,0E0],"parents":[2147483647,0,0,1,1,2,2,3,3],"right_children":[2,4,6,8,-1,-1,-1,-1,-1],"split_conditions":[8E0,1.3333334E0,4.0868E4,1.56E2,-5.832998E-2,-7.349246E-3,4.4550832E-2,-6.3473633E-3,2.9469784E-2],"split_indices":[3,6,7,1,0,0,0,0,0],"split_type":[0,0,0,0,0,0,0,0,0],"sum_hessian":[6.022227E0,4.004187E0,2.0180395E0,2.7070312E0,1.2971561E0,1.0051246E0,1.0129148E0,1.2160077E0,1.4910234E0],"tree_param":{"num_deleted":"0","num_feature":"11","num_nodes":"9","size_leaf_vector":"1"}},{"base_weights":[3.6874742E-4,-4.4399597E-2,2.8903747E-2,2.3949202E-2,-1.1041239E-1,-5.9348878E-2,1.2740252E-2],"categories":[],"categories_nodes":[],"categories_segments":[],"categories_sizes":[],"default_left":[0,0,0,0,0,0,0],"id":67,"left_children":[1,3,-1,-1,5,-1,-1],"loss_changes":[3.4334797E-2,5.3547893E-2,0E0,0E0,6.1613407E-2,0E0,0E0],"parents":[2147483647,0,0,1,1,4,4],"right_children":[2,4,-1,-1,6,-1,-1],"split_conditions":[3.1666667E0,1.7026315E2,2.8903747E-2,2.3949202E-2,1.2138462E3,-5.9348878E-2,1.2740252E-2],"split_indices":[5,0,0,0,0,0,0],"split_type":[0,0,0,0,0,0,0],"sum_hessian":[5.995331E0,4.4547935E0,1.5405372E0,1.4731443E0,2.9816494E0,1.7099023E0,1.2717471E0],"tree_param":{"num_deleted":"0","num_feature":"11","num_nodes":"7","size_leaf_vector":"1"}},{"base_weights":[1.0824292E-3,4.3578062E-2,-3.223702E-2,-2.6518416E-2,1.3752268E-1,8.069788E-2,-2.2541046E-2],"categories":[],"categories_nodes":[],"categories_segments":[],"categories_sizes":[],"default_left":[0,0,0,0,0,0,0],"id":68,"left_children":[1,3,-1,-1,5,-1,-1],"loss_changes":[3.6799416E-2,8.301626E-2,0E0,0E0,1.2449569E-1,0E0,0E0],"parents":[2147483647,0,0,1,1,4,4],"right_children":[2,4,-1,-1,6,-1,-1],"split_conditions":[1.2E1,5.364545E2,-3.223702E-2,-2.6518416E-2,3.43775E3,8.069788E-2,-2.2541046E-2],"split_indices":[3,0,0,0,0,0,0],"split_type":[0,0,0,0,0,0,0],"sum_hessian":[5.9630523E0,4.7153754E0,1.2476766E0,1.9853897E0,2.729986E0,1.5233325E0,1.2066535E0],"tree_param":{"num_deleted":"0","num_feature":"11","num_nodes":"7","size_leaf_vector":"1"}},{"base_weights":[9.4925304E-4,7.376557E-2,-6.869948E-2,-5.271859E-3,4.915348E-2,-4.4402424E-2,1.5342377E-2],"categories":[],"categories_nodes":[],"categories_segments":[],"categories_sizes":[],"default_left":[0,0,0,0,0,0,0],"id":69,"left_children":[1,3,5,-1,-1,-1,-1],"loss_changes":[4.004646E-2,3.4589365E-2,4.59954E-2,0E0,0E0,0E0,0E0],"parents":[2147483647,0,0,1,1,2,2],"right_children":[2,4,6,-1,-1,-1,-1],"split_conditions":[1.0305778E3,3.315E2,1.4438E3,-5.271859E-3,4.915348E-2,-4.4402424E-2,1.5342377E-2],"split_indices":[0,1,1,0,0,0,0],"split_type":[0,0,0,0,0,0,0],"sum_hessian":[5.897044E0,2.854067E0,3.042977E0,1.8167956E0,1.0372715E0,1.6897131E0,1.353264E0],"tree_param":{"num_deleted":"0","num_feature":"11","num_nodes":"7","size_leaf_vector":"1"}},{"base_weights":[2.837425E-3,7.8317136E-2,-5.635821E-2,-5.9282724E-3,4.525855E-2,-5.469457E-2,5.2339062E-2,-9.434884E-3,3.192088E-2],"categories":[],"categories_nodes":[],"categories_segments":[],"categories_sizes":[],"default_left":[0,0,0,0,0,0,0,0,0],"id":70,"left_children":[1,3,5,-1,-1,-1,7,-1,-1],"loss_changes":[3.5135843E-2,2.7462123E-2,7.0264995E-2,0E0,0E0,0E0,1.7650304E-2,0E0,0E0],"parents":[2147483647,0,0,1,1,2,2,6,6],"right_children":[2,4,6,-1,-1,-1,8,-1,-1],"split_conditions":[4.98E2,1.56E2,1.0535E3,-5.9282724E-3,4.525855E-2,-5.469457E-2,2.0340084E3,-9.434884E-3,3.192088E-2],"split_indices":[1,1,1,0,0,0,0,0,0],"split_type":[0,0,0,0,0,0,0,0,0],"sum_hessian":[5.8759065E0,2.4407327E0,3.4351737E0,1.3471006E0,1.0936321E0,1.2775222E0,2.1576517E0,1.0102481E0,1.1474035E0],"tree_param":{"num_deleted":"0","num_feature":"11","num_nodes":"9","size_leaf_vector":"1"}},{"base_weights":[3.0315474E-3,-2.9146312E-2,3.9824948E-2,-2.9980747E-2,4.1688807E-2,2.3901306E-2,-3.569713E-2],"categories":[],"categories_nodes":[],"categories_segments":[],"categories_sizes":[],"default_left":[0,0,0,0,0,0,0],"id":71,"left_children":[1,-1,3,5,-1,-1,-1],"loss_changes":[2.9102124E-2,0E0,4.372217E-2,5.0244667E-2,0E0,0E0,0E0],"parents":[2147483647,0,0,2,2,3,3],"right_children":[2,-1,4,6,-1,-1,-1],"split_conditions":[1.0869565E-2,-2.9146312E-2,1.2138462E3,1.7026315E2,4.1688807E-2,2.3901306E-2,-3.569713E-2],"split_indices":[10,0,0,0,0,0,0],"split_type":[0,0,0,0,0,0,0],"sum_hessian":[5.8452854E0,1.1294183E0,4.715867E0,3.1766691E0,1.5391979E0,1.4703053E0,1.7063638E0],"tree_param":{"num_deleted":"0","num_feature":"11","num_nodes":"7","size_leaf_vector":"1"}},{"base_weights":[2.2638554E-3,-4.74124E-2,2.511338E-2,5.2467544E-2,-5.636179E-2,2.9221086E-2,-2.6718075E-3],"categories":[],"categories_nodes":[],"categories_segments":[],"categories_sizes":[],"default_left":[0,0,0,0,0,0,0],"id":72,"left_children":[1,3,-1,5,-1,-1,-1],"loss_changes":[3.154271E-2,7.820152E-2,0E0,1.0875193E-2,0E0,0E0,0E0],"parents":[2147483647,0,0,1,1,3,3],"right_children":[2,4,-1,6,-1,-1,-1],"split_conditions":[8E0,1.3333334E0,2.511338E-2,1.664E2,-5.636179E-2,2.9221086E-2,-2.6718075E-3],"split_indices":[3,6,0,0,0,0,0],"split_type":[0,0,0,0,0,0,0],"sum_hessian":[5.8150644E0,3.871589E0,1.9434755E0,2.6287613E0,1.2428275E0,1.1786929E0,1.4500685E0],"tree_param":{"num_deleted":"0","num_feature":"11","num_nodes":"7","size_leaf_vector":"1"}},{"base_weights":[8.6813467E-4,-4.3367542E-2,3.0228676E-2,-4.8937697E-2,2.8224187E-2,-6.261787E-2,4.1937154E-2,6.204182E-3,-3.4299176E-2],"categories":[],"categories_nodes":[],"categories_segments":[],"categories_sizes":[],"default_left":[0,0,0,0,0,0,0,0,0],"id":73,"left_children":[1,3,-1,-1,5,7,-1,-1,-1],"loss_changes":[3.439557E-2,5.097514E-2,0E0,0E0,5.169987E-2,1.5400527E-2,0E0,0E0,0E0],"parents":[2147483647,0,0,1,1,4,4,5,5],"right_children":[2,4,-1,-1,6,8,-1,-1,-1],"split_conditions":[4.4333334E0,2E-1,3.0228676E-2,-4.8937697E-2,5.5632404E2,7E-1,4.1937154E-2,6.204182E-3,-3.4299176E-2],"split_indices":[5,10,0,0,1,6,0,0,0],"split_type":[0,0,0,0,0,0,0,0,0],"sum_hessian":[5.794874E0,4.4085293E0,1.386345E0,1.1710505E0,3.2374787E0,2.0263097E0,1.211169E0,1.0059764E0,1.0203332E0],"tree_param":{"num_deleted":"0","num_feature":"11","num_nodes":"9","size_leaf_vector":"1"}},{"base_weights":[-1.2041211E-4,6.482332E-2,-6.270104E-2,-8.6710155E-3,4.8341233E-2,-4.7191117E-2,1.4031941E-2],"categories":[],"categories_nodes":[],"categories_segments":[],"categories_sizes":[],"default_left":[0,0,0,0,0,0,0],"id":74,"left_children":[1,3,5,-1,-1,-1,-1],"loss_changes":[3.1540625E-2,3.9044637E-2,4.8278455E-2,0E0,0E0,0E0,0E0],"parents":[2147483647,0,0,1,1,2,2],"right_children":[2,4,6,-1,-1,-1,-1],"split_conditions":[1.0305778E3,3.315E2,4E0,-8.6710155E-3,4.8341233E-2,-4.7191117E-2,1.4031941E-2],"split_indices":[0,1,3,0,0,0,0],"split_type":[0,0,0,0,0,0,0],"sum_hessian":[5.760494E0,2.809288E0,2.9512062E0,1.7784853E0,1.0308028E0,1.3487631E0,1.6024431E0],"tree_param":{"num_deleted":"0","num_feature":"11","num_nodes":"7","size_leaf_vector":"1"}},{"base_weights":[8.972455E-4,4.3096285E-2,-3.136796E-2,-2.5539158E-2,1.3672945E-1,7.428437E-2,-1.3566309E-2],"categories":[],"categories_nodes":[],"categories_segments":[],"categories_sizes":[],"default_left":[0,0,0,0,0,0,0],"id":75,"left_children":[1,3,-1,-1,5,-1,-1],"loss_changes":[3.4506086E-2,7.794814E-2,0E0,0E0,8.3338976E-2,0E0,0E0],"parents":[2147483647,0,0,1,1,4,4],"right_children":[2,4,-1,-1,6,-1,-1],"split_conditions":[1.2E1,5.364545E2,-3.136796E-2,-2.5539158E-2,1.3943778E3,7.428437E-2,-1.3566309E-2],"split_indices":[3,0,0,0,1,0,0],"split_type":[0,0,0,0,0,0,0],"sum_hessian":[5.741276E0,4.5227995E0,1.2184762E0,1.947114E0,2.5756855E0,1.3761413E0,1.1995441E0],"tree_param":{"num_deleted":"0","num_feature":"11","num_nodes":"7","size_leaf_vector":"1"}},{"base_weights":[1.4046642E-3,7.484228E-2,-5.6013476E-2,-6.392608E-3,4.2277865E-2,-5.4297056E-2,5.2793756E-2,-6.632123E-3,3.0058583E-2],"categories":[],"categories_nodes":[],"categories_segments":[],"categories_sizes":[],"default_left":[0,0,0,0,0,0,0,0,0],"id":76,"left_children":[1,3,5,-1,-1,-1,7,-1,-1],"loss_changes":[3.238896E-2,2.4366776E-2,6.836488E-2,0E0,0E0,0E0,1.317202E-2,0E0,0E0],"parents":[2147483647,0,0,1,1,2,2,6,6],"right_children":[2,4,6,-1,-1,-1,8,-1,-1],"split_conditions":[4.98E2,8.55E1,1.0535E3,-6.392608E-3,4.2277865E-2,-5.4297056E-2,2.1742727E3,-6.632123E-3,3.0058583E-2],"split_indices":[1,0,1,0,0,0,0,0,0],"split_type":[0,0,0,0,0,0,0,0,0],"sum_hessian":[5.687009E0,2.3622448E0,3.324764E0,1.2382149E0,1.1240299E0,1.2386456E0,2.0861185E0,1.0153495E0,1.070769E0],"tree_param":{"num_deleted":"0","num_feature":"11","num_nodes":"9","size_leaf_vector":"1"}},{"base_weights":[1.7192101E-3,-3.1250402E-2,4.1273035E-2,-1.8399965E-2,4.1390434E-2,2.0175798E-2,-6.807061E-2,7.025871E-3,-3.8770836E-2],"categories":[],"categories_nodes":[],"categories_segments":[],"categories_sizes":[],"default_left":[0,0,0,0,0,0,0,0,0],"id":77,"left_children":[1,-1,3,5,-1,-1,7,-1,-1],"loss_changes":[3.220103E-2,0E0,3.4657054E-2,2.297604E-2,0E0,0E0,2.1125052E-2,0E0,0E0],"parents":[2147483647,0,0,2,2,3,3,6,6],"right_children":[2,-1,4,6,-1,-1,8,-1,-1],"split_conditions":[1.0869565E-2,-3.1250402E-2,2.7E0,8.45E1,4.1390434E-2,2.0175798E-2,1.9247E4,7.025871E-3,-3.8770836E-2],"split_indices":[10,0,6,0,0,0,7,0,0],"split_type":[0,0,0,0,0,0,0,0,0],"sum_hessian":[5.6619096E0,1.0955367E0,4.566373E0,3.3244693E0,1.2419034E0,1.0903263E0,2.234143E0,1.14243E0,1.0917131E0],"tree_param":{"num_deleted":"0","num_feature":"11","num_nodes":"9","size_leaf_vector":"1"}},{"base_weights":[1.0002723E-3,6.4021446E-2,-5.53854E-2,-1.0143513E-2,3.789239E-2,-4.287578E-2,1.0293631E-2],"categories":[],"categories_nodes":[],"categories_segments":[],"categories_sizes":[],"default_left":[0,0,0,0,0,0,0],"id":78,"left_children":[1,3,5,-1,-1,-1,-1],"loss_changes":[2.714777E-2,2.6209412E-2,3.663721E-2,0E0,0E0,0E0,0E0],"parents":[2147483647,0,0,1,1,2,2],"right_children":[2,4,6,-1,-1,-1,-1],"split_conditions":[8.127895E2,1.56E2,2.4045E3,-1.0143513E-2,3.789239E-2,-4.287578E-2,1.0293631E-2],"split_indices":[0,1,0,0,0,0,0],"split_type":[0,0,0,0,0,0,0],"sum_hessian":[5.641896E0,2.6002388E0,3.041657E0,1.1893269E0,1.4109119E0,1.2390991E0,1.8025578E0],"tree_param":{"num_deleted":"0","num_feature":"11","num_nodes":"7","size_leaf_vector":"1"}},{"base_weights":[-2.4838575E-5,-4.570335E-2,2.2672059E-2,4.7759652E-2,-5.3589836E-2,3.0509789E-2,-6.222332E-3],"categories":[],"categories_nodes":[],"categories_segments":[],"categories_sizes":[],"default_left":[0,0,0,0,0,0,0],"id":79,"left_children":[1,3,-1,5,-1,-1,-1],"loss_changes":[2.633278E-2,6.758373E-2,0E0,1.5336681E-2,0E0,0E0,0E0],"parents":[2147483647,0,0,1,1,3,3],"right_children":[2,4,-1,6,-1,-1,-1],"split_conditions":[8E0,1.3333334E0,2.2672059E-2,1.664E2,-5.3589836E-2,3.0509789E-2,-6.222332E-3],"split_indices":[3,6,0,0,0,0,0],"split_type":[0,0,0,0,0,0,0],"sum_hessian":[5.625356E0,3.7530875E0,1.8722686E0,2.5798812E0,1.1732064E0,1.1722052E0,1.4076759E0],"tree_param":{"num_deleted":"0","num_feature":"11","num_nodes":"7","size_leaf_vector":"1"}},{"base_weights":[-1.0484776E-3,3.9104212E-2,-3.0104637E-2,-2.5691286E-2,1.3213898E-1,6.978234E-2,-1.2688322E-2],"categories":[],"categories_nodes":[],"categories_segments":[],"categories_sizes":[],"default_left":[0,0,0,0,0,0,0],"id":80,"left_children":[1,3,-1,-1,5,-1,-1],"loss_changes":[3.026647E-2,7.426433E-2,0E0,0E0,7.11783E-2,0E0,0E0],"parents":[2147483647,0,0,1,1,4,4],"right_children":[2,4,-1,-1,6,-1,-1],"split_conditions":[1.2E1,5.364545E2,-3.0104637E-2,-2.5691286E-2,3.43775E3,6.978234E-2,-1.2688322E-2],"split_indices":[3,0,0,0,0,0,0],"split_type":[0,0,0,0,0,0,0],"sum_hessian":[5.6067863E0,4.424083E0,1.1827028E0,1.9239475E0,2.500136E0,1.3747898E0,1.125346E0],"tree_param":{"num_deleted":"0","num_feature":"11","num_nodes":"7","size_leaf_vector":"1"}},{"base_weights":[-3.6428962E-4,-4.15818E-2,2.795475E-2,-4.8316672E-2,2.9432464E-2,-1.5998816E-2,3.952078E-2],"categories":[],"categories_nodes":[],"categories_segments":[],"categories_sizes":[],"default_left":[0,0,0,0,0,0,0],"id":81,"left_children":[1,3,-1,-1,5,-1,-1],"loss_changes":[2.9152922E-2,4.9217477E-2,0E0,0E0,4.2022444E-2,0E0,0E0],"parents":[2147483647,0,0,1,1,4,4],"right_children":[2,4,-1,-1,6,-1,-1],"split_conditions":[4.4333334E0,2E-1,2.795475E-2,-4.8316672E-2,1.098E3,-1.5998816E-2,3.952078E-2],"split_indices":[5,10,0,0,7,0,0],"split_type":[0,0,0,0,0,0,0],"sum_hessian":[5.555955E0,4.2422714E0,1.3136836E0,1.1088384E0,3.1334329E0,1.9967822E0,1.1366506E0],"tree_param":{"num_deleted":"0","num_feature":"11","num_nodes":"7","size_leaf_vector":"1"}},{"base_weights":[2.2620244E-4,-2.9480202E-2,3.74481E-2,-2.9556224E-2,3.963869E-2,2.3049356E-2,-3.5365615E-2],"categories":[],"categories_nodes":[],"categories_segments":[],"categories_sizes":[],"default_left":[0,0,0,0,0,0,0],"id":82,"left_children":[1,-1,3,5,-1,-1,-1],"loss_changes":[2.7622508E-2,0E0,3.8567E-2,4.6802323E-2,0E0,0E0,0E0],"parents":[2147483647,0,0,2,2,3,3],"right_children":[2,-1,4,6,-1,-1,-1],"split_conditions":[1.0869565E-2,-2.9480202E-2,1.2138462E3,1.7026315E2,3.963869E-2,2.3049356E-2,-3.5365615E-2],"split_indices":[10,0,0,0,0,0,0],"split_type":[0,0,0,0,0,0,0],"sum_hessian":[5.5307746E0,1.0670893E0,4.463685E0,3.016666E0,1.4470193E0,1.4274982E0,1.5891677E0],"tree_param":{"num_deleted":"0","num_feature":"11","num_nodes":"7","size_leaf_vector":"1"}},{"base_weights":[-1.5746838E-4,6.34216E-2,-6.1720576E-2,-9.2416145E-3,3.6859125E-2,1.6671455E-2,-4.506798E-2],"categories":[],"categories_nodes":[],"categories_segments":[],"categories_sizes":[],"default_left":[0,0,0,0,0,0,0],"id":83,"left_children":[1,3,5,-1,-1,-1,-1],"loss_changes":[2.936769E-2,2.446557E-2,4.790678E-2,0E0,0E0,0E0,0E0],"parents":[2147483647,0,0,1,1,2,2],"right_children":[2,4,6,-1,-1,-1,-1],"split_conditions":[1.0305778E3,8.55E1,7.692308E-2,-9.2416145E-3,3.6859125E-2,1.6671455E-2,-4.506798E-2],"split_indices":[0,0,10,0,0,0,0],"split_type":[0,0,0,0,0,0,0],"sum_hessian":[5.5029283E0,2.6922889E0,2.8106394E0,1.2277819E0,1.4645069E0,1.3687832E0,1.4418561E0],"tree_param":{"num_deleted":"0","num_feature":"11","num_nodes":"7","size_leaf_vector":"1"}},{"base_weights":[-2.3305324E-4,-2.7930856E-2,3.5167526E-2,-2.8538786E-2,3.7560236E-2,-3.0411184E-2,2.2118708E-2],"categories":[],"categories_nodes":[],"categories_segments":[],"categories_sizes":[],"default_left":[0,0,0,0,0,0,0],"id":84,"left_children":[1,-1,3,5,-1,-1,-1],"loss_changes":[2.4610877E-2,0E0,3.4687262E-2,3.7201613E-2,0E0,0E0,0E0],"parents":[2147483647,0,0,2,2,3,3],"right_children":[2,-1,4,6,-1,-1,-1],"split_conditions":[1.0869565E-2,-2.7930856E-2,1.2138462E3,2E0,3.7560236E-2,-3.0411184E-2,2.2118708E-2],"split_indices":[10,0,0,3,0,0,0],"split_type":[0,0,0,0,0,0,0],"sum_hessian":[5.4899592E0,1.0652926E0,4.4246664E0,2.9911726E0,1.433494E0,1.7521333E0,1.2390394E0],"tree_param":{"num_deleted":"0","num_feature":"11","num_nodes":"7","size_leaf_vector":"1"}},{"base_weights":[5.715123E-5,5.9820194E-2,-5.8070984E-2,-4.4151843E-3,3.0942151E-2,-4.4934057E-2,1.4755147E-2],"categories":[],"categories_nodes":[],"categories_segments":[],"categories_sizes":[],"default_left":[0,0,0,0,0,0,0],"id":85,"left_children":[1,3,5,-1,-1,-1,-1],"loss_changes":[2.592591E-2,1.3398333E-2,4.4584773E-2,0E0,0E0,0E0,0E0],"parents":[2147483647,0,0,1,1,2,2],"right_children":[2,4,6,-1,-1,-1,-1],"split_conditions":[1.0305778E3,8.55E1,4E0,-4.4151843E-3,3.0942151E-2,-4.4934057E-2,1.4755147E-2],"split_indices":[0,0,3,0,0,0,0],"split_type":[0,0,0,0,0,0,0],"sum_hessian":[5.463053E0,2.6792932E0,2.78376E0,1.2275034E0,1.4517899E0,1.2868974E0,1.4968625E0],"tree_param":{"num_deleted":"0","num_feature":"11","num_nodes":"7","size_leaf_vector":"1"}},{"base_weights":[-5.3802837E-4,3.9484475E-2,-2.9570442E-2,-2.114448E-2,1.2174019E-1,6.510481E-2,-1.1769221E-2],"categories":[],"categories_nodes":[],"categories_segments":[],"categories_sizes":[],"default_left":[0,0,0,0,0,0,0],"id":86,"left_children":[1,3,-1,-1,5,-1,-1],"loss_changes":[2.9202169E-2,5.6474213E-2,0E0,0E0,6.0593016E-2,0E0,0E0],"parents":[2147483647,0,0,1,1,4,4],"right_children":[2,4,-1,-1,6,-1,-1],"split_conditions":[1.2E1,5.364545E2,-2.9570442E-2,-2.114448E-2,3.43775E3,6.510481E-2,-1.1769221E-2],"split_indices":[3,0,0,0,0,0,0],"split_type":[0,0,0,0,0,0,0],"sum_hessian":[5.451086E0,4.2948565E0,1.1562294E0,1.8991115E0,2.395745E0,1.286261E0,1.1094841E0],"tree_param":{"num_deleted":"0","num_feature":"11","num_nodes":"7","size_leaf_vector":"1"}},{"base_weights":[1.6957935E-4,2.5595797E-2,-4.7505315E-2,-4.132648E-2,2.0301122E-2],"categories":[],"categories_nodes":[],"categories_segments":[],"categories_sizes":[],"default_left":[0,0,0,0,0],"id":87,"left_children":[1,-1,3,-1,-1],"loss_changes":[3.0060759E-2,0E0,5.869008E-2,0E0,0E0],"parents":[2147483647,0,0,2,2],"right_children":[2,-1,4,-1,-1],"split_conditions":[2.3834952E2,2.5595797E-2,5E-1,-4.132648E-2,2.0301122E-2],"split_indices":[1,0,4,0,0],"split_type":[0,0,0,0,0],"sum_hessian":[5.406604E0,1.6571839E0,3.74942E0,1.992271E0,1.7571489E0],"tree_param":{"num_deleted":"0","num_feature":"11","num_nodes":"5","size_leaf_vector":"1"}},{"base_weights":[8.2188915E-4,4.714647E-2,-2.1708667E-2,-2.861218E-2,3.7308704E-2,1.9799206E-2,-3.228656E-2],"categories":[],"categories_nodes":[],"categories_segments":[],"categories_sizes":[],"default_left":[0,0,0,0,0,0,0],"id":88,"left_children":[1,3,-1,5,-1,-1,-1],"loss_changes":[2.510114E-2,3.0018352E-2,0E0,3.0246606E-2,0E0,0E0,0E0],"parents":[2147483647,0,0,1,1,3,3],"right_children":[2,4,-1,6,-1,-1,-1],"split_conditions":[6E0,1E0,-2.1708667E-2,5.17E2,3.7308704E-2,1.9799206E-2,-3.228656E-2],"split_indices":[2,6,0,0,0,0,0],"split_type":[0,0,0,0,0,0,0],"sum_hessian":[5.3976665E0,3.5232673E0,1.8743991E0,2.096139E0,1.4271283E0,1.0288469E0,1.0672921E0],"tree_param":{"num_deleted":"0","num_feature":"11","num_nodes":"7","size_leaf_vector":"1"}},{"base_weights":[1.0761956E-3,-3.911311E-2,2.54188E-2,4.563165E-2,-4.989935E-2,4.550982E-2,-1.7321637E-2],"categories":[],"categories_nodes":[],"categories_segments":[],"categories_sizes":[],"default_left":[0,0,0,0,0,0,0],"id":89,"left_children":[1,3,-1,5,-1,-1,-1],"loss_changes":[2.4774028E-2,6.1450887E-2,0E0,5.023896E-2,0E0,0E0,0E0],"parents":[2147483647,0,0,1,1,3,3],"right_children":[2,4,-1,6,-1,-1,-1],"split_conditions":[1.4438E3,4.1793E4,2.54188E-2,8.77193E-1,-4.989935E-2,4.550982E-2,-1.7321637E-2],"split_indices":[1,7,0,10,0,0,0],"split_type":[0,0,0,0,0,0,0],"sum_hessian":[5.383179E0,3.9958823E0,1.3872967E0,2.7831993E0,1.212683E0,1.1429223E0,1.640277E0],"tree_param":{"num_deleted":"0","num_feature":"11","num_nodes":"7","size_leaf_vector":"1"}},{"base_weights":[1.342266E-3,-3.952507E-2,3.0349758E-2,5.324361E-2,-5.13619E-2,-1.4064232E-2,4.97883E-2],"categories":[],"categories_nodes":[],"categories_segments":[],"categories_sizes":[],"default_left":[0,0,0,0,0,0,0],"id":90,"left_children":[1,3,-1,5,-1,-1,-1],"loss_changes":[2.9912213E-2,7.295649E-2,0E0,5.0991528E-2,0E0,0E0,0E0],"parents":[2147483647,0,0,1,1,3,3],"right_children":[2,4,-1,6,-1,-1,-1],"split_conditions":[6.5836E4,1.1527529E3,3.0349758E-2,5.364545E2,-5.13619E-2,-1.4064232E-2,4.97883E-2],"split_indices":[7,1,0,0,0,0,0],"split_type":[0,0,0,0,0,0,0],"sum_hessian":[5.3521204E0,4.2260466E0,1.126074E0,2.8288212E0,1.3972253E0,1.8074175E0,1.0214037E0],"tree_param":{"num_deleted":"0","num_feature":"11","num_nodes":"7","size_leaf_vector":"1"}},{"base_weights":[3.2894043E-3,-3.8958468E-2,2.6967375E-2,4.7475986E-2,-4.5236584E-2,-8.258654E-3,3.383374E-2],"categories":[],"categories_nodes":[],"categories_segments":[],"categories_sizes":[],"default_left":[0,0,0,0,0,0,0],"id":91,"left_children":[1,3,-1,5,-1,-1,-1],"loss_changes":[2.6630886E-2,5.4971013E-2,0E0,2.0495487E-2,0E0,0E0,0E0],"parents":[2147483647,0,0,1,1,3,3],"right_children":[2,4,-1,6,-1,-1,-1],"split_conditions":[1.4438E3,1.1682059E3,2.6967375E-2,2E0,-4.5236584E-2,-8.258654E-3,3.383374E-2],"split_indices":[1,0,0,3,0,0,0],"split_type":[0,0,0,0,0,0,0],"sum_hessian":[5.321531E0,3.9464405E0,1.3750902E0,2.550557E0,1.3958836E0,1.4563226E0,1.0942342E0],"tree_param":{"num_deleted":"0","num_feature":"11","num_nodes":"7","size_leaf_vector":"1"}},{"base_weights":[3.4635845E-3,4.1870575E-2,-2.775289E-2,-2.0833854E-2,1.253551E-1,6.372235E-2,-8.20221E-3],"categories":[],"categories_nodes":[],"categories_segments":[],"categories_sizes":[],"default_left":[0,0,0,0,0,0,0],"id":92,"left_children":[1,3,-1,-1,5,-1,-1],"loss_changes":[2.7098374E-2,5.6922216E-2,0E0,0E0,4.9956497E-2,0E0,0E0],"parents":[2147483647,0,0,1,1,4,4],"right_children":[2,4,-1,-1,6,-1,-1],"split_conditions":[1.2E1,5.364545E2,-2.775289E-2,-2.0833854E-2,1.3943778E3,6.372235E-2,-8.20221E-3],"split_indices":[3,0,0,0,1,0,0],"split_type":[0,0,0,0,0,0,0],"sum_hessian":[5.30078E0,4.188381E0,1.1123989E0,1.8670479E0,2.3213332E0,1.2293955E0,1.0919378E0],"tree_param":{"num_deleted":"0","num_feature":"11","num_nodes":"7","size_leaf_vector":"1"}},{"base_weights":[3.675465E-3,5.9828863E-2,-6.004159E-2,-1.0526628E-2,3.502363E-2,-4.773564E-2,2.3271184E-2],"categories":[],"categories_nodes":[],"categories_segments":[],"categories_sizes":[],"default_left":[0,0,0,0,0,0,0],"id":93,"left_children":[1,3,5,-1,-1,-1,-1],"loss_changes":[2.5992244E-2,2.478062E-2,5.913427E-2,0E0,0E0,0E0,0E0],"parents":[2147483647,0,0,1,1,2,2],"right_children":[2,4,6,-1,-1,-1,-1],"split_conditions":[2.1199E4,4.6666666E2,6.5836E4,-1.0526628E-2,3.502363E-2,-4.773564E-2,2.3271184E-2],"split_indices":[7,0,7,0,0,0,0],"split_type":[0,0,0,0,0,0,0],"sum_hessian":[5.260611E0,2.8287108E0,2.4319003E0,1.2041312E0,1.6245794E0,1.3230526E0,1.1088476E0],"tree_param":{"num_deleted":"0","num_feature":"11","num_nodes":"7","size_leaf_vector":"1"}},{"base_weights":[2.582078E-3,2.714308E-2,-4.1755892E-2,-1.0945359E-1,2.2644818E-2,5.012202E-3,-5.919721E-2],"categories":[],"categories_nodes":[],"categories_segments":[],"categories_sizes":[],"default_left":[0,0,0,0,0,0,0],"id":94,"left_children":[1,-1,3,5,-1,-1,-1],"loss_changes":[2.8081892E-2,0E0,4.6593193E-2,4.176255E-2,0E0,0E0,0E0],"parents":[2147483647,0,0,2,2,3,3],"right_children":[2,-1,4,6,-1,-1,-1],"split_conditions":[1.74E2,2.714308E-2,1.4438E3,4.1793E4,2.2644818E-2,5.012202E-3,-5.919721E-2],"split_indices":[0,0,1,7,0,0,0],"split_type":[0,0,0,0,0,0,0],"sum_hessian":[5.2364516E0,1.4068722E0,3.8295796E0,2.4698212E0,1.3597583E0,1.3464725E0,1.1233487E0],"tree_param":{"num_deleted":"0","num_feature":"11","num_nodes":"7","size_leaf_vector":"1"}},{"base_weights":[1.0367105E-3,-4.515751E-2,2.3052871E-2,6.0385875E-2,-5.9239283E-2,3.253575E-2,-3.471188E-3],"categories":[],"categories_nodes":[],"categories_segments":[],"categories_sizes":[],"default_left":[0,0,0,0,0,0,0],"id":95,"left_children":[1,3,-1,5,-1,-1,-1],"loss_changes":[2.5226833E-2,8.410677E-2,0E0,1.3077357E-2,0E0,0E0,0E0],"parents":[2147483647,0,0,1,1,3,3],"right_children":[2,4,-1,6,-1,-1,-1],"split_conditions":[8E0,1.3333334E0,2.3052871E-2,1.664E2,-5.9239283E-2,3.253575E-2,-3.471188E-3],"split_indices":[3,6,0,0,0,0,0],"split_type":[0,0,0,0,0,0,0],"sum_hessian":[5.2130184E0,3.4903796E0,1.7226387E0,2.4181848E0,1.0721948E0,1.1456802E0,1.2725046E0],"tree_param":{"num_deleted":"0","num_feature":"11","num_nodes":"7","size_leaf_vector":"1"}},{"base_weights":[-4.7051904E-4,-3.8785003E-2,2.455487E-2,2.8027138E-2,-4.416907E-2,3.0534113E-2,-1.7341647E-2],"categories":[],"categories_nodes":[],"categories_segments":[],"categories_sizes":[],"default_left":[0,0,0,0,0,0,0],"id":96,"left_children":[1,3,-1,5,-1,-1,-1],"loss_changes":[2.270669E-2,3.9660733E-2,0E0,3.0412508E-2,0E0,0E0,0E0],"parents":[2147483647,0,0,1,1,3,3],"right_children":[2,4,-1,6,-1,-1,-1],"split_conditions":[3.1666667E0,2.3423423E-1,2.455487E-2,2.42E2,-4.416907E-2,3.0534113E-2,-1.7341647E-2],"split_indices":[5,5,0,1,0,0,0],"split_type":[0,0,0,0,0,0,0],"sum_hessian":[5.192719E0,3.9043546E0,1.2883644E0,2.8747818E0,1.0295728E0,1.4462581E0,1.4285238E0],"tree_param":{"num_deleted":"0","num_feature":"11","num_nodes":"7","size_leaf_vector":"1"}},{"base_weights":[-1.391519E-3,-3.6479276E-2,2.5613427E-2,4.3612212E-2,-4.4302493E-2,-1.5153245E-2,3.907387E-2],"categories":[],"categories_nodes":[],"categories_segments":[],"categories_sizes":[],"default_left":[0,0,0,0,0,0,0],"id":97,"left_children":[1,3,-1,5,-1,-1,-1],"loss_changes":[2.1913989E-2,5.1837467E-2,0E0,3.7036356E-2,0E0,0E0,0E0],"parents":[2147483647,0,0,1,1,3,3],"right_children":[2,4,-1,6,-1,-1,-1],"split_conditions":[6.5836E4,1.1527529E3,2.5613427E-2,4.6666666E2,-4.4302493E-2,-1.5153245E-2,3.907387E-2],"split_indices":[7,1,0,0,0,0,0],"split_type":[0,0,0,0,0,0,0],"sum_hessian":[5.1747885E0,4.097452E0,1.0773364E0,2.7351677E0,1.3622843E0,1.5107669E0,1.2244009E0],"tree_param":{"num_deleted":"0","num_feature":"11","num_nodes":"7","size_leaf_vector":"1"}},{"base_weights":[-1.2191283E-4,-4.3799844E-2,2.6798293E-2,4.1778017E-2,-3.9260946E-2,-7.7946903E-3,2.8007155E-2],"categories":[],"categories_nodes":[],"categories_segments":[],"categories_sizes":[],"default_left":[0,0,0,0,0,0,0],"id":98,"left_children":[1,3,-1,5,-1,-1,-1],"loss_changes":[2.7953722E-2,4.127469E-2,0E0,1.3545193E-2,0E0,0E0,0E0],"parents":[2147483647,0,0,1,1,3,3],"right_children":[2,4,-1,6,-1,-1,-1],"split_conditions":[1.4438E3,4.98E2,2.6798293E-2,1.04583336E2,-3.9260946E-2,-7.7946903E-3,2.8007155E-2],"split_indices":[1,1,0,1,0,0,0],"split_type":[0,0,0,0,0,0,0],"sum_hessian":[5.153407E0,3.8055227E0,1.3478843E0,2.181543E0,1.6239794E0,1.1573625E0,1.0241808E0],"tree_param":{"num_deleted":"0","num_feature":"11","num_nodes":"7","size_leaf_vector":"1"}},{"base_weights":[1.1713447E-3,3.748448E-2,-2.6393818E-2,-2.2384893E-2,1.2394663E-1,6.172611E-2,-7.500456E-3],"categories":[],"categories_nodes":[],"categories_segments":[],"categories_sizes":[],"default_left":[0,0,0,0,0,0,